<?xml version="1.0"?>
<opencv_storage>
<cascade>
  <stageType>BOOST</stageType>
  <featureType>HOG</featureType>
  <height>36</height>
  <width>36</width>
  <stageParams>
    <boostType>GAB</boostType>
    <minHitRate>9.9500000476837158e-01</minHitRate>
    <maxFalseAlarm>1.0000000149011612e-01</maxFalseAlarm>
    <weightTrimRate>9.4999999999999996e-01</weightTrimRate>
    <maxDepth>1</maxDepth>
    <maxWeakCount>100</maxWeakCount></stageParams>
  <featureParams>
    <maxCatCount>0</maxCatCount>
    <featSize>36</featSize></featureParams>
  <stageNum>22</stageNum>
  <stages>
    <!-- stage 0 -->
    <_>
      <maxWeakCount>60</maxWeakCount>
      <stageThreshold>-1.3155730962753296e+00</stageThreshold>
      <weakClassifiers>
        <_>
          <internalNodes>
            0 -1 434 6.3657522201538086e-02</internalNodes>
          <leafValues>
            -6.8292683362960815e-01 1.1320754885673523e-01</leafValues></_>
        <_>
          <internalNodes>
            0 -1 579 2.4639043956995010e-02</internalNodes>
          <leafValues>
            -5.4606747627258301e-01 2.6844695210456848e-01</leafValues></_>
        <_>
          <internalNodes>
            0 -1 656 2.8889171779155731e-02</internalNodes>
          <leafValues>
            -5.4722213745117188e-01 2.9931956529617310e-01</leafValues></_>
        <_>
          <internalNodes>
            0 -1 752 2.6036351919174194e-02</internalNodes>
          <leafValues>
            -4.0980517864227295e-01 3.2490602135658264e-01</leafValues></_>
        <_>
          <internalNodes>
            0 -1 443 4.0587171912193298e-02</internalNodes>
          <leafValues>
            -3.1577903032302856e-01 4.2130237817764282e-01</leafValues></_>
        <_>
          <internalNodes>
            0 -1 1003 1.8950361758470535e-02</internalNodes>
          <leafValues>
            -4.4716098904609680e-01 2.1405127644538879e-01</leafValues></_>
        <_>
          <internalNodes>
            0 -1 441 1.0103872977197170e-02</internalNodes>
          <leafValues>
            3.1029716134071350e-01 -3.4665948152542114e-01</leafValues></_>
        <_>
          <internalNodes>
            0 -1 876 1.4852317981421947e-02</internalNodes>
          <leafValues>
            -5.8296924829483032e-01 1.3231723010540009e-01</leafValues></_>
        <_>
          <internalNodes>
            0 -1 1055 1.1000057682394981e-02</internalNodes>
          <leafValues>
            -5.8059698343276978e-01 1.0930971801280975e-01</leafValues></_>
        <_>
          <internalNodes>
            0 -1 184 1.5846135094761848e-02</internalNodes>
          <leafValues>
            2.3917888104915619e-01 -3.2100296020507812e-01</leafValues></_>
        <_>
          <internalNodes>
            0 -1 815 1.6008969396352768e-02</internalNodes>
          <leafValues>
            -4.4840136170387268e-01 1.1457582563161850e-01</leafValues></_>
        <_>
          <internalNodes>
            0 -1 746 3.3363811671733856e-02</internalNodes>
          <leafValues>
            -1.9076533615589142e-01 2.9481804370880127e-01</leafValues></_>
        <_>
          <internalNodes>
            0 -1 723 8.1229686737060547e-02</internalNodes>
          <leafValues>
            -1.2091518938541412e-01 4.9065709114074707e-01</leafValues></_>
        <_>
          <internalNodes>
            0 -1 573 3.9048269391059875e-02</internalNodes>
          <leafValues>
            -1.3177828490734100e-01 3.8019293546676636e-01</leafValues></_>
        <_>
          <internalNodes>
            0 -1 77 2.2441798821091652e-02</internalNodes>
          <leafValues>
            -2.1688614785671234e-01 2.4437727034091949e-01</leafValues></_>
        <_>
          <internalNodes>
            0 -1 1032 3.4476626664400101e-02</internalNodes>
          <leafValues>
            8.8444218039512634e-02 -6.5260821580886841e-01</leafValues></_>
        <_>
          <internalNodes>
            0 -1 1009 1.2290324084460735e-02</internalNodes>
          <leafValues>
            -4.7752434015274048e-01 8.0686338245868683e-02</leafValues></_>
        <_>
          <internalNodes>
            0 -1 954 3.9378739893436432e-02</internalNodes>
          <leafValues>
            -2.3878824710845947e-01 1.8045920133590698e-01</leafValues></_>
        <_>
          <internalNodes>
            0 -1 149 2.0795553922653198e-02</internalNodes>
          <leafValues>
            1.3392940163612366e-01 -3.3038914203643799e-01</leafValues></_>
        <_>
          <internalNodes>
            0 -1 550 2.1954741328954697e-02</internalNodes>
          <leafValues>
            1.2232058495283127e-01 -3.5899570584297180e-01</leafValues></_>
        <_>
          <internalNodes>
            0 -1 1068 1.6529902815818787e-02</internalNodes>
          <leafValues>
            -3.0073228478431702e-01 1.2780532240867615e-01</leafValues></_>
        <_>
          <internalNodes>
            0 -1 406 2.6336459442973137e-02</internalNodes>
          <leafValues>
            1.1237604171037674e-01 -3.8097175955772400e-01</leafValues></_>
        <_>
          <internalNodes>
            0 -1 732 5.9257745742797852e-03</internalNodes>
          <leafValues>
            -8.4380680322647095e-01 3.8291811943054199e-02</leafValues></_>
        <_>
          <internalNodes>
            0 -1 596 5.8824934065341949e-02</internalNodes>
          <leafValues>
            -6.0530718415975571e-02 7.3269045352935791e-01</leafValues></_>
        <_>
          <internalNodes>
            0 -1 267 1.7702206969261169e-02</internalNodes>
          <leafValues>
            1.6345879435539246e-01 -2.3070389032363892e-01</leafValues></_>
        <_>
          <internalNodes>
            0 -1 1001 5.7664662599563599e-03</internalNodes>
          <leafValues>
            -6.9267255067825317e-01 5.1973182708024979e-02</leafValues></_>
        <_>
          <internalNodes>
            0 -1 727 8.1095457077026367e-02</internalNodes>
          <leafValues>
            3.9971757680177689e-02 -7.4199795722961426e-01</leafValues></_>
        <_>
          <internalNodes>
            0 -1 626 4.6249046921730042e-02</internalNodes>
          <leafValues>
            -1.6402602195739746e-01 2.3035293817520142e-01</leafValues></_>
        <_>
          <internalNodes>
            0 -1 1063 3.7485353648662567e-02</internalNodes>
          <leafValues>
            -1.5321530401706696e-01 2.7580475807189941e-01</leafValues></_>
        <_>
          <internalNodes>
            0 -1 894 1.9526783376932144e-02</internalNodes>
          <leafValues>
            -3.4256982803344727e-01 1.3527907431125641e-01</leafValues></_>
        <_>
          <internalNodes>
            0 -1 700 1.3323463499546051e-02</internalNodes>
          <leafValues>
            3.2140851020812988e-01 -1.3407883048057556e-01</leafValues></_>
        <_>
          <internalNodes>
            0 -1 361 3.1758192926645279e-02</internalNodes>
          <leafValues>
            -2.2414168715476990e-01 1.4473092555999756e-01</leafValues></_>
        <_>
          <internalNodes>
            0 -1 540 4.7525048255920410e-02</internalNodes>
          <leafValues>
            -1.2097539007663727e-01 2.8404897451400757e-01</leafValues></_>
        <_>
          <internalNodes>
            0 -1 860 2.0734727382659912e-02</internalNodes>
          <leafValues>
            -3.5991856455802917e-01 9.7489684820175171e-02</leafValues></_>
        <_>
          <internalNodes>
            0 -1 567 3.1408336013555527e-02</internalNodes>
          <leafValues>
            -9.3759417533874512e-02 4.1178232431411743e-01</leafValues></_>
        <_>
          <internalNodes>
            0 -1 100 1.5547454357147217e-01</internalNodes>
          <leafValues>
            3.7531118839979172e-02 -8.2031047344207764e-01</leafValues></_>
        <_>
          <internalNodes>
            0 -1 739 1.8511461094021797e-02</internalNodes>
          <leafValues>
            3.4393921494483948e-01 -9.4762630760669708e-02</leafValues></_>
        <_>
          <internalNodes>
            0 -1 551 1.5192659571766853e-02</internalNodes>
          <leafValues>
            1.2559565901756287e-01 -2.3677773773670197e-01</leafValues></_>
        <_>
          <internalNodes>
            0 -1 841 1.5563422814011574e-02</internalNodes>
          <leafValues>
            -3.5457959771156311e-01 8.8495977222919464e-02</leafValues></_>
        <_>
          <internalNodes>
            0 -1 1035 2.8232004493474960e-02</internalNodes>
          <leafValues>
            6.5463252365589142e-02 -4.1280320286750793e-01</leafValues></_>
        <_>
          <internalNodes>
            0 -1 708 6.9342525675892830e-03</internalNodes>
          <leafValues>
            -6.4520364999771118e-01 4.0977321565151215e-02</leafValues></_>
        <_>
          <internalNodes>
            0 -1 244 2.5027960538864136e-02</internalNodes>
          <leafValues>
            1.0458483546972275e-01 -2.4462720751762390e-01</leafValues></_>
        <_>
          <internalNodes>
            0 -1 463 1.7591476440429688e-02</internalNodes>
          <leafValues>
            1.9912154972553253e-01 -1.4868611097335815e-01</leafValues></_>
        <_>
          <internalNodes>
            0 -1 867 1.1360470950603485e-01</internalNodes>
          <leafValues>
            2.7169030159711838e-02 -9.7561913728713989e-01</leafValues></_>
        <_>
          <internalNodes>
            0 -1 973 2.5131630245596170e-03</internalNodes>
          <leafValues>
            -6.8780916929244995e-01 2.5912962853908539e-02</leafValues></_>
        <_>
          <internalNodes>
            0 -1 177 4.0260292589664459e-02</internalNodes>
          <leafValues>
            -7.7291905879974365e-02 3.4501960873603821e-01</leafValues></_>
        <_>
          <internalNodes>
            0 -1 614 7.6418131589889526e-02</internalNodes>
          <leafValues>
            -7.6553724706172943e-02 3.1004127860069275e-01</leafValues></_>
        <_>
          <internalNodes>
            0 -1 577 8.6618527770042419e-02</internalNodes>
          <leafValues>
            4.8766847699880600e-02 -6.7336517572402954e-01</leafValues></_>
        <_>
          <internalNodes>
            0 -1 391 5.8888789266347885e-02</internalNodes>
          <leafValues>
            -9.1041505336761475e-02 2.7592810988426208e-01</leafValues></_>
        <_>
          <internalNodes>
            0 -1 48 2.1941626444458961e-02</internalNodes>
          <leafValues>
            -2.4571467936038971e-01 1.1221345514059067e-01</leafValues></_>
        <_>
          <internalNodes>
            0 -1 112 9.6521619707345963e-03</internalNodes>
          <leafValues>
            5.3952884674072266e-01 -5.7214904576539993e-02</leafValues></_>
        <_>
          <internalNodes>
            0 -1 1011 6.0719712637364864e-03</internalNodes>
          <leafValues>
            -6.5808039903640747e-01 5.0332903861999512e-02</leafValues></_>
        <_>
          <internalNodes>
            0 -1 5 5.8856979012489319e-03</internalNodes>
          <leafValues>
            2.5637990236282349e-01 -1.0589256882667542e-01</leafValues></_>
        <_>
          <internalNodes>
            0 -1 467 1.6640271991491318e-02</internalNodes>
          <leafValues>
            -1.6895399987697601e-01 1.7665728926658630e-01</leafValues></_>
        <_>
          <internalNodes>
            0 -1 457 3.0228059738874435e-02</internalNodes>
          <leafValues>
            -1.5274350345134735e-01 1.5355724096298218e-01</leafValues></_>
        <_>
          <internalNodes>
            0 -1 275 3.7443086504936218e-02</internalNodes>
          <leafValues>
            6.2676243484020233e-02 -4.5745140314102173e-01</leafValues></_>
        <_>
          <internalNodes>
            0 -1 620 3.8797739893198013e-02</internalNodes>
          <leafValues>
            -2.0461551845073700e-01 1.1227095127105713e-01</leafValues></_>
        <_>
          <internalNodes>
            0 -1 72 4.7859899699687958e-02</internalNodes>
          <leafValues>
            -8.8012404739856720e-02 2.9612979292869568e-01</leafValues></_>
        <_>
          <internalNodes>
            0 -1 783 1.7531508579850197e-02</internalNodes>
          <leafValues>
            -1.7192140221595764e-01 1.4262163639068604e-01</leafValues></_>
        <_>
          <internalNodes>
            0 -1 1059 5.6274853646755219e-02</internalNodes>
          <leafValues>
            -1.0595406591892242e-01 2.3075835406780243e-01</leafValues></_></weakClassifiers></_>
    <!-- stage 1 -->
    <_>
      <maxWeakCount>100</maxWeakCount>
      <stageThreshold>-1.5803897380828857e+00</stageThreshold>
      <weakClassifiers>
        <_>
          <internalNodes>
            0 -1 447 4.4273082166910172e-03</internalNodes>
          <leafValues>
            -5.8757063001394272e-02 -6.4572745561599731e-01</leafValues></_>
        <_>
          <internalNodes>
            0 -1 664 4.0187127888202667e-02</internalNodes>
          <leafValues>
            -3.9298611879348755e-01 1.5679281949996948e-01</leafValues></_>
        <_>
          <internalNodes>
            0 -1 688 4.4018909335136414e-02</internalNodes>
          <leafValues>
            -2.8575676679611206e-01 2.0003098249435425e-01</leafValues></_>
        <_>
          <internalNodes>
            0 -1 935 1.1953061446547508e-02</internalNodes>
          <leafValues>
            -5.5851209163665771e-01 6.8148985505104065e-02</leafValues></_>
        <_>
          <internalNodes>
            0 -1 690 1.9847972318530083e-02</internalNodes>
          <leafValues>
            1.5694984793663025e-01 -2.6999062299728394e-01</leafValues></_>
        <_>
          <internalNodes>
            0 -1 87 7.6534703373908997e-02</internalNodes>
          <leafValues>
            9.4143018126487732e-02 -5.7933908700942993e-01</leafValues></_>
        <_>
          <internalNodes>
            0 -1 771 7.0127276703715324e-03</internalNodes>
          <leafValues>
            -3.9128395915031433e-01 8.9351758360862732e-02</leafValues></_>
        <_>
          <internalNodes>
            0 -1 849 3.2921876758337021e-02</internalNodes>
          <leafValues>
            -2.7939081192016602e-01 1.2523035705089569e-01</leafValues></_>
        <_>
          <internalNodes>
            0 -1 1076 7.9635187983512878e-02</internalNodes>
          <leafValues>
            8.7205320596694946e-02 -6.0229361057281494e-01</leafValues></_>
        <_>
          <internalNodes>
            0 -1 679 5.1945917308330536e-02</internalNodes>
          <leafValues>
            -1.8291129171848297e-01 1.6155208647251129e-01</leafValues></_>
        <_>
          <internalNodes>
            0 -1 575 2.4503858759999275e-02</internalNodes>
          <leafValues>
            -1.5247316658496857e-01 2.3613449931144714e-01</leafValues></_>
        <_>
          <internalNodes>
            0 -1 859 2.3211311548948288e-02</internalNodes>
          <leafValues>
            -2.8119844198226929e-01 1.1027158796787262e-01</leafValues></_>
        <_>
          <internalNodes>
            0 -1 994 1.9142175093293190e-02</internalNodes>
          <leafValues>
            -4.2505502700805664e-01 5.8588076382875443e-02</leafValues></_>
        <_>
          <internalNodes>
            0 -1 463 5.9381395578384399e-02</internalNodes>
          <leafValues>
            7.4668504297733307e-02 -4.5108908414840698e-01</leafValues></_>
        <_>
          <internalNodes>
            0 -1 10 4.6155057847499847e-02</internalNodes>
          <leafValues>
            -1.5114110708236694e-01 1.8519440293312073e-01</leafValues></_>
        <_>
          <internalNodes>
            0 -1 873 7.8472346067428589e-02</internalNodes>
          <leafValues>
            3.1891129910945892e-02 -8.0224931240081787e-01</leafValues></_>
        <_>
          <internalNodes>
            0 -1 378 1.7205642536282539e-02</internalNodes>
          <leafValues>
            1.0944049060344696e-01 -2.1042129397392273e-01</leafValues></_>
        <_>
          <internalNodes>
            0 -1 545 6.9378271698951721e-02</internalNodes>
          <leafValues>
            -3.1539060175418854e-02 7.4129658937454224e-01</leafValues></_>
        <_>
          <internalNodes>
            0 -1 556 6.9645076990127563e-02</internalNodes>
          <leafValues>
            5.3737834095954895e-02 -4.3934449553489685e-01</leafValues></_>
        <_>
          <internalNodes>
            0 -1 474 1.5749868750572205e-01</internalNodes>
          <leafValues>
            2.2202817723155022e-02 -7.9947316646575928e-01</leafValues></_>
        <_>
          <internalNodes>
            0 -1 740 2.6282576844096184e-02</internalNodes>
          <leafValues>
            -1.6916388273239136e-01 1.1762736737728119e-01</leafValues></_>
        <_>
          <internalNodes>
            0 -1 617 1.7471902072429657e-02</internalNodes>
          <leafValues>
            8.6928635835647583e-02 -2.1558666229248047e-01</leafValues></_>
        <_>
          <internalNodes>
            0 -1 891 5.1689725369215012e-02</internalNodes>
          <leafValues>
            -1.0353150963783264e-01 2.0188197493553162e-01</leafValues></_>
        <_>
          <internalNodes>
            0 -1 757 1.5798822045326233e-02</internalNodes>
          <leafValues>
            3.1417396664619446e-01 -6.0553189367055893e-02</leafValues></_>
        <_>
          <internalNodes>
            0 -1 823 2.8943847864866257e-03</internalNodes>
          <leafValues>
            -7.8536474704742432e-01 2.3934721946716309e-02</leafValues></_>
        <_>
          <internalNodes>
            0 -1 1024 6.0132235288619995e-02</internalNodes>
          <leafValues>
            -9.4378128647804260e-02 2.2719754278659821e-01</leafValues></_>
        <_>
          <internalNodes>
            0 -1 360 1.7113331705331802e-03</internalNodes>
          <leafValues>
            -7.6420718431472778e-01 2.4184929206967354e-02</leafValues></_>
        <_>
          <internalNodes>
            0 -1 1001 1.4997621066868305e-02</internalNodes>
          <leafValues>
            -1.7890171706676483e-01 9.8792001605033875e-02</leafValues></_>
        <_>
          <internalNodes>
            0 -1 49 7.4478507041931152e-02</internalNodes>
          <leafValues>
            -6.6919319331645966e-02 2.8632700443267822e-01</leafValues></_>
        <_>
          <internalNodes>
            0 -1 489 2.3792512714862823e-02</internalNodes>
          <leafValues>
            -1.6184729337692261e-01 1.0144106298685074e-01</leafValues></_>
        <_>
          <internalNodes>
            0 -1 346 2.5952173396945000e-02</internalNodes>
          <leafValues>
            -2.5874873995780945e-01 7.4033059179782867e-02</leafValues></_>
        <_>
          <internalNodes>
            0 -1 71 2.0480919629335403e-02</internalNodes>
          <leafValues>
            -1.2569853663444519e-01 1.4606402814388275e-01</leafValues></_>
        <_>
          <internalNodes>
            0 -1 750 2.1956253796815872e-02</internalNodes>
          <leafValues>
            -1.1943545192480087e-01 1.4338344335556030e-01</leafValues></_>
        <_>
          <internalNodes>
            0 -1 657 3.2650254666805267e-02</internalNodes>
          <leafValues>
            5.8024924248456955e-02 -3.3565774559974670e-01</leafValues></_>
        <_>
          <internalNodes>
            0 -1 989 1.5523490495979786e-02</internalNodes>
          <leafValues>
            -2.2208422422409058e-01 7.0697300136089325e-02</leafValues></_>
        <_>
          <internalNodes>
            0 -1 991 3.2428488135337830e-02</internalNodes>
          <leafValues>
            5.5490572005510330e-02 -3.6972132325172424e-01</leafValues></_>
        <_>
          <internalNodes>
            0 -1 219 4.8380173742771149e-02</internalNodes>
          <leafValues>
            2.3984260857105255e-02 -6.7410331964492798e-01</leafValues></_>
        <_>
          <internalNodes>
            0 -1 595 8.0272462218999863e-03</internalNodes>
          <leafValues>
            2.5418010354042053e-01 -7.1020096540451050e-02</leafValues></_>
        <_>
          <internalNodes>
            0 -1 321 3.5550132393836975e-02</internalNodes>
          <leafValues>
            -5.8182772248983383e-02 3.1102758646011353e-01</leafValues></_>
        <_>
          <internalNodes>
            0 -1 592 5.2786372601985931e-02</internalNodes>
          <leafValues>
            2.0495861768722534e-02 -7.7979838848114014e-01</leafValues></_>
        <_>
          <internalNodes>
            0 -1 949 3.5513065755367279e-02</internalNodes>
          <leafValues>
            4.9242794513702393e-02 -2.6556035876274109e-01</leafValues></_>
        <_>
          <internalNodes>
            0 -1 464 6.7374907433986664e-02</internalNodes>
          <leafValues>
            4.7423306852579117e-02 -3.0783820152282715e-01</leafValues></_>
        <_>
          <internalNodes>
            0 -1 371 1.4721332117915154e-02</internalNodes>
          <leafValues>
            2.8699207305908203e-01 -6.1157971620559692e-02</leafValues></_>
        <_>
          <internalNodes>
            0 -1 992 1.1665053665637970e-01</internalNodes>
          <leafValues>
            2.0497933030128479e-02 -8.1832844018936157e-01</leafValues></_>
        <_>
          <internalNodes>
            0 -1 445 1.3034847564995289e-02</internalNodes>
          <leafValues>
            8.8890224695205688e-02 -1.7502088844776154e-01</leafValues></_>
        <_>
          <internalNodes>
            0 -1 262 3.6226145923137665e-02</internalNodes>
          <leafValues>
            -1.5581455826759338e-01 9.9475957453250885e-02</leafValues></_>
        <_>
          <internalNodes>
            0 -1 1076 6.0732834041118622e-02</internalNodes>
          <leafValues>
            6.5269984304904938e-02 -2.6247417926788330e-01</leafValues></_>
        <_>
          <internalNodes>
            0 -1 960 3.0156854540109634e-02</internalNodes>
          <leafValues>
            4.1181188076734543e-02 -2.8956067562103271e-01</leafValues></_>
        <_>
          <internalNodes>
            0 -1 206 6.5797857940196991e-02</internalNodes>
          <leafValues>
            -2.2588238120079041e-02 6.7105126380920410e-01</leafValues></_>
        <_>
          <internalNodes>
            0 -1 670 1.8057918176054955e-02</internalNodes>
          <leafValues>
            1.0408113896846771e-01 -1.2632733583450317e-01</leafValues></_>
        <_>
          <internalNodes>
            0 -1 569 1.1648084223270416e-01</internalNodes>
          <leafValues>
            2.5069395080208778e-02 -5.8197629451751709e-01</leafValues></_>
        <_>
          <internalNodes>
            0 -1 840 4.0869116783142090e-03</internalNodes>
          <leafValues>
            -6.9295591115951538e-01 1.8190747126936913e-02</leafValues></_>
        <_>
          <internalNodes>
            0 -1 1038 7.5802430510520935e-03</internalNodes>
          <leafValues>
            -6.8053597211837769e-01 1.4226196333765984e-02</leafValues></_>
        <_>
          <internalNodes>
            0 -1 658 1.4778258278965950e-02</internalNodes>
          <leafValues>
            1.3217268884181976e-01 -1.0179504752159119e-01</leafValues></_>
        <_>
          <internalNodes>
            0 -1 88 8.1420294940471649e-02</internalNodes>
          <leafValues>
            3.8712862879037857e-02 -3.3250108361244202e-01</leafValues></_>
        <_>
          <internalNodes>
            0 -1 619 1.5045391395688057e-02</internalNodes>
          <leafValues>
            1.2620158493518829e-01 -1.0730426013469696e-01</leafValues></_>
        <_>
          <internalNodes>
            0 -1 967 8.9492790400981903e-02</internalNodes>
          <leafValues>
            2.7109997346997261e-02 -4.7060754895210266e-01</leafValues></_>
        <_>
          <internalNodes>
            0 -1 848 8.3754174411296844e-03</internalNodes>
          <leafValues>
            -2.5808563828468323e-01 4.7548692673444748e-02</leafValues></_>
        <_>
          <internalNodes>
            0 -1 535 1.8570232391357422e-01</internalNodes>
          <leafValues>
            -2.2378580644726753e-02 5.5536365509033203e-01</leafValues></_>
        <_>
          <internalNodes>
            0 -1 795 8.9021176099777222e-03</internalNodes>
          <leafValues>
            -4.2141640186309814e-01 2.9466599225997925e-02</leafValues></_>
        <_>
          <internalNodes>
            0 -1 111 2.2528666257858276e-01</internalNodes>
          <leafValues>
            -2.0342955365777016e-02 7.2081393003463745e-01</leafValues></_>
        <_>
          <internalNodes>
            0 -1 1018 2.5642145425081253e-02</internalNodes>
          <leafValues>
            4.9304511398077011e-02 -2.7012696862220764e-01</leafValues></_>
        <_>
          <internalNodes>
            0 -1 577 5.4396886378526688e-02</internalNodes>
          <leafValues>
            5.7996287941932678e-02 -2.1202197670936584e-01</leafValues></_>
        <_>
          <internalNodes>
            0 -1 556 3.9221532642841339e-03</internalNodes>
          <leafValues>
            -6.8960046768188477e-01 1.9284570589661598e-02</leafValues></_>
        <_>
          <internalNodes>
            0 -1 547 6.0623012483119965e-02</internalNodes>
          <leafValues>
            -3.2433934509754181e-02 4.2195168137550354e-01</leafValues></_>
        <_>
          <internalNodes>
            0 -1 762 7.1054652333259583e-02</internalNodes>
          <leafValues>
            -4.0682047605514526e-02 2.7495580911636353e-01</leafValues></_>
        <_>
          <internalNodes>
            0 -1 469 6.0384832322597504e-02</internalNodes>
          <leafValues>
            -3.1436406075954437e-02 4.2235395312309265e-01</leafValues></_>
        <_>
          <internalNodes>
            0 -1 326 6.9048784673213959e-02</internalNodes>
          <leafValues>
            -1.9764194265007973e-02 5.8954381942749023e-01</leafValues></_>
        <_>
          <internalNodes>
            0 -1 1038 8.4502696990966797e-02</internalNodes>
          <leafValues>
            2.8488133102655411e-02 -4.7077116370201111e-01</leafValues></_>
        <_>
          <internalNodes>
            0 -1 558 4.0788419544696808e-02</internalNodes>
          <leafValues>
            2.6949731633067131e-02 -4.6026027202606201e-01</leafValues></_>
        <_>
          <internalNodes>
            0 -1 412 5.7599615305662155e-02</internalNodes>
          <leafValues>
            1.2948360294103622e-02 -8.0211722850799561e-01</leafValues></_>
        <_>
          <internalNodes>
            0 -1 97 1.1245690286159515e-02</internalNodes>
          <leafValues>
            -1.5800403058528900e-01 6.7069828510284424e-02</leafValues></_>
        <_>
          <internalNodes>
            0 -1 878 1.7557639628648758e-02</internalNodes>
          <leafValues>
            8.0701388418674469e-02 -1.4085859060287476e-01</leafValues></_>
        <_>
          <internalNodes>
            0 -1 215 1.8645873060449958e-03</internalNodes>
          <leafValues>
            -3.6172711849212646e-01 2.8356293216347694e-02</leafValues></_>
        <_>
          <internalNodes>
            0 -1 682 2.5800270959734917e-03</internalNodes>
          <leafValues>
            3.8662743568420410e-01 -3.5055991262197495e-02</leafValues></_>
        <_>
          <internalNodes>
            0 -1 1078 3.9838254451751709e-03</internalNodes>
          <leafValues>
            -3.7516382336616516e-01 3.4878868609666824e-02</leafValues></_>
        <_>
          <internalNodes>
            0 -1 1051 1.2764635682106018e-01</internalNodes>
          <leafValues>
            9.4393175095319748e-03 -1.</leafValues></_>
        <_>
          <internalNodes>
            0 -1 249 6.8010330200195312e-02</internalNodes>
          <leafValues>
            -7.5897678732872009e-02 1.4946950972080231e-01</leafValues></_>
        <_>
          <internalNodes>
            0 -1 702 8.4009863436222076e-02</internalNodes>
          <leafValues>
            -5.3183820098638535e-02 2.2750027477741241e-01</leafValues></_>
        <_>
          <internalNodes>
            0 -1 636 3.5248026251792908e-02</internalNodes>
          <leafValues>
            -9.2693455517292023e-02 1.3844172656536102e-01</leafValues></_>
        <_>
          <internalNodes>
            0 -1 96 7.3006540536880493e-02</internalNodes>
          <leafValues>
            2.6784544810652733e-02 -5.5259734392166138e-01</leafValues></_>
        <_>
          <internalNodes>
            0 -1 393 2.3327935487031937e-02</internalNodes>
          <leafValues>
            -9.4498239457607269e-02 1.1753971129655838e-01</leafValues></_>
        <_>
          <internalNodes>
            0 -1 384 5.5944003164768219e-02</internalNodes>
          <leafValues>
            -7.8865319490432739e-02 1.6413639485836029e-01</leafValues></_>
        <_>
          <internalNodes>
            0 -1 342 9.3509070575237274e-03</internalNodes>
          <leafValues>
            4.3572854995727539e-01 -2.4664591997861862e-02</leafValues></_>
        <_>
          <internalNodes>
            0 -1 548 1.5770629048347473e-01</internalNodes>
          <leafValues>
            1.5287959948182106e-02 -8.0188184976577759e-01</leafValues></_>
        <_>
          <internalNodes>
            0 -1 1020 1.1218634247779846e-01</internalNodes>
          <leafValues>
            1.0515857487916946e-02 -7.3049318790435791e-01</leafValues></_>
        <_>
          <internalNodes>
            0 -1 352 3.3683754503726959e-02</internalNodes>
          <leafValues>
            -1.2268474698066711e-01 8.6624927818775177e-02</leafValues></_>
        <_>
          <internalNodes>
            0 -1 865 1.7898097634315491e-02</internalNodes>
          <leafValues>
            2.6024287939071655e-01 -4.6474229544401169e-02</leafValues></_>
        <_>
          <internalNodes>
            0 -1 89 3.1022924929857254e-02</internalNodes>
          <leafValues>
            -5.9441167861223221e-02 1.9558519124984741e-01</leafValues></_>
        <_>
          <internalNodes>
            0 -1 940 8.0669857561588287e-03</internalNodes>
          <leafValues>
            2.7701419591903687e-01 -4.4169556349515915e-02</leafValues></_>
        <_>
          <internalNodes>
            0 -1 633 9.1442074626684189e-03</internalNodes>
          <leafValues>
            -2.2272695600986481e-01 6.3396908342838287e-02</leafValues></_>
        <_>
          <internalNodes>
            0 -1 148 4.5526889152824879e-03</internalNodes>
          <leafValues>
            1.9012409448623657e-01 -5.9503681957721710e-02</leafValues></_>
        <_>
          <internalNodes>
            0 -1 1013 7.1160434745252132e-03</internalNodes>
          <leafValues>
            -8.3988106250762939e-01 1.2492144480347633e-02</leafValues></_>
        <_>
          <internalNodes>
            0 -1 853 3.2830789685249329e-02</internalNodes>
          <leafValues>
            -6.9288171827793121e-02 1.4903685450553894e-01</leafValues></_>
        <_>
          <internalNodes>
            0 -1 861 9.9380575120449066e-02</internalNodes>
          <leafValues>
            2.2641729563474655e-02 -5.9110671281814575e-01</leafValues></_>
        <_>
          <internalNodes>
            0 -1 551 4.1916510090231895e-03</internalNodes>
          <leafValues>
            1.6036508977413177e-01 -6.8765223026275635e-02</leafValues></_>
        <_>
          <internalNodes>
            0 -1 993 4.2788520455360413e-02</internalNodes>
          <leafValues>
            1.8869118764996529e-02 -5.9278291463851929e-01</leafValues></_>
        <_>
          <internalNodes>
            0 -1 446 4.2863100767135620e-02</internalNodes>
          <leafValues>
            1.9973497837781906e-02 -4.5515435934066772e-01</leafValues></_>
        <_>
          <internalNodes>
            0 -1 955 3.6752298474311829e-02</internalNodes>
          <leafValues>
            -3.8302700966596603e-02 3.2377877831459045e-01</leafValues></_>
        <_>
          <internalNodes>
            0 -1 98 4.7148609883151948e-04</internalNodes>
          <leafValues>
            -7.1800953149795532e-01 1.5645559877157211e-02</leafValues></_></weakClassifiers></_>
    <!-- stage 2 -->
    <_>
      <maxWeakCount>100</maxWeakCount>
      <stageThreshold>-1.4790047407150269e+00</stageThreshold>
      <weakClassifiers>
        <_>
          <internalNodes>
            0 -1 654 8.7727829813957214e-03</internalNodes>
          <leafValues>
            -1.5587045252323151e-01 -6.2851601839065552e-01</leafValues></_>
        <_>
          <internalNodes>
            0 -1 270 6.3574969768524170e-02</internalNodes>
          <leafValues>
            -2.0759235322475433e-01 2.1556329727172852e-01</leafValues></_>
        <_>
          <internalNodes>
            0 -1 638 3.6627978086471558e-02</internalNodes>
          <leafValues>
            -2.7266022562980652e-01 1.2200749665498734e-01</leafValues></_>
        <_>
          <internalNodes>
            0 -1 974 1.3075884431600571e-02</internalNodes>
          <leafValues>
            -3.8442379236221313e-01 7.8403457999229431e-02</leafValues></_>
        <_>
          <internalNodes>
            0 -1 688 7.5137183070182800e-02</internalNodes>
          <leafValues>
            -8.3121001720428467e-02 2.9068139195442200e-01</leafValues></_>
        <_>
          <internalNodes>
            0 -1 679 4.4002458453178406e-02</internalNodes>
          <leafValues>
            -2.0589827001094818e-01 1.1038774996995926e-01</leafValues></_>
        <_>
          <internalNodes>
            0 -1 858 6.0355965979397297e-03</internalNodes>
          <leafValues>
            -5.8028519153594971e-01 8.1109136343002319e-02</leafValues></_>
        <_>
          <internalNodes>
            0 -1 574 3.7577982991933823e-02</internalNodes>
          <leafValues>
            -9.9105820059776306e-02 2.8010463714599609e-01</leafValues></_>
        <_>
          <internalNodes>
            0 -1 962 1.0273458901792765e-03</internalNodes>
          <leafValues>
            -6.7423897981643677e-01 3.1641274690628052e-02</leafValues></_>
        <_>
          <internalNodes>
            0 -1 777 4.1290566325187683e-02</internalNodes>
          <leafValues>
            -1.3681133091449738e-01 1.5064498782157898e-01</leafValues></_>
        <_>
          <internalNodes>
            0 -1 1063 4.9070507287979126e-02</internalNodes>
          <leafValues>
            -1.0656428337097168e-01 1.8710972368717194e-01</leafValues></_>
        <_>
          <internalNodes>
            0 -1 543 6.3945807516574860e-02</internalNodes>
          <leafValues>
            -8.4142617881298065e-02 2.0183101296424866e-01</leafValues></_>
        <_>
          <internalNodes>
            0 -1 87 8.8849656283855438e-02</internalNodes>
          <leafValues>
            3.8558930158615112e-02 -6.1594718694686890e-01</leafValues></_>
        <_>
          <internalNodes>
            0 -1 750 3.6174401640892029e-02</internalNodes>
          <leafValues>
            -8.4073044359683990e-02 2.6501238346099854e-01</leafValues></_>
        <_>
          <internalNodes>
            0 -1 1048 8.1761647015810013e-03</internalNodes>
          <leafValues>
            -3.0101037025451660e-01 7.0282064378261566e-02</leafValues></_>
        <_>
          <internalNodes>
            0 -1 965 2.4486325681209564e-02</internalNodes>
          <leafValues>
            -2.7122902870178223e-01 5.4767988622188568e-02</leafValues></_>
        <_>
          <internalNodes>
            0 -1 619 3.6688126623630524e-02</internalNodes>
          <leafValues>
            4.2861197143793106e-02 -4.2028680443763733e-01</leafValues></_>
        <_>
          <internalNodes>
            0 -1 60 6.0347829014062881e-02</internalNodes>
          <leafValues>
            5.7171944528818130e-02 -2.8489348292350769e-01</leafValues></_>
        <_>
          <internalNodes>
            0 -1 653 6.8030906841158867e-03</internalNodes>
          <leafValues>
            1.6580444574356079e-01 -9.3644633889198303e-02</leafValues></_>
        <_>
          <internalNodes>
            0 -1 735 5.0561599433422089e-02</internalNodes>
          <leafValues>
            -6.5413236618041992e-02 2.4010796844959259e-01</leafValues></_>
        <_>
          <internalNodes>
            0 -1 549 2.8859473764896393e-02</internalNodes>
          <leafValues>
            1.3308155536651611e-01 -1.1454144865274429e-01</leafValues></_>
        <_>
          <internalNodes>
            0 -1 896 5.3845634683966637e-03</internalNodes>
          <leafValues>
            -3.8184511661529541e-01 3.3715624362230301e-02</leafValues></_>
        <_>
          <internalNodes>
            0 -1 873 4.8788636922836304e-02</internalNodes>
          <leafValues>
            3.4814346581697464e-02 -3.7371686100959778e-01</leafValues></_>
        <_>
          <internalNodes>
            0 -1 188 3.5006575286388397e-02</internalNodes>
          <leafValues>
            -1.4351741969585419e-01 9.2523045837879181e-02</leafValues></_>
        <_>
          <internalNodes>
            0 -1 917 2.8664525598287582e-03</internalNodes>
          <leafValues>
            -8.5174149274826050e-01 1.6128318384289742e-02</leafValues></_>
        <_>
          <internalNodes>
            0 -1 339 5.9942878782749176e-02</internalNodes>
          <leafValues>
            -2.8436528518795967e-02 5.1577723026275635e-01</leafValues></_>
        <_>
          <internalNodes>
            0 -1 828 3.2007858157157898e-02</internalNodes>
          <leafValues>
            -5.8900140225887299e-02 2.3615112900733948e-01</leafValues></_>
        <_>
          <internalNodes>
            0 -1 869 2.6729814708232880e-02</internalNodes>
          <leafValues>
            -1.6048084199428558e-01 8.3146862685680389e-02</leafValues></_>
        <_>
          <internalNodes>
            0 -1 212 5.4346635937690735e-02</internalNodes>
          <leafValues>
            -9.0172052383422852e-02 1.6445651650428772e-01</leafValues></_>
        <_>
          <internalNodes>
            0 -1 557 7.3248043656349182e-02</internalNodes>
          <leafValues>
            3.1066752970218658e-02 -4.1464200615882874e-01</leafValues></_>
        <_>
          <internalNodes>
            0 -1 723 1.1217267811298370e-01</internalNodes>
          <leafValues>
            -3.1662095338106155e-02 4.3500950932502747e-01</leafValues></_>
        <_>
          <internalNodes>
            0 -1 214 1.3909451663494110e-03</internalNodes>
          <leafValues>
            -4.2682698369026184e-01 2.7892710641026497e-02</leafValues></_>
        <_>
          <internalNodes>
            0 -1 1012 4.8474602401256561e-02</internalNodes>
          <leafValues>
            1.6373887658119202e-02 -6.3423395156860352e-01</leafValues></_>
        <_>
          <internalNodes>
            0 -1 884 2.2453374695032835e-03</internalNodes>
          <leafValues>
            -5.8718973398208618e-01 1.6223875805735588e-02</leafValues></_>
        <_>
          <internalNodes>
            0 -1 702 3.1945821829140186e-03</internalNodes>
          <leafValues>
            8.0020278692245483e-01 -1.6095945611596107e-02</leafValues></_>
        <_>
          <internalNodes>
            0 -1 1078 3.1418487429618835e-02</internalNodes>
          <leafValues>
            2.8395032510161400e-02 -4.1481229662895203e-01</leafValues></_>
        <_>
          <internalNodes>
            0 -1 841 1.1109562218189240e-01</internalNodes>
          <leafValues>
            2.0406205207109451e-02 -4.8546710610389709e-01</leafValues></_>
        <_>
          <internalNodes>
            0 -1 859 3.0372705310583115e-02</internalNodes>
          <leafValues>
            -1.4066958427429199e-01 8.2906730473041534e-02</leafValues></_>
        <_>
          <internalNodes>
            0 -1 685 3.0744178220629692e-03</internalNodes>
          <leafValues>
            2.9901945590972900e-01 -3.4092094749212265e-02</leafValues></_>
        <_>
          <internalNodes>
            0 -1 960 6.3413330353796482e-03</internalNodes>
          <leafValues>
            -2.4222455918788910e-01 4.6867694705724716e-02</leafValues></_>
        <_>
          <internalNodes>
            0 -1 966 1.0738021135330200e-01</internalNodes>
          <leafValues>
            -4.1179493069648743e-02 2.6223438978195190e-01</leafValues></_>
        <_>
          <internalNodes>
            0 -1 852 1.8659695982933044e-02</internalNodes>
          <leafValues>
            -7.8980252146720886e-02 1.4730358123779297e-01</leafValues></_>
        <_>
          <internalNodes>
            0 -1 601 1.2026609852910042e-02</internalNodes>
          <leafValues>
            1.1928542703390121e-01 -8.2902163267135620e-02</leafValues></_>
        <_>
          <internalNodes>
            0 -1 596 1.2348573654890060e-02</internalNodes>
          <leafValues>
            -1.7764617502689362e-01 6.2961570918560028e-02</leafValues></_>
        <_>
          <internalNodes>
            0 -1 493 3.1941197812557220e-02</internalNodes>
          <leafValues>
            -1.2136948853731155e-01 8.8369615375995636e-02</leafValues></_>
        <_>
          <internalNodes>
            0 -1 437 2.0444586873054504e-02</internalNodes>
          <leafValues>
            -2.1165089309215546e-01 4.8341885209083557e-02</leafValues></_>
        <_>
          <internalNodes>
            0 -1 941 7.0501625537872314e-02</internalNodes>
          <leafValues>
            4.0009222924709320e-02 -2.9282957315444946e-01</leafValues></_>
        <_>
          <internalNodes>
            0 -1 244 2.1616503596305847e-02</internalNodes>
          <leafValues>
            7.0873372256755829e-02 -1.4514988660812378e-01</leafValues></_>
        <_>
          <internalNodes>
            0 -1 744 5.1651086658239365e-02</internalNodes>
          <leafValues>
            -2.3402404040098190e-02 4.7379809617996216e-01</leafValues></_>
        <_>
          <internalNodes>
            0 -1 618 4.5945651829242706e-02</internalNodes>
          <leafValues>
            1.1536500416696072e-02 -1.</leafValues></_>
        <_>
          <internalNodes>
            0 -1 67 1.2511687818914652e-03</internalNodes>
          <leafValues>
            -4.2962697148323059e-01 1.7097247764468193e-02</leafValues></_>
        <_>
          <internalNodes>
            0 -1 458 2.1269030869007111e-02</internalNodes>
          <leafValues>
            -1.8299368023872375e-01 4.9661789089441299e-02</leafValues></_>
        <_>
          <internalNodes>
            0 -1 468 6.8788707256317139e-02</internalNodes>
          <leafValues>
            -5.6313637644052505e-02 1.8662275373935699e-01</leafValues></_>
        <_>
          <internalNodes>
            0 -1 794 2.6292610913515091e-02</internalNodes>
          <leafValues>
            -1.1265516281127930e-01 1.0907705873250961e-01</leafValues></_>
        <_>
          <internalNodes>
            0 -1 1076 1.0283565148711205e-02</internalNodes>
          <leafValues>
            5.4685330390930176e-01 -1.8268974497914314e-02</leafValues></_>
        <_>
          <internalNodes>
            0 -1 95 2.1378982812166214e-02</internalNodes>
          <leafValues>
            5.6442547589540482e-02 -1.6910474002361298e-01</leafValues></_>
        <_>
          <internalNodes>
            0 -1 178 2.3603545501828194e-02</internalNodes>
          <leafValues>
            -7.3346532881259918e-02 1.5614148974418640e-01</leafValues></_>
        <_>
          <internalNodes>
            0 -1 82 6.1346903443336487e-02</internalNodes>
          <leafValues>
            -2.5054225698113441e-02 3.9209261536598206e-01</leafValues></_>
        <_>
          <internalNodes>
            0 -1 344 2.2461527958512306e-02</internalNodes>
          <leafValues>
            6.8355329334735870e-02 -1.5935184061527252e-01</leafValues></_>
        <_>
          <internalNodes>
            0 -1 1040 1.4626206830143929e-02</internalNodes>
          <leafValues>
            -1.5573118627071381e-01 5.9912826865911484e-02</leafValues></_>
        <_>
          <internalNodes>
            0 -1 308 6.1848357319831848e-02</internalNodes>
          <leafValues>
            1.6219893470406532e-02 -5.8417797088623047e-01</leafValues></_>
        <_>
          <internalNodes>
            0 -1 533 7.9634686699137092e-05</internalNodes>
          <leafValues>
            4.7168833017349243e-01 -2.1132990717887878e-02</leafValues></_>
        <_>
          <internalNodes>
            0 -1 826 4.4667730107903481e-03</internalNodes>
          <leafValues>
            -6.3504791259765625e-01 1.5471220016479492e-02</leafValues></_>
        <_>
          <internalNodes>
            0 -1 87 2.8702728450298309e-02</internalNodes>
          <leafValues>
            8.0580599606037140e-02 -1.1145789921283722e-01</leafValues></_>
        <_>
          <internalNodes>
            0 -1 978 5.0311923027038574e-02</internalNodes>
          <leafValues>
            -8.7716743350028992e-02 1.0653013736009598e-01</leafValues></_>
        <_>
          <internalNodes>
            0 -1 984 9.7103185951709747e-02</internalNodes>
          <leafValues>
            2.4199064821004868e-02 -3.9978885650634766e-01</leafValues></_>
        <_>
          <internalNodes>
            0 -1 1023 1.0914029926061630e-01</internalNodes>
          <leafValues>
            7.5833634473383427e-03 -9.6354347467422485e-01</leafValues></_>
        <_>
          <internalNodes>
            0 -1 733 8.6961559951305389e-02</internalNodes>
          <leafValues>
            -3.5960443317890167e-02 2.7191343903541565e-01</leafValues></_>
        <_>
          <internalNodes>
            0 -1 276 5.9262663125991821e-02</internalNodes>
          <leafValues>
            -5.5138181895017624e-02 1.5509247779846191e-01</leafValues></_>
        <_>
          <internalNodes>
            0 -1 473 1.1913088150322437e-02</internalNodes>
          <leafValues>
            -1.4249145984649658e-01 6.5278805792331696e-02</leafValues></_>
        <_>
          <internalNodes>
            0 -1 741 4.5065119862556458e-02</internalNodes>
          <leafValues>
            -3.0334288254380226e-02 3.2589691877365112e-01</leafValues></_>
        <_>
          <internalNodes>
            0 -1 706 4.2203471064567566e-02</internalNodes>
          <leafValues>
            3.3589906990528107e-02 -3.1330469250679016e-01</leafValues></_>
        <_>
          <internalNodes>
            0 -1 477 1.4788404107093811e-02</internalNodes>
          <leafValues>
            1.0085282474756241e-01 -8.9931361377239227e-02</leafValues></_>
        <_>
          <internalNodes>
            0 -1 582 3.1436227262020111e-02</internalNodes>
          <leafValues>
            -5.7610921561717987e-02 1.4349837601184845e-01</leafValues></_>
        <_>
          <internalNodes>
            0 -1 467 3.6168780177831650e-02</internalNodes>
          <leafValues>
            -4.9606151878833771e-02 1.7877717316150665e-01</leafValues></_>
        <_>
          <internalNodes>
            0 -1 923 3.8190804421901703e-02</internalNodes>
          <leafValues>
            2.7786903083324432e-02 -2.8409749269485474e-01</leafValues></_>
        <_>
          <internalNodes>
            0 -1 130 3.9241448044776917e-02</internalNodes>
          <leafValues>
            2.3508874699473381e-02 -3.3147957921028137e-01</leafValues></_>
        <_>
          <internalNodes>
            0 -1 195 4.3179016560316086e-02</internalNodes>
          <leafValues>
            2.4536512792110443e-02 -3.3414861559867859e-01</leafValues></_>
        <_>
          <internalNodes>
            0 -1 982 5.9567240532487631e-04</internalNodes>
          <leafValues>
            -4.6288111805915833e-01 1.8143840134143829e-02</leafValues></_>
        <_>
          <internalNodes>
            0 -1 180 7.5779855251312256e-03</internalNodes>
          <leafValues>
            8.6623832583427429e-02 -1.0080827027559280e-01</leafValues></_>
        <_>
          <internalNodes>
            0 -1 951 1.7417727038264275e-02</internalNodes>
          <leafValues>
            -7.9535171389579773e-02 1.1196844279766083e-01</leafValues></_>
        <_>
          <internalNodes>
            0 -1 25 2.2581341909244657e-04</internalNodes>
          <leafValues>
            -6.4417523145675659e-01 1.4411163516342640e-02</leafValues></_>
        <_>
          <internalNodes>
            0 -1 40 6.8198099732398987e-02</internalNodes>
          <leafValues>
            -1.5224999748170376e-02 6.4400386810302734e-01</leafValues></_>
        <_>
          <internalNodes>
            0 -1 190 1.7955016344785690e-02</internalNodes>
          <leafValues>
            6.4058162271976471e-02 -1.2736079096794128e-01</leafValues></_>
        <_>
          <internalNodes>
            0 -1 459 2.0313151180744171e-02</internalNodes>
          <leafValues>
            -8.2379646599292755e-02 1.0692992061376572e-01</leafValues></_>
        <_>
          <internalNodes>
            0 -1 507 7.1098294574767351e-04</internalNodes>
          <leafValues>
            4.8472115397453308e-01 -1.7449537292122841e-02</leafValues></_>
        <_>
          <internalNodes>
            0 -1 1014 5.9271538630127907e-03</internalNodes>
          <leafValues>
            -5.2946883440017700e-01 2.0129041746258736e-02</leafValues></_>
        <_>
          <internalNodes>
            0 -1 696 6.8055570125579834e-02</internalNodes>
          <leafValues>
            -6.5664589405059814e-02 1.3398857414722443e-01</leafValues></_>
        <_>
          <internalNodes>
            0 -1 150 9.7547970712184906e-02</internalNodes>
          <leafValues>
            3.5348515957593918e-02 -2.4468268454074860e-01</leafValues></_>
        <_>
          <internalNodes>
            0 -1 170 1.2900069355964661e-01</internalNodes>
          <leafValues>
            -3.7177409976720810e-02 2.4929714202880859e-01</leafValues></_>
        <_>
          <internalNodes>
            0 -1 963 3.4589141607284546e-02</internalNodes>
          <leafValues>
            -6.6887781023979187e-02 1.3496482372283936e-01</leafValues></_>
        <_>
          <internalNodes>
            0 -1 19 4.1785113513469696e-02</internalNodes>
          <leafValues>
            5.9607077389955521e-02 -1.4458018541336060e-01</leafValues></_>
        <_>
          <internalNodes>
            0 -1 704 4.9763270653784275e-03</internalNodes>
          <leafValues>
            2.5021082162857056e-01 -3.4818518906831741e-02</leafValues></_>
        <_>
          <internalNodes>
            0 -1 969 6.7199021577835083e-03</internalNodes>
          <leafValues>
            -2.5802350044250488e-01 3.7115562707185745e-02</leafValues></_>
        <_>
          <internalNodes>
            0 -1 1026 4.6061269938945770e-02</internalNodes>
          <leafValues>
            1.0377538390457630e-02 -8.1372398138046265e-01</leafValues></_>
        <_>
          <internalNodes>
            0 -1 41 6.3831880688667297e-02</internalNodes>
          <leafValues>
            1.2540721334517002e-02 -5.2360898256301880e-01</leafValues></_>
        <_>
          <internalNodes>
            0 -1 423 1.2793172150850296e-02</internalNodes>
          <leafValues>
            2.0831762254238129e-01 -4.0535587817430496e-02</leafValues></_>
        <_>
          <internalNodes>
            0 -1 802 2.0150125026702881e-02</internalNodes>
          <leafValues>
            -1.9371663033962250e-01 5.1302384585142136e-02</leafValues></_>
        <_>
          <internalNodes>
            0 -1 829 6.2111601233482361e-02</internalNodes>
          <leafValues>
            -1.3300951570272446e-02 6.7539900541305542e-01</leafValues></_>
        <_>
          <internalNodes>
            0 -1 514 1.0813061147928238e-01</internalNodes>
          <leafValues>
            -1.8594903871417046e-02 3.7373939156532288e-01</leafValues></_></weakClassifiers></_>
    <!-- stage 3 -->
    <_>
      <maxWeakCount>100</maxWeakCount>
      <stageThreshold>-1.5868456363677979e+00</stageThreshold>
      <weakClassifiers>
        <_>
          <internalNodes>
            0 -1 623 6.5586855635046959e-03</internalNodes>
          <leafValues>
            -1.9335706532001495e-01 -5.8314454555511475e-01</leafValues></_>
        <_>
          <internalNodes>
            0 -1 690 1.3461338356137276e-02</internalNodes>
          <leafValues>
            1.2939658761024475e-01 -2.3022809624671936e-01</leafValues></_>
        <_>
          <internalNodes>
            0 -1 102 2.0921215415000916e-02</internalNodes>
          <leafValues>
            -2.7814418077468872e-01 8.1904456019401550e-02</leafValues></_>
        <_>
          <internalNodes>
            0 -1 727 6.6729813814163208e-02</internalNodes>
          <leafValues>
            8.4083601832389832e-02 -4.0654650330543518e-01</leafValues></_>
        <_>
          <internalNodes>
            0 -1 443 9.0835824608802795e-02</internalNodes>
          <leafValues>
            -1.0864306241273880e-01 2.2962017357349396e-01</leafValues></_>
        <_>
          <internalNodes>
            0 -1 87 3.8367245346307755e-02</internalNodes>
          <leafValues>
            1.2012323737144470e-01 -1.8208464980125427e-01</leafValues></_>
        <_>
          <internalNodes>
            0 -1 959 9.1232880949974060e-02</internalNodes>
          <leafValues>
            3.3019077032804489e-02 -4.8223483562469482e-01</leafValues></_>
        <_>
          <internalNodes>
            0 -1 525 4.1368518024682999e-02</internalNodes>
          <leafValues>
            -1.7901404201984406e-01 9.6698611974716187e-02</leafValues></_>
        <_>
          <internalNodes>
            0 -1 554 3.5281695425510406e-02</internalNodes>
          <leafValues>
            -5.0758082419633865e-02 2.2796030342578888e-01</leafValues></_>
        <_>
          <internalNodes>
            0 -1 950 6.8315528333187103e-03</internalNodes>
          <leafValues>
            -6.1059141159057617e-01 2.1827887743711472e-02</leafValues></_>
        <_>
          <internalNodes>
            0 -1 723 8.0516710877418518e-02</internalNodes>
          <leafValues>
            -6.4933396875858307e-02 2.4568103253841400e-01</leafValues></_>
        <_>
          <internalNodes>
            0 -1 953 2.0550753921270370e-02</internalNodes>
          <leafValues>
            -2.8632599115371704e-01 5.1818810403347015e-02</leafValues></_>
        <_>
          <internalNodes>
            0 -1 841 1.8167328089475632e-02</internalNodes>
          <leafValues>
            -2.8680866956710815e-01 5.0120484083890915e-02</leafValues></_>
        <_>
          <internalNodes>
            0 -1 777 4.9525126814842224e-02</internalNodes>
          <leafValues>
            -8.7483033537864685e-02 1.3500007987022400e-01</leafValues></_>
        <_>
          <internalNodes>
            0 -1 997 1.0988028720021248e-02</internalNodes>
          <leafValues>
            -2.2818930447101593e-01 5.0109513103961945e-02</leafValues></_>
        <_>
          <internalNodes>
            0 -1 27 9.5521621406078339e-03</internalNodes>
          <leafValues>
            -1.8625418841838837e-01 5.3002759814262390e-02</leafValues></_>
        <_>
          <internalNodes>
            0 -1 111 2.0236074924468994e-01</internalNodes>
          <leafValues>
            -2.1815642714500427e-02 5.2896904945373535e-01</leafValues></_>
        <_>
          <internalNodes>
            0 -1 549 2.0950920879840851e-02</internalNodes>
          <leafValues>
            1.4092941582202911e-01 -7.8055605292320251e-02</leafValues></_>
        <_>
          <internalNodes>
            0 -1 1038 6.2064271420240402e-02</internalNodes>
          <leafValues>
            4.1381660848855972e-02 -2.7625292539596558e-01</leafValues></_>
        <_>
          <internalNodes>
            0 -1 441 3.0137572437524796e-02</internalNodes>
          <leafValues>
            2.7553040534257889e-02 -3.6165615916252136e-01</leafValues></_>
        <_>
          <internalNodes>
            0 -1 847 6.6082691773772240e-03</internalNodes>
          <leafValues>
            -2.3187637329101562e-01 4.2448572814464569e-02</leafValues></_>
        <_>
          <internalNodes>
            0 -1 816 1.8325213342905045e-02</internalNodes>
          <leafValues>
            -3.1186002492904663e-01 3.4416496753692627e-02</leafValues></_>
        <_>
          <internalNodes>
            0 -1 477 1.1639224365353584e-02</internalNodes>
          <leafValues>
            1.2361318618059158e-01 -8.8597498834133148e-02</leafValues></_>
        <_>
          <internalNodes>
            0 -1 793 1.0511090513318777e-03</internalNodes>
          <leafValues>
            -8.7503415346145630e-01 9.5831044018268585e-03</leafValues></_>
        <_>
          <internalNodes>
            0 -1 446 1.5852561220526695e-02</internalNodes>
          <leafValues>
            5.1387555897235870e-02 -1.8033382296562195e-01</leafValues></_>
        <_>
          <internalNodes>
            0 -1 97 1.6892656683921814e-02</internalNodes>
          <leafValues>
            -1.0324369370937347e-01 8.8833294808864594e-02</leafValues></_>
        <_>
          <internalNodes>
            0 -1 506 2.7371981739997864e-01</internalNodes>
          <leafValues>
            -1.0056856088340282e-02 8.9847224950790405e-01</leafValues></_>
        <_>
          <internalNodes>
            0 -1 562 4.5648582279682159e-02</internalNodes>
          <leafValues>
            -8.8239744305610657e-02 1.0231699794530869e-01</leafValues></_>
        <_>
          <internalNodes>
            0 -1 464 3.8827486336231232e-02</internalNodes>
          <leafValues>
            6.6352769732475281e-02 -1.3826501369476318e-01</leafValues></_>
        <_>
          <internalNodes>
            0 -1 770 2.1788189187645912e-03</internalNodes>
          <leafValues>
            -5.8755791187286377e-01 1.4174237847328186e-02</leafValues></_>
        <_>
          <internalNodes>
            0 -1 880 9.9206548184156418e-03</internalNodes>
          <leafValues>
            1.1429639160633087e-01 -7.8403405845165253e-02</leafValues></_>
        <_>
          <internalNodes>
            0 -1 614 2.1364223212003708e-02</internalNodes>
          <leafValues>
            2.3394031822681427e-01 -4.2665198445320129e-02</leafValues></_>
        <_>
          <internalNodes>
            0 -1 995 1.8958998844027519e-02</internalNodes>
          <leafValues>
            -3.8692498207092285e-01 3.0757915228605270e-02</leafValues></_>
        <_>
          <internalNodes>
            0 -1 210 4.0766894817352295e-02</internalNodes>
          <leafValues>
            2.6843836531043053e-02 -3.3454993367195129e-01</leafValues></_>
        <_>
          <internalNodes>
            0 -1 61 4.3994851410388947e-02</internalNodes>
          <leafValues>
            7.2315551340579987e-02 -1.3464424014091492e-01</leafValues></_>
        <_>
          <internalNodes>
            0 -1 92 1.5330272912979126e-01</internalNodes>
          <leafValues>
            8.6597455665469170e-03 -8.8551318645477295e-01</leafValues></_>
        <_>
          <internalNodes>
            0 -1 977 5.0252109766006470e-02</internalNodes>
          <leafValues>
            1.1631806381046772e-02 -5.5894434452056885e-01</leafValues></_>
        <_>
          <internalNodes>
            0 -1 1058 4.2403735220432281e-02</internalNodes>
          <leafValues>
            -3.5877354443073273e-02 2.4457217752933502e-01</leafValues></_>
        <_>
          <internalNodes>
            0 -1 255 4.7893982380628586e-02</internalNodes>
          <leafValues>
            -7.2705708444118500e-02 1.1317455768585205e-01</leafValues></_>
        <_>
          <internalNodes>
            0 -1 824 1.0695019364356995e-01</internalNodes>
          <leafValues>
            1.4646411873400211e-02 -5.4489231109619141e-01</leafValues></_>
        <_>
          <internalNodes>
            0 -1 88 2.2337622940540314e-02</internalNodes>
          <leafValues>
            1.1471358686685562e-01 -6.7399129271507263e-02</leafValues></_>
        <_>
          <internalNodes>
            0 -1 963 2.2270530462265015e-02</internalNodes>
          <leafValues>
            -8.8147655129432678e-02 8.5553199052810669e-02</leafValues></_>
        <_>
          <internalNodes>
            0 -1 1027 6.9822281599044800e-02</internalNodes>
          <leafValues>
            1.4697808772325516e-02 -6.1306583881378174e-01</leafValues></_>
        <_>
          <internalNodes>
            0 -1 711 3.9757769554853439e-03</internalNodes>
          <leafValues>
            1.8044048547744751e-01 -4.6296201646327972e-02</leafValues></_>
        <_>
          <internalNodes>
            0 -1 495 2.2465080022811890e-02</internalNodes>
          <leafValues>
            1.3048267364501953e-01 -6.4975678920745850e-02</leafValues></_>
        <_>
          <internalNodes>
            0 -1 640 4.0882959961891174e-02</internalNodes>
          <leafValues>
            1.9446285441517830e-02 -4.4943162798881531e-01</leafValues></_>
        <_>
          <internalNodes>
            0 -1 992 8.0542311072349548e-02</internalNodes>
          <leafValues>
            2.3993158712983131e-02 -3.1316274404525757e-01</leafValues></_>
        <_>
          <internalNodes>
            0 -1 788 9.4728410243988037e-02</internalNodes>
          <leafValues>
            -2.9505515471100807e-02 3.5423630475997925e-01</leafValues></_>
        <_>
          <internalNodes>
            0 -1 708 3.7506553344428539e-03</internalNodes>
          <leafValues>
            -5.8687180280685425e-01 1.4861872419714928e-02</leafValues></_>
        <_>
          <internalNodes>
            0 -1 152 3.8009706884622574e-02</internalNodes>
          <leafValues>
            3.8092739880084991e-02 -1.9105318188667297e-01</leafValues></_>
        <_>
          <internalNodes>
            0 -1 892 4.4024903327226639e-02</internalNodes>
          <leafValues>
            1.6508033499121666e-02 -4.2720118165016174e-01</leafValues></_>
        <_>
          <internalNodes>
            0 -1 123 8.1101842224597931e-03</internalNodes>
          <leafValues>
            1.0307326167821884e-01 -7.8285567462444305e-02</leafValues></_>
        <_>
          <internalNodes>
            0 -1 779 3.2796155661344528e-02</internalNodes>
          <leafValues>
            -4.4852573424577713e-02 1.7276270687580109e-01</leafValues></_>
        <_>
          <internalNodes>
            0 -1 874 4.0107732638716698e-03</internalNodes>
          <leafValues>
            -3.0105185508728027e-01 2.6592018082737923e-02</leafValues></_>
        <_>
          <internalNodes>
            0 -1 6 5.9487060643732548e-03</internalNodes>
          <leafValues>
            1.5615476667881012e-01 -5.3374309092760086e-02</leafValues></_>
        <_>
          <internalNodes>
            0 -1 918 6.8910773843526840e-03</internalNodes>
          <leafValues>
            -5.6186890602111816e-01 1.4553785324096680e-02</leafValues></_>
        <_>
          <internalNodes>
            0 -1 15 4.0268455632030964e-04</internalNodes>
          <leafValues>
            -8.5963219404220581e-01 6.6171768121421337e-03</leafValues></_>
        <_>
          <internalNodes>
            0 -1 501 2.9862122610211372e-03</internalNodes>
          <leafValues>
            5.8577859401702881e-01 -1.4078519307076931e-02</leafValues></_>
        <_>
          <internalNodes>
            0 -1 175 1.7869444563984871e-02</internalNodes>
          <leafValues>
            5.2578460425138474e-02 -1.4204442501068115e-01</leafValues></_>
        <_>
          <internalNodes>
            0 -1 66 1.9369881600141525e-02</internalNodes>
          <leafValues>
            -7.0699632167816162e-02 9.7368560731410980e-02</leafValues></_>
        <_>
          <internalNodes>
            0 -1 284 4.7607637941837311e-02</internalNodes>
          <leafValues>
            1.5112375840544701e-02 -4.5589289069175720e-01</leafValues></_>
        <_>
          <internalNodes>
            0 -1 82 3.9936788380146027e-02</internalNodes>
          <leafValues>
            -3.8708169013261795e-02 2.0958285033702850e-01</leafValues></_>
        <_>
          <internalNodes>
            0 -1 357 2.8793077915906906e-02</internalNodes>
          <leafValues>
            -1.1384985595941544e-01 6.3447423279285431e-02</leafValues></_>
        <_>
          <internalNodes>
            0 -1 581 5.2201367914676666e-02</internalNodes>
          <leafValues>
            -2.2277768701314926e-02 3.6363857984542847e-01</leafValues></_>
        <_>
          <internalNodes>
            0 -1 560 1.9079193472862244e-02</internalNodes>
          <leafValues>
            -1.6401411592960358e-01 4.5401368290185928e-02</leafValues></_>
        <_>
          <internalNodes>
            0 -1 1033 1.1114524677395821e-02</internalNodes>
          <leafValues>
            2.6375332474708557e-01 -2.7850735932588577e-02</leafValues></_>
        <_>
          <internalNodes>
            0 -1 89 3.9860837161540985e-02</internalNodes>
          <leafValues>
            -3.4605972468852997e-02 2.1195565164089203e-01</leafValues></_>
        <_>
          <internalNodes>
            0 -1 674 4.2603887617588043e-02</internalNodes>
          <leafValues>
            -5.2524253726005554e-02 1.3554221391677856e-01</leafValues></_>
        <_>
          <internalNodes>
            0 -1 298 1.2436483800411224e-01</internalNodes>
          <leafValues>
            1.7746917903423309e-02 -5.5411148071289062e-01</leafValues></_>
        <_>
          <internalNodes>
            0 -1 103 6.5536110196262598e-04</internalNodes>
          <leafValues>
            -4.7168341279029846e-01 1.1874904856085777e-02</leafValues></_>
        <_>
          <internalNodes>
            0 -1 334 2.2323720157146454e-02</internalNodes>
          <leafValues>
            9.6883624792098999e-02 -6.8677462637424469e-02</leafValues></_>
        <_>
          <internalNodes>
            0 -1 489 5.7411968708038330e-02</internalNodes>
          <leafValues>
            -5.1874272525310516e-02 1.4905117452144623e-01</leafValues></_>
        <_>
          <internalNodes>
            0 -1 984 7.1864105761051178e-02</internalNodes>
          <leafValues>
            3.5326886922121048e-02 -2.2085013985633850e-01</leafValues></_>
        <_>
          <internalNodes>
            0 -1 553 3.4403926692903042e-03</internalNodes>
          <leafValues>
            1.7585094273090363e-01 -4.5617710798978806e-02</leafValues></_>
        <_>
          <internalNodes>
            0 -1 988 8.8207243243232369e-04</internalNodes>
          <leafValues>
            -4.4758197665214539e-01 1.8962780013680458e-02</leafValues></_>
        <_>
          <internalNodes>
            0 -1 464 2.6816320605576038e-03</internalNodes>
          <leafValues>
            -4.5040801167488098e-01 1.4779986813664436e-02</leafValues></_>
        <_>
          <internalNodes>
            0 -1 314 5.4353147745132446e-02</internalNodes>
          <leafValues>
            -7.4814110994338989e-02 1.0032334178686142e-01</leafValues></_>
        <_>
          <internalNodes>
            0 -1 915 1.1169999837875366e-01</internalNodes>
          <leafValues>
            1.2666914612054825e-02 -5.5045235157012939e-01</leafValues></_>
        <_>
          <internalNodes>
            0 -1 563 1.2863601557910442e-02</internalNodes>
          <leafValues>
            1.0301181674003601e-01 -6.9401890039443970e-02</leafValues></_>
        <_>
          <internalNodes>
            0 -1 786 7.7131882309913635e-02</internalNodes>
          <leafValues>
            2.3294536396861076e-02 -3.0047616362571716e-01</leafValues></_>
        <_>
          <internalNodes>
            0 -1 277 7.8322030603885651e-02</internalNodes>
          <leafValues>
            -4.1661884635686874e-02 1.7264837026596069e-01</leafValues></_>
        <_>
          <internalNodes>
            0 -1 1040 1.4533774927258492e-02</internalNodes>
          <leafValues>
            -1.3710463047027588e-01 4.9771279096603394e-02</leafValues></_>
        <_>
          <internalNodes>
            0 -1 1040 4.4850379228591919e-02</internalNodes>
          <leafValues>
            1.2374015524983406e-02 -5.7015383243560791e-01</leafValues></_>
        <_>
          <internalNodes>
            0 -1 739 2.0929355174303055e-02</internalNodes>
          <leafValues>
            1.4091125130653381e-01 -5.0373934209346771e-02</leafValues></_>
        <_>
          <internalNodes>
            0 -1 971 1.9529320299625397e-02</internalNodes>
          <leafValues>
            -2.1581871807575226e-01 3.7924829870462418e-02</leafValues></_>
        <_>
          <internalNodes>
            0 -1 978 5.6298390030860901e-02</internalNodes>
          <leafValues>
            -7.2397366166114807e-02 1.1254514753818512e-01</leafValues></_>
        <_>
          <internalNodes>
            0 -1 135 1.0920062195509672e-03</internalNodes>
          <leafValues>
            4.6334436535835266e-01 -1.5898898243904114e-02</leafValues></_>
        <_>
          <internalNodes>
            0 -1 659 4.6133983414620161e-04</internalNodes>
          <leafValues>
            7.4933117628097534e-01 -8.6688688024878502e-03</leafValues></_>
        <_>
          <internalNodes>
            0 -1 382 2.5071171112358570e-03</internalNodes>
          <leafValues>
            -2.7304425835609436e-01 2.7394792065024376e-02</leafValues></_>
        <_>
          <internalNodes>
            0 -1 672 1.0130136460065842e-01</internalNodes>
          <leafValues>
            -3.4760881215333939e-02 2.2316068410873413e-01</leafValues></_>
        <_>
          <internalNodes>
            0 -1 398 9.4075202941894531e-02</internalNodes>
          <leafValues>
            2.7230583131313324e-02 -2.5418442487716675e-01</leafValues></_>
        <_>
          <internalNodes>
            0 -1 516 1.4392136037349701e-01</internalNodes>
          <leafValues>
            -1.6970910131931305e-02 4.4176423549652100e-01</leafValues></_>
        <_>
          <internalNodes>
            0 -1 727 3.2596521079540253e-02</internalNodes>
          <leafValues>
            7.1383848786354065e-02 -9.8752900958061218e-02</leafValues></_>
        <_>
          <internalNodes>
            0 -1 403 4.0057957172393799e-02</internalNodes>
          <leafValues>
            2.5679349899291992e-02 -2.5298091769218445e-01</leafValues></_>
        <_>
          <internalNodes>
            0 -1 494 5.8696560561656952e-02</internalNodes>
          <leafValues>
            -1.9751526415348053e-02 3.5092565417289734e-01</leafValues></_>
        <_>
          <internalNodes>
            0 -1 42 2.0609626173973083e-01</internalNodes>
          <leafValues>
            7.4122119694948196e-03 -1.</leafValues></_>
        <_>
          <internalNodes>
            0 -1 19 1.2981072068214417e-01</internalNodes>
          <leafValues>
            6.1682895757257938e-03 -7.1610260009765625e-01</leafValues></_>
        <_>
          <internalNodes>
            0 -1 372 8.6998706683516502e-03</internalNodes>
          <leafValues>
            1.0555324703454971e-01 -6.2335859984159470e-02</leafValues></_>
        <_>
          <internalNodes>
            0 -1 806 7.5640752911567688e-02</internalNodes>
          <leafValues>
            2.3096835240721703e-02 -2.6370525360107422e-01</leafValues></_>
        <_>
          <internalNodes>
            0 -1 184 2.3659624159336090e-02</internalNodes>
          <leafValues>
            4.2788278311491013e-02 -1.5583179891109467e-01</leafValues></_></weakClassifiers></_>
    <!-- stage 4 -->
    <_>
      <maxWeakCount>100</maxWeakCount>
      <stageThreshold>-1.4717196226119995e+00</stageThreshold>
      <weakClassifiers>
        <_>
          <internalNodes>
            0 -1 680 4.1064480319619179e-03</internalNodes>
          <leafValues>
            -1.4836546778678894e-01 -5.5492156744003296e-01</leafValues></_>
        <_>
          <internalNodes>
            0 -1 656 8.2700267434120178e-02</internalNodes>
          <leafValues>
            -1.3887241482734680e-01 2.2177939116954803e-01</leafValues></_>
        <_>
          <internalNodes>
            0 -1 601 1.5623722225427628e-02</internalNodes>
          <leafValues>
            1.0136935859918594e-01 -1.3810415565967560e-01</leafValues></_>
        <_>
          <internalNodes>
            0 -1 727 1.0156793892383575e-01</internalNodes>
          <leafValues>
            1.4624334871768951e-02 -9.2234933376312256e-01</leafValues></_>
        <_>
          <internalNodes>
            0 -1 69 4.8148639500141144e-02</internalNodes>
          <leafValues>
            7.7805556356906891e-02 -1.7217302322387695e-01</leafValues></_>
        <_>
          <internalNodes>
            0 -1 995 2.3010656237602234e-02</internalNodes>
          <leafValues>
            -3.1086984276771545e-01 3.8463987410068512e-02</leafValues></_>
        <_>
          <internalNodes>
            0 -1 713 6.3992813229560852e-02</internalNodes>
          <leafValues>
            -7.3358051478862762e-02 1.6709877550601959e-01</leafValues></_>
        <_>
          <internalNodes>
            0 -1 968 8.4553016349673271e-03</internalNodes>
          <leafValues>
            -2.6157128810882568e-01 6.6307649016380310e-02</leafValues></_>
        <_>
          <internalNodes>
            0 -1 97 2.4579823017120361e-02</internalNodes>
          <leafValues>
            -1.0289771109819412e-01 1.2349120527505875e-01</leafValues></_>
        <_>
          <internalNodes>
            0 -1 1042 3.6688882857561111e-02</internalNodes>
          <leafValues>
            -1.7692889273166656e-01 7.4809916317462921e-02</leafValues></_>
        <_>
          <internalNodes>
            0 -1 815 7.5552538037300110e-02</internalNodes>
          <leafValues>
            3.2144371420145035e-02 -3.9663380384445190e-01</leafValues></_>
        <_>
          <internalNodes>
            0 -1 2 1.8132247030735016e-02</internalNodes>
          <leafValues>
            1.1761221289634705e-01 -9.1288819909095764e-02</leafValues></_>
        <_>
          <internalNodes>
            0 -1 70 2.4849936366081238e-02</internalNodes>
          <leafValues>
            -6.4970396459102631e-02 1.6568058729171753e-01</leafValues></_>
        <_>
          <internalNodes>
            0 -1 321 4.7482866793870926e-03</internalNodes>
          <leafValues>
            1.9193367660045624e-01 -6.2476199120283127e-02</leafValues></_>
        <_>
          <internalNodes>
            0 -1 876 2.2196490317583084e-02</internalNodes>
          <leafValues>
            -2.0403096079826355e-01 5.1981791853904724e-02</leafValues></_>
        <_>
          <internalNodes>
            0 -1 898 6.5253339707851410e-02</internalNodes>
          <leafValues>
            5.2240949124097824e-02 -2.1710653603076935e-01</leafValues></_>
        <_>
          <internalNodes>
            0 -1 757 2.4195015430450439e-02</internalNodes>
          <leafValues>
            1.4529801905155182e-01 -7.6601088047027588e-02</leafValues></_>
        <_>
          <internalNodes>
            0 -1 111 2.4040818214416504e-01</internalNodes>
          <leafValues>
            -1.7096158117055893e-02 6.5422445535659790e-01</leafValues></_>
        <_>
          <internalNodes>
            0 -1 972 2.9160261154174805e-02</internalNodes>
          <leafValues>
            -1.9550587236881256e-01 5.9513736516237259e-02</leafValues></_>
        <_>
          <internalNodes>
            0 -1 992 8.1892386078834534e-02</internalNodes>
          <leafValues>
            2.7875628322362900e-02 -3.7881138920783997e-01</leafValues></_>
        <_>
          <internalNodes>
            0 -1 631 2.6324113830924034e-02</internalNodes>
          <leafValues>
            3.7897489964962006e-02 -2.6163327693939209e-01</leafValues></_>
        <_>
          <internalNodes>
            0 -1 804 1.7188619822263718e-02</internalNodes>
          <leafValues>
            -1.3448135554790497e-01 6.7778259515762329e-02</leafValues></_>
        <_>
          <internalNodes>
            0 -1 1055 5.3598349913954735e-03</internalNodes>
          <leafValues>
            -7.9889947175979614e-01 1.0314523242413998e-02</leafValues></_>
        <_>
          <internalNodes>
            0 -1 274 9.9594555795192719e-03</internalNodes>
          <leafValues>
            1.0196913778781891e-01 -9.3062035739421844e-02</leafValues></_>
        <_>
          <internalNodes>
            0 -1 450 3.2138064503669739e-02</internalNodes>
          <leafValues>
            -1.0737705975770950e-01 8.6683146655559540e-02</leafValues></_>
        <_>
          <internalNodes>
            0 -1 984 9.7236640751361847e-02</internalNodes>
          <leafValues>
            2.0475875586271286e-02 -4.1670218110084534e-01</leafValues></_>
        <_>
          <internalNodes>
            0 -1 493 1.2930759787559509e-01</internalNodes>
          <leafValues>
            2.0061716437339783e-02 -4.3332988023757935e-01</leafValues></_>
        <_>
          <internalNodes>
            0 -1 974 4.7694936394691467e-02</internalNodes>
          <leafValues>
            -6.6154368221759796e-02 1.3281467556953430e-01</leafValues></_>
        <_>
          <internalNodes>
            0 -1 230 1.7084054648876190e-02</internalNodes>
          <leafValues>
            6.2987804412841797e-02 -1.2749023735523224e-01</leafValues></_>
        <_>
          <internalNodes>
            0 -1 1016 6.6166892647743225e-03</internalNodes>
          <leafValues>
            -4.9438774585723877e-01 1.5137572772800922e-02</leafValues></_>
        <_>
          <internalNodes>
            0 -1 645 1.6063138842582703e-02</internalNodes>
          <leafValues>
            3.1420797109603882e-01 -2.8227088972926140e-02</leafValues></_>
        <_>
          <internalNodes>
            0 -1 1038 6.1068035662174225e-02</internalNodes>
          <leafValues>
            3.5517334938049316e-02 -2.2999280691146851e-01</leafValues></_>
        <_>
          <internalNodes>
            0 -1 203 2.5788221508264542e-02</internalNodes>
          <leafValues>
            5.5253021419048309e-02 -1.5520103275775909e-01</leafValues></_>
        <_>
          <internalNodes>
            0 -1 661 1.2775123119354248e-01</internalNodes>
          <leafValues>
            -1.9729943946003914e-02 4.4570508599281311e-01</leafValues></_>
        <_>
          <internalNodes>
            0 -1 464 6.7739188671112061e-02</internalNodes>
          <leafValues>
            2.9032504186034203e-02 -2.7187329530715942e-01</leafValues></_>
        <_>
          <internalNodes>
            0 -1 859 4.2360448278486729e-03</internalNodes>
          <leafValues>
            -5.6189960241317749e-01 1.3206048868596554e-02</leafValues></_>
        <_>
          <internalNodes>
            0 -1 457 2.9563352465629578e-02</internalNodes>
          <leafValues>
            -1.1098296940326691e-01 7.4827790260314941e-02</leafValues></_>
        <_>
          <internalNodes>
            0 -1 317 2.6131522655487061e-01</internalNodes>
          <leafValues>
            -7.6853660866618156e-03 9.3380248546600342e-01</leafValues></_>
        <_>
          <internalNodes>
            0 -1 771 2.1508622448891401e-03</internalNodes>
          <leafValues>
            -5.1643818616867065e-01 1.6810979694128036e-02</leafValues></_>
        <_>
          <internalNodes>
            0 -1 439 6.8731494247913361e-03</internalNodes>
          <leafValues>
            2.3186331987380981e-01 -3.4295517951250076e-02</leafValues></_>
        <_>
          <internalNodes>
            0 -1 1006 9.0583674609661102e-03</internalNodes>
          <leafValues>
            -1.5975262224674225e-01 5.1011729985475540e-02</leafValues></_>
        <_>
          <internalNodes>
            0 -1 182 3.3746720291674137e-03</internalNodes>
          <leafValues>
            1.3426512479782104e-01 -6.2604129314422607e-02</leafValues></_>
        <_>
          <internalNodes>
            0 -1 546 5.2496358752250671e-02</internalNodes>
          <leafValues>
            -1.9524570554494858e-02 4.3217778205871582e-01</leafValues></_>
        <_>
          <internalNodes>
            0 -1 530 2.1980378776788712e-02</internalNodes>
          <leafValues>
            1.1399231851100922e-01 -6.9688178598880768e-02</leafValues></_>
        <_>
          <internalNodes>
            0 -1 960 5.8168964460492134e-03</internalNodes>
          <leafValues>
            -2.1228405833244324e-01 3.6559291183948517e-02</leafValues></_>
        <_>
          <internalNodes>
            0 -1 452 4.9345027655363083e-03</internalNodes>
          <leafValues>
            1.4040671288967133e-01 -5.2493978291749954e-02</leafValues></_>
        <_>
          <internalNodes>
            0 -1 150 9.8426686599850655e-04</internalNodes>
          <leafValues>
            -8.9307159185409546e-01 7.6142572797834873e-03</leafValues></_>
        <_>
          <internalNodes>
            0 -1 213 5.0518907606601715e-02</internalNodes>
          <leafValues>
            -5.8451648801565170e-02 1.1938219517469406e-01</leafValues></_>
        <_>
          <internalNodes>
            0 -1 302 6.0512319207191467e-02</internalNodes>
          <leafValues>
            -6.1629772186279297e-02 1.2106767296791077e-01</leafValues></_>
        <_>
          <internalNodes>
            0 -1 665 1.2419779784977436e-02</internalNodes>
          <leafValues>
            5.8586007356643677e-01 -1.3943797908723354e-02</leafValues></_>
        <_>
          <internalNodes>
            0 -1 234 5.3085908293724060e-03</internalNodes>
          <leafValues>
            -2.3455353081226349e-01 3.2850079238414764e-02</leafValues></_>
        <_>
          <internalNodes>
            0 -1 703 9.8117850720882416e-03</internalNodes>
          <leafValues>
            1.6877055168151855e-01 -4.7519523650407791e-02</leafValues></_>
        <_>
          <internalNodes>
            0 -1 87 7.6498895883560181e-02</internalNodes>
          <leafValues>
            2.2350605577230453e-02 -3.6062428355216980e-01</leafValues></_>
        <_>
          <internalNodes>
            0 -1 525 4.1439082473516464e-02</internalNodes>
          <leafValues>
            -1.0521224141120911e-01 7.0307441055774689e-02</leafValues></_>
        <_>
          <internalNodes>
            0 -1 534 4.6074658632278442e-02</internalNodes>
          <leafValues>
            -3.2696969807147980e-02 2.2896091639995575e-01</leafValues></_>
        <_>
          <internalNodes>
            0 -1 590 2.5658577680587769e-02</internalNodes>
          <leafValues>
            -6.6079512238502502e-02 1.0889311134815216e-01</leafValues></_>
        <_>
          <internalNodes>
            0 -1 821 2.0881555974483490e-02</internalNodes>
          <leafValues>
            -1.8599803745746613e-01 4.4770490378141403e-02</leafValues></_>
        <_>
          <internalNodes>
            0 -1 581 5.1540441811084747e-02</internalNodes>
          <leafValues>
            -2.4859888479113579e-02 3.6864680051803589e-01</leafValues></_>
        <_>
          <internalNodes>
            0 -1 486 7.8823260962963104e-02</internalNodes>
          <leafValues>
            -1.4529904350638390e-02 4.7685667872428894e-01</leafValues></_>
        <_>
          <internalNodes>
            0 -1 365 2.6505358982831240e-03</internalNodes>
          <leafValues>
            -5.6525069475173950e-01 1.3448001816868782e-02</leafValues></_>
        <_>
          <internalNodes>
            0 -1 1035 3.3869758248329163e-02</internalNodes>
          <leafValues>
            1.7176633700728416e-02 -3.7337183952331543e-01</leafValues></_>
        <_>
          <internalNodes>
            0 -1 707 1.9659865647554398e-02</internalNodes>
          <leafValues>
            -8.2014642655849457e-02 9.2499129474163055e-02</leafValues></_>
        <_>
          <internalNodes>
            0 -1 306 8.5866019129753113e-02</internalNodes>
          <leafValues>
            -3.0042542144656181e-02 2.6492017507553101e-01</leafValues></_>
        <_>
          <internalNodes>
            0 -1 856 7.9067004844546318e-03</internalNodes>
          <leafValues>
            -2.6225137710571289e-01 2.7004530653357506e-02</leafValues></_>
        <_>
          <internalNodes>
            0 -1 261 1.6795048117637634e-01</internalNodes>
          <leafValues>
            -1.8088642507791519e-02 4.3662852048873901e-01</leafValues></_>
        <_>
          <internalNodes>
            0 -1 979 3.1048025935888290e-02</internalNodes>
          <leafValues>
            -4.3886590749025345e-02 1.8384072184562683e-01</leafValues></_>
        <_>
          <internalNodes>
            0 -1 634 3.7476629018783569e-02</internalNodes>
          <leafValues>
            1.7769895493984222e-02 -4.0545496344566345e-01</leafValues></_>
        <_>
          <internalNodes>
            0 -1 482 2.9859980568289757e-03</internalNodes>
          <leafValues>
            1.9053772091865540e-01 -3.6965437233448029e-02</leafValues></_>
        <_>
          <internalNodes>
            0 -1 407 6.1989150941371918e-02</internalNodes>
          <leafValues>
            1.6962558031082153e-02 -4.0903395414352417e-01</leafValues></_>
        <_>
          <internalNodes>
            0 -1 1025 3.5373166203498840e-02</internalNodes>
          <leafValues>
            1.3791032135486603e-02 -4.4832345843315125e-01</leafValues></_>
        <_>
          <internalNodes>
            0 -1 783 4.2403070256114006e-03</internalNodes>
          <leafValues>
            -3.4607449173927307e-01 1.7845002934336662e-02</leafValues></_>
        <_>
          <internalNodes>
            0 -1 731 3.9799403399229050e-02</internalNodes>
          <leafValues>
            -2.3503920063376427e-02 2.9024711251258850e-01</leafValues></_>
        <_>
          <internalNodes>
            0 -1 441 2.0275242626667023e-02</internalNodes>
          <leafValues>
            3.9203211665153503e-02 -1.9592405855655670e-01</leafValues></_>
        <_>
          <internalNodes>
            0 -1 765 4.0124494582414627e-02</internalNodes>
          <leafValues>
            -2.0431086421012878e-02 3.7550500035285950e-01</leafValues></_>
        <_>
          <internalNodes>
            0 -1 73 1.5531138342339545e-04</internalNodes>
          <leafValues>
            -4.2156296968460083e-01 1.6015460714697838e-02</leafValues></_>
        <_>
          <internalNodes>
            0 -1 627 2.5132678449153900e-02</internalNodes>
          <leafValues>
            -1.8781548738479614e-01 3.5434026271104813e-02</leafValues></_>
        <_>
          <internalNodes>
            0 -1 522 5.3621679544448853e-02</internalNodes>
          <leafValues>
            4.5749738812446594e-02 -1.4043693244457245e-01</leafValues></_>
        <_>
          <internalNodes>
            0 -1 328 7.3739677667617798e-02</internalNodes>
          <leafValues>
            -4.9357112497091293e-02 1.2267258018255234e-01</leafValues></_>
        <_>
          <internalNodes>
            0 -1 672 2.7897385880351067e-02</internalNodes>
          <leafValues>
            1.8420320749282837e-01 -4.6748679131269455e-02</leafValues></_>
        <_>
          <internalNodes>
            0 -1 728 1.6458947211503983e-02</internalNodes>
          <leafValues>
            -1.0251525789499283e-01 6.4329318702220917e-02</leafValues></_>
        <_>
          <internalNodes>
            0 -1 469 5.8035552501678467e-02</internalNodes>
          <leafValues>
            -2.2275686264038086e-02 2.8813385963439941e-01</leafValues></_>
        <_>
          <internalNodes>
            0 -1 762 6.3745290040969849e-02</internalNodes>
          <leafValues>
            -3.7987291812896729e-02 1.6683746874332428e-01</leafValues></_>
        <_>
          <internalNodes>
            0 -1 762 1.1285561323165894e-01</internalNodes>
          <leafValues>
            1.4041241258382797e-02 -4.9504971504211426e-01</leafValues></_>
        <_>
          <internalNodes>
            0 -1 627 1.1213876307010651e-01</internalNodes>
          <leafValues>
            -1.9156068563461304e-02 3.5322862863540649e-01</leafValues></_>
        <_>
          <internalNodes>
            0 -1 874 1.0570252779871225e-03</internalNodes>
          <leafValues>
            -6.0309696197509766e-01 1.1762520298361778e-02</leafValues></_>
        <_>
          <internalNodes>
            0 -1 479 5.8450795710086823e-02</internalNodes>
          <leafValues>
            1.2705049477517605e-02 -4.3193465471267700e-01</leafValues></_>
        <_>
          <internalNodes>
            0 -1 823 2.8375356923788786e-03</internalNodes>
          <leafValues>
            -6.9503653049468994e-01 7.5835338793694973e-03</leafValues></_>
        <_>
          <internalNodes>
            0 -1 904 1.1300514638423920e-01</internalNodes>
          <leafValues>
            6.7108902148902416e-03 -6.9026172161102295e-01</leafValues></_>
        <_>
          <internalNodes>
            0 -1 580 7.1727177128195763e-03</internalNodes>
          <leafValues>
            2.1166364848613739e-01 -3.0372859910130501e-02</leafValues></_>
        <_>
          <internalNodes>
            0 -1 58 3.6833424121141434e-02</internalNodes>
          <leafValues>
            -5.7732868939638138e-02 1.2081638723611832e-01</leafValues></_>
        <_>
          <internalNodes>
            0 -1 688 1.8355354666709900e-02</internalNodes>
          <leafValues>
            -2.8799936175346375e-01 2.4041423574090004e-02</leafValues></_>
        <_>
          <internalNodes>
            0 -1 35 2.2176980972290039e-02</internalNodes>
          <leafValues>
            1.0173502564430237e-01 -6.2618494033813477e-02</leafValues></_>
        <_>
          <internalNodes>
            0 -1 795 1.2563658878207207e-02</internalNodes>
          <leafValues>
            -2.7904424071311951e-01 2.4164201691746712e-02</leafValues></_>
        <_>
          <internalNodes>
            0 -1 544 8.8998481631278992e-02</internalNodes>
          <leafValues>
            9.9655864760279655e-03 -5.7821673154830933e-01</leafValues></_>
        <_>
          <internalNodes>
            0 -1 495 9.6440836787223816e-03</internalNodes>
          <leafValues>
            2.0250329375267029e-01 -3.1278163194656372e-02</leafValues></_>
        <_>
          <internalNodes>
            0 -1 660 5.3070252761244774e-03</internalNodes>
          <leafValues>
            -5.9673982858657837e-01 1.0897086001932621e-02</leafValues></_>
        <_>
          <internalNodes>
            0 -1 879 2.5745246559381485e-02</internalNodes>
          <leafValues>
            3.7493377923965454e-02 -1.6882492601871490e-01</leafValues></_>
        <_>
          <internalNodes>
            0 -1 405 1.7532959580421448e-01</internalNodes>
          <leafValues>
            9.5697380602359772e-03 -5.9122592210769653e-01</leafValues></_>
        <_>
          <internalNodes>
            0 -1 426 1.5223635360598564e-02</internalNodes>
          <leafValues>
            7.5660027563571930e-02 -9.0845800936222076e-02</leafValues></_>
        <_>
          <internalNodes>
            0 -1 1038 7.5086960569024086e-03</internalNodes>
          <leafValues>
            -5.6852412223815918e-01 1.0499854572117329e-02</leafValues></_></weakClassifiers></_>
    <!-- stage 5 -->
    <_>
      <maxWeakCount>100</maxWeakCount>
      <stageThreshold>-1.5453034639358521e+00</stageThreshold>
      <weakClassifiers>
        <_>
          <internalNodes>
            0 -1 717 3.2502461690455675e-03</internalNodes>
          <leafValues>
            -1.3279132544994354e-01 -5.5137193202972412e-01</leafValues></_>
        <_>
          <internalNodes>
            0 -1 656 5.8961614966392517e-02</internalNodes>
          <leafValues>
            -1.8188658356666565e-01 1.2566949427127838e-01</leafValues></_>
        <_>
          <internalNodes>
            0 -1 651 7.2352200746536255e-02</internalNodes>
          <leafValues>
            -8.4780238568782806e-02 1.7884375154972076e-01</leafValues></_>
        <_>
          <internalNodes>
            0 -1 588 8.8606163859367371e-02</internalNodes>
          <leafValues>
            2.0151717588305473e-02 -6.3387674093246460e-01</leafValues></_>
        <_>
          <internalNodes>
            0 -1 690 1.3461781665682793e-02</internalNodes>
          <leafValues>
            1.1958060413599014e-01 -1.0647249221801758e-01</leafValues></_>
        <_>
          <internalNodes>
            0 -1 556 8.0896481871604919e-02</internalNodes>
          <leafValues>
            2.1980589255690575e-02 -4.9157524108886719e-01</leafValues></_>
        <_>
          <internalNodes>
            0 -1 757 1.7471689730882645e-02</internalNodes>
          <leafValues>
            2.0068676769733429e-01 -5.2188605070114136e-02</leafValues></_>
        <_>
          <internalNodes>
            0 -1 850 2.8096005320549011e-02</internalNodes>
          <leafValues>
            -2.0231506228446960e-01 4.8701722174882889e-02</leafValues></_>
        <_>
          <internalNodes>
            0 -1 974 4.0769088082015514e-03</internalNodes>
          <leafValues>
            -5.1510936021804810e-01 4.0654387325048447e-02</leafValues></_>
        <_>
          <internalNodes>
            0 -1 18 4.7672145068645477e-02</internalNodes>
          <leafValues>
            -3.4739948809146881e-02 2.3198080062866211e-01</leafValues></_>
        <_>
          <internalNodes>
            0 -1 747 3.5879821516573429e-03</internalNodes>
          <leafValues>
            -5.1751029491424561e-01 1.3947900384664536e-02</leafValues></_>
        <_>
          <internalNodes>
            0 -1 891 7.1440853178501129e-02</internalNodes>
          <leafValues>
            -4.1998364031314850e-02 2.1260847151279449e-01</leafValues></_>
        <_>
          <internalNodes>
            0 -1 764 5.7634949684143066e-02</internalNodes>
          <leafValues>
            4.1401308029890060e-02 -2.2992420196533203e-01</leafValues></_>
        <_>
          <internalNodes>
            0 -1 967 1.1981423199176788e-01</internalNodes>
          <leafValues>
            2.1692108362913132e-02 -7.6858109235763550e-01</leafValues></_>
        <_>
          <internalNodes>
            0 -1 858 9.6356263384222984e-03</internalNodes>
          <leafValues>
            -2.7939274907112122e-01 2.7163410559296608e-02</leafValues></_>
        <_>
          <internalNodes>
            0 -1 649 8.3408262580633163e-03</internalNodes>
          <leafValues>
            1.8006615340709686e-01 -5.2651882171630859e-02</leafValues></_>
        <_>
          <internalNodes>
            0 -1 1003 1.9002914428710938e-02</internalNodes>
          <leafValues>
            -2.1484512090682983e-01 4.4490549713373184e-02</leafValues></_>
        <_>
          <internalNodes>
            0 -1 1051 7.4800223112106323e-02</internalNodes>
          <leafValues>
            2.5972656905651093e-02 -3.4044307470321655e-01</leafValues></_>
        <_>
          <internalNodes>
            0 -1 723 1.0405039042234421e-01</internalNodes>
          <leafValues>
            -3.9605390280485153e-02 2.7024835348129272e-01</leafValues></_>
        <_>
          <internalNodes>
            0 -1 838 8.0109611153602600e-03</internalNodes>
          <leafValues>
            -4.7376427054405212e-01 2.5899197906255722e-02</leafValues></_>
        <_>
          <internalNodes>
            0 -1 246 2.6434734463691711e-02</internalNodes>
          <leafValues>
            -1.5807949006557465e-01 5.1404844969511032e-02</leafValues></_>
        <_>
          <internalNodes>
            0 -1 90 2.7780314907431602e-02</internalNodes>
          <leafValues>
            -5.5770065635442734e-02 1.8436005711555481e-01</leafValues></_>
        <_>
          <internalNodes>
            0 -1 88 1.8158104270696640e-02</internalNodes>
          <leafValues>
            1.4766980707645416e-01 -6.3514225184917450e-02</leafValues></_>
        <_>
          <internalNodes>
            0 -1 978 5.0239514559507370e-02</internalNodes>
          <leafValues>
            -9.1371275484561920e-02 9.6478417515754700e-02</leafValues></_>
        <_>
          <internalNodes>
            0 -1 985 2.8104048222303391e-02</internalNodes>
          <leafValues>
            3.5437256097793579e-02 -2.5297644734382629e-01</leafValues></_>
        <_>
          <internalNodes>
            0 -1 504 4.4153567403554916e-02</internalNodes>
          <leafValues>
            -3.7792224436998367e-02 2.3890297114849091e-01</leafValues></_>
        <_>
          <internalNodes>
            0 -1 122 9.0936146676540375e-02</internalNodes>
          <leafValues>
            3.5483658313751221e-02 -2.2159294784069061e-01</leafValues></_>
        <_>
          <internalNodes>
            0 -1 545 6.2194973230361938e-02</internalNodes>
          <leafValues>
            -1.9082585349678993e-02 4.4756996631622314e-01</leafValues></_>
        <_>
          <internalNodes>
            0 -1 971 3.6992326378822327e-02</internalNodes>
          <leafValues>
            -1.2074016034603119e-01 7.4169963598251343e-02</leafValues></_>
        <_>
          <internalNodes>
            0 -1 935 2.5339987128973007e-02</internalNodes>
          <leafValues>
            -1.5630958974361420e-01 5.9743545949459076e-02</leafValues></_>
        <_>
          <internalNodes>
            0 -1 961 2.8216235805302858e-03</internalNodes>
          <leafValues>
            -2.8149664402008057e-01 2.8479231521487236e-02</leafValues></_>
        <_>
          <internalNodes>
            0 -1 559 2.6723280549049377e-02</internalNodes>
          <leafValues>
            5.6641496717929840e-02 -1.4224252104759216e-01</leafValues></_>
        <_>
          <internalNodes>
            0 -1 596 2.3369729518890381e-02</internalNodes>
          <leafValues>
            -7.7690087258815765e-02 9.8855741322040558e-02</leafValues></_>
        <_>
          <internalNodes>
            0 -1 180 2.6089183986186981e-02</internalNodes>
          <leafValues>
            2.5647191330790520e-02 -3.0815094709396362e-01</leafValues></_>
        <_>
          <internalNodes>
            0 -1 22 2.1355168428272009e-04</internalNodes>
          <leafValues>
            -5.5531483888626099e-01 1.2585110962390900e-02</leafValues></_>
        <_>
          <internalNodes>
            0 -1 339 5.8552369475364685e-02</internalNodes>
          <leafValues>
            -1.9051689654588699e-02 4.3550580739974976e-01</leafValues></_>
        <_>
          <internalNodes>
            0 -1 287 2.9841859359294176e-03</internalNodes>
          <leafValues>
            2.0946016907691956e-01 -3.5863779485225677e-02</leafValues></_>
        <_>
          <internalNodes>
            0 -1 10 2.3298906162381172e-02</internalNodes>
          <leafValues>
            -1.4889191091060638e-01 5.2408996969461441e-02</leafValues></_>
        <_>
          <internalNodes>
            0 -1 499 9.3724064528942108e-02</internalNodes>
          <leafValues>
            8.6374394595623016e-03 -7.1240472793579102e-01</leafValues></_>
        <_>
          <internalNodes>
            0 -1 750 3.8698978722095490e-02</internalNodes>
          <leafValues>
