<?xml version="1.0"?>
<opencv_storage>
<cascade>
  <stageType>BOOST</stageType>
  <featureType>HOG</featureType>
  <height>32</height>
  <width>32</width>
  <stageParams>
    <boostType>GAB</boostType>
    <minHitRate>9.9500000476837158e-01</minHitRate>
    <maxFalseAlarm>1.0000000149011612e-01</maxFalseAlarm>
    <weightTrimRate>9.4999999999999996e-01</weightTrimRate>
    <maxDepth>1</maxDepth>
    <maxWeakCount>100</maxWeakCount></stageParams>
  <featureParams>
    <maxCatCount>0</maxCatCount>
    <featSize>36</featSize></featureParams>
  <stageNum>27</stageNum>
  <stages>
    <!-- stage 0 -->
    <_>
      <maxWeakCount>29</maxWeakCount>
      <stageThreshold>-1.4772497415542603e+00</stageThreshold>
      <weakClassifiers>
        <_>
          <internalNodes>
            0 -1 390 3.7086337804794312e-02</internalNodes>
          <leafValues>
            -8.3327370882034302e-01 1.0705394297838211e-01</leafValues></_>
        <_>
          <internalNodes>
            0 -1 726 3.2539419829845428e-02</internalNodes>
          <leafValues>
            -6.8404746055603027e-01 2.8059205412864685e-01</leafValues></_>
        <_>
          <internalNodes>
            0 -1 84 1.3160509988665581e-02</internalNodes>
          <leafValues>
            -7.7117466926574707e-01 2.2251354157924652e-01</leafValues></_>
        <_>
          <internalNodes>
            0 -1 932 2.0066604018211365e-02</internalNodes>
          <leafValues>
            -8.2140070199966431e-01 3.0690494179725647e-01</leafValues></_>
        <_>
          <internalNodes>
            0 -1 673 1.3668129220604897e-02</internalNodes>
          <leafValues>
            -6.0492080450057983e-01 1.6354112327098846e-01</leafValues></_>
        <_>
          <internalNodes>
            0 -1 349 2.3564733564853668e-02</internalNodes>
          <leafValues>
            -5.2925360202789307e-01 2.8231886029243469e-01</leafValues></_>
        <_>
          <internalNodes>
            0 -1 884 1.2116766534745693e-02</internalNodes>
          <leafValues>
            -7.7435529232025146e-01 2.0883208513259888e-01</leafValues></_>
        <_>
          <internalNodes>
            0 -1 941 2.1410502493381500e-02</internalNodes>
          <leafValues>
            -6.0516774654388428e-01 1.7256873846054077e-01</leafValues></_>
        <_>
          <internalNodes>
            0 -1 651 1.4193041250109673e-02</internalNodes>
          <leafValues>
            -5.5642873048782349e-01 1.9880612194538116e-01</leafValues></_>
        <_>
          <internalNodes>
            0 -1 836 1.9003644585609436e-02</internalNodes>
          <leafValues>
            -4.4223263859748840e-01 1.7704290151596069e-01</leafValues></_>
        <_>
          <internalNodes>
            0 -1 818 1.0158454999327660e-02</internalNodes>
          <leafValues>
            -5.2912402153015137e-01 1.4259333908557892e-01</leafValues></_>
        <_>
          <internalNodes>
            0 -1 97 2.8098447248339653e-02</internalNodes>
          <leafValues>
            -2.9354700446128845e-01 2.7076753973960876e-01</leafValues></_>
        <_>
          <internalNodes>
            0 -1 625 2.7618393301963806e-02</internalNodes>
          <leafValues>
            -3.6657875776290894e-01 2.2950148582458496e-01</leafValues></_>
        <_>
          <internalNodes>
            0 -1 795 2.9873233288526535e-02</internalNodes>
          <leafValues>
            1.3367633521556854e-01 -5.4242676496505737e-01</leafValues></_>
        <_>
          <internalNodes>
            0 -1 785 9.3005578964948654e-03</internalNodes>
          <leafValues>
            -6.5610373020172119e-01 1.0193391144275665e-01</leafValues></_>
        <_>
          <internalNodes>
            0 -1 915 1.6490336507558823e-02</internalNodes>
          <leafValues>
            -5.7542920112609863e-01 1.0960604995489120e-01</leafValues></_>
        <_>
          <internalNodes>
            0 -1 64 7.0862071588635445e-03</internalNodes>
          <leafValues>
            -7.5685513019561768e-01 9.2874065041542053e-02</leafValues></_>
        <_>
          <internalNodes>
            0 -1 793 2.7962915599346161e-02</internalNodes>
          <leafValues>
            1.4743776619434357e-01 -5.2960252761840820e-01</leafValues></_>
        <_>
          <internalNodes>
            0 -1 659 4.6380095183849335e-02</internalNodes>
          <leafValues>
            5.8366090059280396e-02 -8.3485484123229980e-01</leafValues></_>
        <_>
          <internalNodes>
            0 -1 784 3.4061677753925323e-02</internalNodes>
          <leafValues>
            1.1214353889226913e-01 -4.2559638619422913e-01</leafValues></_>
        <_>
          <internalNodes>
            0 -1 833 1.1078251525759697e-02</internalNodes>
          <leafValues>
            -5.1269924640655518e-01 1.0329516977071762e-01</leafValues></_>
        <_>
          <internalNodes>
            0 -1 796 1.7896670848131180e-02</internalNodes>
          <leafValues>
            1.7961937189102173e-01 -3.5602918267250061e-01</leafValues></_>
        <_>
          <internalNodes>
            0 -1 853 3.6780077964067459e-02</internalNodes>
          <leafValues>
            9.6059948205947876e-02 -5.3846925497055054e-01</leafValues></_>
        <_>
          <internalNodes>
            0 -1 399 2.4897614493966103e-02</internalNodes>
          <leafValues>
            -1.9400237500667572e-01 2.5621667504310608e-01</leafValues></_>
        <_>
          <internalNodes>
            0 -1 937 1.6700895503163338e-02</internalNodes>
          <leafValues>
            -4.6078088879585266e-01 1.1717813462018967e-01</leafValues></_>
        <_>
          <internalNodes>
            0 -1 662 3.8828738033771515e-02</internalNodes>
          <leafValues>
            -2.5879818201065063e-01 2.3574621975421906e-01</leafValues></_>
        <_>
          <internalNodes>
            0 -1 115 3.9239089936017990e-02</internalNodes>
          <leafValues>
            1.0971295833587646e-01 -5.4076886177062988e-01</leafValues></_>
        <_>
          <internalNodes>
            0 -1 953 1.0247237980365753e-02</internalNodes>
          <leafValues>
            -5.2099865674972534e-01 1.0778772830963135e-01</leafValues></_>
        <_>
          <internalNodes>
            0 -1 123 2.7802107855677605e-02</internalNodes>
          <leafValues>
            8.6498692631721497e-02 -6.2527972459793091e-01</leafValues></_></weakClassifiers></_>
    <!-- stage 1 -->
    <_>
      <maxWeakCount>61</maxWeakCount>
      <stageThreshold>-1.1995679140090942e+00</stageThreshold>
      <weakClassifiers>
        <_>
          <internalNodes>
            0 -1 386 2.0720597356557846e-02</internalNodes>
          <leafValues>
            -8.3468836545944214e-01 -3.8351821899414062e-01</leafValues></_>
        <_>
          <internalNodes>
            0 -1 772 1.3275372795760632e-02</internalNodes>
          <leafValues>
            -7.3210877180099487e-01 6.7431323230266571e-02</leafValues></_>
        <_>
          <internalNodes>
            0 -1 931 1.6370903700590134e-02</internalNodes>
          <leafValues>
            -4.8616901040077209e-01 1.9384332001209259e-01</leafValues></_>
        <_>
          <internalNodes>
            0 -1 747 5.8157328516244888e-02</internalNodes>
          <leafValues>
            -2.3073466122150421e-01 3.5224056243896484e-01</leafValues></_>
        <_>
          <internalNodes>
            0 -1 912 1.4319514855742455e-02</internalNodes>
          <leafValues>
            -5.6907057762145996e-01 1.4045223593711853e-01</leafValues></_>
        <_>
          <internalNodes>
            0 -1 520 2.2197894752025604e-02</internalNodes>
          <leafValues>
            -4.0514522790908813e-01 2.0102186501026154e-01</leafValues></_>
        <_>
          <internalNodes>
            0 -1 674 8.0263279378414154e-03</internalNodes>
          <leafValues>
            -8.0434864759445190e-01 1.1386400461196899e-01</leafValues></_>
        <_>
          <internalNodes>
            0 -1 496 1.1963389813899994e-02</internalNodes>
          <leafValues>
            -5.9820157289505005e-01 9.9477015435695648e-02</leafValues></_>
        <_>
          <internalNodes>
            0 -1 599 6.0605928301811218e-03</internalNodes>
          <leafValues>
            -4.5839786529541016e-01 1.3389956951141357e-01</leafValues></_>
        <_>
          <internalNodes>
            0 -1 267 2.8197001665830612e-02</internalNodes>
          <leafValues>
            1.0058636218309402e-01 -6.3530266284942627e-01</leafValues></_>
        <_>
          <internalNodes>
            0 -1 150 2.3748014122247696e-02</internalNodes>
          <leafValues>
            -3.5188001394271851e-01 1.6190904378890991e-01</leafValues></_>
        <_>
          <internalNodes>
            0 -1 64 1.5312565490603447e-02</internalNodes>
          <leafValues>
            -5.0862485170364380e-01 1.5129761397838593e-01</leafValues></_>
        <_>
          <internalNodes>
            0 -1 771 3.0063781887292862e-02</internalNodes>
          <leafValues>
            -2.0107120275497437e-01 3.2670232653617859e-01</leafValues></_>
        <_>
          <internalNodes>
            0 -1 919 7.5558319687843323e-02</internalNodes>
          <leafValues>
            7.7047131955623627e-02 -7.3228591680526733e-01</leafValues></_>
        <_>
          <internalNodes>
            0 -1 567 5.3296210244297981e-03</internalNodes>
          <leafValues>
            -7.9630655050277710e-01 5.0199076533317566e-02</leafValues></_>
        <_>
          <internalNodes>
            0 -1 540 1.8707193434238434e-02</internalNodes>
          <leafValues>
            -3.0138158798217773e-01 2.1565225720405579e-01</leafValues></_>
        <_>
          <internalNodes>
            0 -1 562 4.2413152754306793e-02</internalNodes>
          <leafValues>
            -1.3627736270427704e-01 4.3344172835350037e-01</leafValues></_>
        <_>
          <internalNodes>
            0 -1 732 5.0236113369464874e-02</internalNodes>
          <leafValues>
            -2.7658876776695251e-01 2.6088821887969971e-01</leafValues></_>
        <_>
          <internalNodes>
            0 -1 311 3.5652215592563152e-03</internalNodes>
          <leafValues>
            -5.2783441543579102e-01 1.0007366538047791e-01</leafValues></_>
        <_>
          <internalNodes>
            0 -1 118 1.0019807517528534e-01</internalNodes>
          <leafValues>
            5.0974585115909576e-02 -7.5186014175415039e-01</leafValues></_>
        <_>
          <internalNodes>
            0 -1 378 2.1419027820229530e-02</internalNodes>
          <leafValues>
            -3.4936693310737610e-01 1.2452083081007004e-01</leafValues></_>
        <_>
          <internalNodes>
            0 -1 108 1.2641104869544506e-02</internalNodes>
          <leafValues>
            -4.1615012288093567e-01 1.0550227016210556e-01</leafValues></_>
        <_>
          <internalNodes>
            0 -1 824 7.6807677745819092e-02</internalNodes>
          <leafValues>
            7.5433954596519470e-02 -5.3805440664291382e-01</leafValues></_>
        <_>
          <internalNodes>
            0 -1 789 1.8688064068555832e-02</internalNodes>
          <leafValues>
            -4.5605745911598206e-01 1.0008224099874496e-01</leafValues></_>
        <_>
          <internalNodes>
            0 -1 273 2.9980640858411789e-02</internalNodes>
          <leafValues>
            1.0266295075416565e-01 -4.1623371839523315e-01</leafValues></_>
        <_>
          <internalNodes>
            0 -1 784 5.4117538034915924e-02</internalNodes>
          <leafValues>
            5.0974212586879730e-02 -7.3591113090515137e-01</leafValues></_>
        <_>
          <internalNodes>
            0 -1 674 2.4110496044158936e-02</internalNodes>
          <leafValues>
            -2.6997438073158264e-01 1.3771364092826843e-01</leafValues></_>
        <_>
          <internalNodes>
            0 -1 912 4.9542491324245930e-03</internalNodes>
          <leafValues>
            -8.5065591335296631e-01 3.8218393921852112e-02</leafValues></_>
        <_>
          <internalNodes>
            0 -1 769 1.7545990645885468e-02</internalNodes>
          <leafValues>
            -4.0924239158630371e-01 9.0869463980197906e-02</leafValues></_>
        <_>
          <internalNodes>
            0 -1 555 8.1057123839855194e-02</internalNodes>
          <leafValues>
            7.4238166213035583e-02 -5.5855715274810791e-01</leafValues></_>
        <_>
          <internalNodes>
            0 -1 765 4.6903349459171295e-02</internalNodes>
          <leafValues>
            5.7733800262212753e-02 -6.4349186420440674e-01</leafValues></_>
        <_>
          <internalNodes>
            0 -1 167 7.3284372687339783e-02</internalNodes>
          <leafValues>
            -1.0007334500551224e-01 4.0607300400733948e-01</leafValues></_>
        <_>
          <internalNodes>
            0 -1 657 4.3479546904563904e-02</internalNodes>
          <leafValues>
            7.7072665095329285e-02 -5.6097239255905151e-01</leafValues></_>
        <_>
          <internalNodes>
            0 -1 696 3.2126314938068390e-02</internalNodes>
          <leafValues>
            7.8378297388553619e-02 -4.5284441113471985e-01</leafValues></_>
        <_>
          <internalNodes>
            0 -1 926 1.9148550927639008e-02</internalNodes>
          <leafValues>
            1.0403906553983688e-01 -3.1570506095886230e-01</leafValues></_>
        <_>
          <internalNodes>
            0 -1 38 1.8254678696393967e-02</internalNodes>
          <leafValues>
            -2.9135024547576904e-01 1.1541803926229477e-01</leafValues></_>
        <_>
          <internalNodes>
            0 -1 521 5.1546998322010040e-02</internalNodes>
          <leafValues>
            -1.8522354960441589e-01 2.2252224385738373e-01</leafValues></_>
        <_>
          <internalNodes>
            0 -1 646 3.3968035131692886e-02</internalNodes>
          <leafValues>
            1.7192293703556061e-01 -2.2844287753105164e-01</leafValues></_>
        <_>
          <internalNodes>
            0 -1 781 2.4912852793931961e-02</internalNodes>
          <leafValues>
            -2.2142931818962097e-01 1.9683282077312469e-01</leafValues></_>
        <_>
          <internalNodes>
            0 -1 208 9.3343891203403473e-02</internalNodes>
          <leafValues>
            8.2550346851348877e-02 -4.6765682101249695e-01</leafValues></_>
        <_>
          <internalNodes>
            0 -1 607 4.1024848818778992e-02</internalNodes>
          <leafValues>
            -1.7634315788745880e-01 2.2610783576965332e-01</leafValues></_>
        <_>
          <internalNodes>
            0 -1 21 1.0183856822550297e-02</internalNodes>
          <leafValues>
            -2.8133994340896606e-01 1.3521723449230194e-01</leafValues></_>
        <_>
          <internalNodes>
            0 -1 501 2.3162113502621651e-02</internalNodes>
          <leafValues>
            9.5252156257629395e-02 -4.1015583276748657e-01</leafValues></_>
        <_>
          <internalNodes>
            0 -1 743 4.5029167085886002e-03</internalNodes>
          <leafValues>
            -9.0389597415924072e-01 3.2629963010549545e-02</leafValues></_>
        <_>
          <internalNodes>
            0 -1 922 2.0111743360757828e-02</internalNodes>
          <leafValues>
            -1.6368225216865540e-01 1.9778059422969818e-01</leafValues></_>
        <_>
          <internalNodes>
            0 -1 312 3.5491064190864563e-02</internalNodes>
          <leafValues>
            -1.1196977645158768e-01 2.8784397244453430e-01</leafValues></_>
        <_>
          <internalNodes>
            0 -1 536 3.5951290279626846e-02</internalNodes>
          <leafValues>
            -1.8033960461616516e-01 2.1688695251941681e-01</leafValues></_>
        <_>
          <internalNodes>
            0 -1 90 1.1643627658486366e-02</internalNodes>
          <leafValues>
            -2.8806373476982117e-01 1.1068839579820633e-01</leafValues></_>
        <_>
          <internalNodes>
            0 -1 80 5.9127859771251678e-02</internalNodes>
          <leafValues>
            6.5648145973682404e-02 -5.0229114294052124e-01</leafValues></_>
        <_>
          <internalNodes>
            0 -1 274 2.7255542576313019e-02</internalNodes>
          <leafValues>
            8.0136388540267944e-02 -3.5525330901145935e-01</leafValues></_>
        <_>
          <internalNodes>
            0 -1 331 1.9103629514575005e-02</internalNodes>
          <leafValues>
            -1.7862762510776520e-01 1.6673223674297333e-01</leafValues></_>
        <_>
          <internalNodes>
            0 -1 275 1.1018613353371620e-02</internalNodes>
          <leafValues>
            2.0133499801158905e-01 -1.7422980070114136e-01</leafValues></_>
        <_>
          <internalNodes>
            0 -1 901 1.9182406365871429e-02</internalNodes>
          <leafValues>
            -3.2581177353858948e-01 9.9319085478782654e-02</leafValues></_>
        <_>
          <internalNodes>
            0 -1 1 1.6070239245891571e-02</internalNodes>
          <leafValues>
            -2.2513437271118164e-01 1.4947053790092468e-01</leafValues></_>
        <_>
          <internalNodes>
            0 -1 264 2.6602843776345253e-02</internalNodes>
          <leafValues>
            -3.3083873987197876e-01 9.9023222923278809e-02</leafValues></_>
        <_>
          <internalNodes>
            0 -1 231 3.2806798815727234e-02</internalNodes>
          <leafValues>
            -1.4484222233295441e-01 2.5402620434761047e-01</leafValues></_>
        <_>
          <internalNodes>
            0 -1 514 7.8910760581493378e-02</internalNodes>
          <leafValues>
            7.9485081136226654e-02 -4.0778166055679321e-01</leafValues></_>
        <_>
          <internalNodes>
            0 -1 752 4.5046191662549973e-02</internalNodes>
          <leafValues>
            5.1991991698741913e-02 -5.5713564157485962e-01</leafValues></_>
        <_>
          <internalNodes>
            0 -1 507 3.5456944257020950e-02</internalNodes>
          <leafValues>
            4.1369140148162842e-02 -6.2598550319671631e-01</leafValues></_>
        <_>
          <internalNodes>
            0 -1 952 9.5656979829072952e-03</internalNodes>
          <leafValues>
            -3.2629343867301941e-01 9.2139884829521179e-02</leafValues></_>
        <_>
          <internalNodes>
            0 -1 654 1.1234854348003864e-02</internalNodes>
          <leafValues>
            -5.3498429059982300e-01 5.9420973062515259e-02</leafValues></_></weakClassifiers></_>
    <!-- stage 2 -->
    <_>
      <maxWeakCount>65</maxWeakCount>
      <stageThreshold>-1.1391642093658447e+00</stageThreshold>
      <weakClassifiers>
        <_>
          <internalNodes>
            0 -1 706 8.9186877012252808e-03</internalNodes>
          <leafValues>
            4.4680851697921753e-01 -7.4625974893569946e-01</leafValues></_>
        <_>
          <internalNodes>
            0 -1 774 5.1171451807022095e-02</internalNodes>
          <leafValues>
            -4.5465216040611267e-01 3.6876347661018372e-01</leafValues></_>
        <_>
          <internalNodes>
            0 -1 733 5.2714481949806213e-02</internalNodes>
          <leafValues>
            -3.3960101008415222e-01 4.9199888110160828e-01</leafValues></_>
        <_>
          <internalNodes>
            0 -1 634 4.3799612671136856e-02</internalNodes>
          <leafValues>
            -2.6343271136283875e-01 4.1904127597808838e-01</leafValues></_>
        <_>
          <internalNodes>
            0 -1 31 2.9919993132352829e-02</internalNodes>
          <leafValues>
            -2.2954687476158142e-01 3.6544409394264221e-01</leafValues></_>
        <_>
          <internalNodes>
            0 -1 476 4.4332802295684814e-02</internalNodes>
          <leafValues>
            -2.9055020213127136e-01 2.7813231945037842e-01</leafValues></_>
        <_>
          <internalNodes>
            0 -1 557 3.4891739487648010e-02</internalNodes>
          <leafValues>
            -1.3195103406906128e-01 4.5073655247688293e-01</leafValues></_>
        <_>
          <internalNodes>
            0 -1 673 1.9469473510980606e-02</internalNodes>
          <leafValues>
            -3.3008083701133728e-01 1.7210397124290466e-01</leafValues></_>
        <_>
          <internalNodes>
            0 -1 792 1.6534207388758659e-02</internalNodes>
          <leafValues>
            1.9742976129055023e-01 -2.8118455410003662e-01</leafValues></_>
        <_>
          <internalNodes>
            0 -1 948 2.1954983472824097e-02</internalNodes>
          <leafValues>
            1.2718328833580017e-01 -3.7095960974693298e-01</leafValues></_>
        <_>
          <internalNodes>
            0 -1 252 8.1683993339538574e-03</internalNodes>
          <leafValues>
            -4.0113610029220581e-01 1.3183903694152832e-01</leafValues></_>
        <_>
          <internalNodes>
            0 -1 24 3.9353959262371063e-02</internalNodes>
          <leafValues>
            -2.0315201580524445e-01 1.9504742324352264e-01</leafValues></_>
        <_>
          <internalNodes>
            0 -1 674 9.4146408140659332e-02</internalNodes>
          <leafValues>
            7.2673745453357697e-02 -6.9389510154724121e-01</leafValues></_>
        <_>
          <internalNodes>
            0 -1 662 3.8077302277088165e-02</internalNodes>
          <leafValues>
            -2.5645354390144348e-01 1.6353507339954376e-01</leafValues></_>
        <_>
          <internalNodes>
            0 -1 1 3.2064437866210938e-02</internalNodes>
          <leafValues>
            -1.3339136540889740e-01 3.2651290297508240e-01</leafValues></_>
        <_>
          <internalNodes>
            0 -1 526 3.7302521523088217e-03</internalNodes>
          <leafValues>
            5.1094877719879150e-01 -8.3988972008228302e-02</leafValues></_>
        <_>
          <internalNodes>
            0 -1 801 9.4238491728901863e-03</internalNodes>
          <leafValues>
            -3.4065902233123779e-01 1.1929560452699661e-01</leafValues></_>
        <_>
          <internalNodes>
            0 -1 925 2.8104530647397041e-02</internalNodes>
          <leafValues>
            8.1364251673221588e-02 -4.6292179822921753e-01</leafValues></_>
        <_>
          <internalNodes>
            0 -1 125 3.8933828473091125e-02</internalNodes>
          <leafValues>
            -2.3978349566459656e-01 1.7959505319595337e-01</leafValues></_>
        <_>
          <internalNodes>
            0 -1 607 1.6722835600376129e-02</internalNodes>
          <leafValues>
            -4.4086045026779175e-01 9.0090751647949219e-02</leafValues></_>
        <_>
          <internalNodes>
            0 -1 963 7.4787706136703491e-02</internalNodes>
          <leafValues>
            4.5534037053585052e-02 -7.0036375522613525e-01</leafValues></_>
        <_>
          <internalNodes>
            0 -1 782 1.5568640083074570e-02</internalNodes>
          <leafValues>
            4.0346169471740723e-01 -1.0074906051158905e-01</leafValues></_>
        <_>
          <internalNodes>
            0 -1 97 3.6918576806783676e-02</internalNodes>
          <leafValues>
            -1.7184603214263916e-01 2.2446514666080475e-01</leafValues></_>
        <_>
          <internalNodes>
            0 -1 140 2.5754921138286591e-02</internalNodes>
          <leafValues>
            9.1104283928871155e-02 -3.6138361692428589e-01</leafValues></_>
        <_>
          <internalNodes>
            0 -1 220 3.9326963014900684e-03</internalNodes>
          <leafValues>
            6.4583832025527954e-01 -5.2018702030181885e-02</leafValues></_>
        <_>
          <internalNodes>
            0 -1 844 2.3737661540508270e-02</internalNodes>
          <leafValues>
            -1.5591353178024292e-01 2.3731248080730438e-01</leafValues></_>
        <_>
          <internalNodes>
            0 -1 395 2.4119807407259941e-02</internalNodes>
          <leafValues>
            8.7572626769542694e-02 -3.3180266618728638e-01</leafValues></_>
        <_>
          <internalNodes>
            0 -1 28 2.5494087487459183e-02</internalNodes>
          <leafValues>
            8.1301935017108917e-02 -3.4103858470916748e-01</leafValues></_>
        <_>
          <internalNodes>
            0 -1 121 1.3255178928375244e-01</internalNodes>
          <leafValues>
            3.4463342279195786e-02 -9.1204357147216797e-01</leafValues></_>
        <_>
          <internalNodes>
            0 -1 92 3.1933106482028961e-02</internalNodes>
          <leafValues>
            1.4411687850952148e-01 -1.9971759617328644e-01</leafValues></_>
        <_>
          <internalNodes>
            0 -1 358 4.4503610581159592e-02</internalNodes>
          <leafValues>
            -1.7910476028919220e-01 1.8574553728103638e-01</leafValues></_>
        <_>
          <internalNodes>
            0 -1 654 6.9650337100028992e-02</internalNodes>
          <leafValues>
            5.9589292854070663e-02 -4.8193833231925964e-01</leafValues></_>
        <_>
          <internalNodes>
            0 -1 724 2.8741398826241493e-02</internalNodes>
          <leafValues>
            5.3624812513589859e-02 -4.7414955496788025e-01</leafValues></_>
        <_>
          <internalNodes>
            0 -1 610 1.2059964239597321e-02</internalNodes>
          <leafValues>
            -2.6409047842025757e-01 1.0411962121725082e-01</leafValues></_>
        <_>
          <internalNodes>
            0 -1 509 2.8279146179556847e-02</internalNodes>
          <leafValues>
            9.2695794999599457e-02 -2.7447310090065002e-01</leafValues></_>
        <_>
          <internalNodes>
            0 -1 895 7.5073711574077606e-02</internalNodes>
          <leafValues>
            5.2160568535327911e-02 -5.0815349817276001e-01</leafValues></_>
        <_>
          <internalNodes>
            0 -1 98 5.4334308952093124e-02</internalNodes>
          <leafValues>
            -4.7776084393262863e-02 6.5958648920059204e-01</leafValues></_>
        <_>
          <internalNodes>
            0 -1 471 3.3996731042861938e-02</internalNodes>
          <leafValues>
            7.6456807553768158e-02 -3.7956905364990234e-01</leafValues></_>
        <_>
          <internalNodes>
            0 -1 250 9.7369700670242310e-02</internalNodes>
          <leafValues>
            -5.9697467833757401e-02 4.6924278140068054e-01</leafValues></_>
        <_>
          <internalNodes>
            0 -1 621 1.8666846677660942e-02</internalNodes>
          <leafValues>
            -1.5814203023910522e-01 1.8039238452911377e-01</leafValues></_>
        <_>
          <internalNodes>
            0 -1 877 2.8338896110653877e-02</internalNodes>
          <leafValues>
            -2.1363450586795807e-01 1.1603774875402451e-01</leafValues></_>
        <_>
          <internalNodes>
            0 -1 713 5.9899240732192993e-03</internalNodes>
          <leafValues>
            -4.5551952719688416e-01 6.3274480402469635e-02</leafValues></_>
        <_>
          <internalNodes>
            0 -1 260 2.0764168351888657e-02</internalNodes>
          <leafValues>
            8.6228080093860626e-02 -3.0083674192428589e-01</leafValues></_>
        <_>
          <internalNodes>
            0 -1 887 6.3479389064013958e-03</internalNodes>
          <leafValues>
            -5.6843507289886475e-01 5.1630485802888870e-02</leafValues></_>
        <_>
          <internalNodes>
            0 -1 29 2.2183071821928024e-02</internalNodes>
          <leafValues>
            1.1302315443754196e-01 -2.3539288341999054e-01</leafValues></_>
        <_>
          <internalNodes>
            0 -1 648 1.4734151773154736e-02</internalNodes>
          <leafValues>
            1.3110630214214325e-01 -2.0319928228855133e-01</leafValues></_>
        <_>
          <internalNodes>
            0 -1 920 2.8182614594697952e-02</internalNodes>
          <leafValues>
            -7.6603807508945465e-02 3.5734823346138000e-01</leafValues></_>
        <_>
          <internalNodes>
            0 -1 650 1.3717791438102722e-01</internalNodes>
          <leafValues>
            3.5075828433036804e-02 -8.2475757598876953e-01</leafValues></_>
        <_>
          <internalNodes>
            0 -1 462 6.0616675764322281e-03</internalNodes>
          <leafValues>
            3.7159356474876404e-01 -7.9740628600120544e-02</leafValues></_>
        <_>
          <internalNodes>
            0 -1 507 1.7091475892812014e-03</internalNodes>
          <leafValues>
            4.0462175011634827e-01 -6.4552925527095795e-02</leafValues></_>
        <_>
          <internalNodes>
            0 -1 459 5.1938481628894806e-03</internalNodes>
          <leafValues>
            5.1936376094818115e-01 -5.4418243467807770e-02</leafValues></_>
        <_>
          <internalNodes>
            0 -1 566 2.2986520081758499e-02</internalNodes>
          <leafValues>
            -1.7543052136898041e-01 1.6775016486644745e-01</leafValues></_>
        <_>
          <internalNodes>
            0 -1 957 4.9089521169662476e-02</internalNodes>
          <leafValues>
            3.7580914795398712e-02 -7.6387459039688110e-01</leafValues></_>
        <_>
          <internalNodes>
            0 -1 891 2.8138561174273491e-02</internalNodes>
          <leafValues>
            -1.2009055912494659e-01 2.1364091336727142e-01</leafValues></_>
        <_>
          <internalNodes>
            0 -1 191 2.0707111805677414e-02</internalNodes>
          <leafValues>
            -2.8621932864189148e-01 9.6560902893543243e-02</leafValues></_>
        <_>
          <internalNodes>
            0 -1 825 1.8714923411607742e-02</internalNodes>
          <leafValues>
            1.4902509748935699e-01 -1.8694409728050232e-01</leafValues></_>
        <_>
          <internalNodes>
            0 -1 851 3.1899963505566120e-03</internalNodes>
          <leafValues>
            -7.7855354547500610e-01 3.4959502518177032e-02</leafValues></_>
        <_>
          <internalNodes>
            0 -1 486 5.0622284412384033e-02</internalNodes>
          <leafValues>
            -5.5663216859102249e-02 5.9139275550842285e-01</leafValues></_>
        <_>
          <internalNodes>
            0 -1 488 5.8914873749017715e-02</internalNodes>
          <leafValues>
            -1.0987185686826706e-01 2.3673449456691742e-01</leafValues></_>
        <_>
          <internalNodes>
            0 -1 899 2.8725205920636654e-03</internalNodes>
          <leafValues>
            -8.4373402595520020e-01 3.3390481024980545e-02</leafValues></_>
        <_>
          <internalNodes>
            0 -1 797 1.4957131817936897e-02</internalNodes>
          <leafValues>
            1.8518011271953583e-01 -1.4444752037525177e-01</leafValues></_>
        <_>
          <internalNodes>
            0 -1 893 1.9588988274335861e-02</internalNodes>
          <leafValues>
            -1.7466431856155396e-01 1.5699069201946259e-01</leafValues></_>
        <_>
          <internalNodes>
            0 -1 773 1.9101507961750031e-02</internalNodes>
          <leafValues>
            -3.5070765018463135e-01 7.4673786759376526e-02</leafValues></_>
        <_>
          <internalNodes>
            0 -1 799 2.9794808477163315e-02</internalNodes>
          <leafValues>
            -2.0937666296958923e-01 1.2206715345382690e-01</leafValues></_>
        <_>
          <internalNodes>
            0 -1 41 2.7936766855418682e-03</internalNodes>
          <leafValues>
            5.7155966758728027e-01 -4.9642562866210938e-02</leafValues></_></weakClassifiers></_>
    <!-- stage 3 -->
    <_>
      <maxWeakCount>100</maxWeakCount>
      <stageThreshold>-1.2264438867568970e+00</stageThreshold>
      <weakClassifiers>
        <_>
          <internalNodes>
            0 -1 652 2.4288723245263100e-02</internalNodes>
          <leafValues>
            -7.3343974351882935e-01 -2.4230253696441650e-01</leafValues></_>
        <_>
          <internalNodes>
            0 -1 260 6.1179706826806068e-03</internalNodes>
          <leafValues>
            2.0148317515850067e-01 -3.5496780276298523e-01</leafValues></_>
        <_>
          <internalNodes>
            0 -1 771 2.6826668530702591e-02</internalNodes>
          <leafValues>
            -2.2480249404907227e-01 3.4973341226577759e-01</leafValues></_>
        <_>
          <internalNodes>
            0 -1 691 6.4493522047996521e-02</internalNodes>
          <leafValues>
            -1.7356504499912262e-01 2.7640247344970703e-01</leafValues></_>
        <_>
          <internalNodes>
            0 -1 117 8.2318164408206940e-02</internalNodes>
          <leafValues>
            6.5410144627094269e-02 -6.3209497928619385e-01</leafValues></_>
        <_>
          <internalNodes>
            0 -1 963 7.3116481304168701e-02</internalNodes>
          <leafValues>
            5.5316962301731110e-02 -7.3563176393508911e-01</leafValues></_>
        <_>
          <internalNodes>
            0 -1 622 3.0928149819374084e-02</internalNodes>
          <leafValues>
            -1.9768853485584259e-01 2.1064099669456482e-01</leafValues></_>
        <_>
          <internalNodes>
            0 -1 101 6.5317913889884949e-02</internalNodes>
          <leafValues>
            -1.2578356266021729e-01 2.8674453496932983e-01</leafValues></_>
        <_>
          <internalNodes>
            0 -1 839 9.0005369856953621e-03</internalNodes>
          <leafValues>
            -3.8233563303947449e-01 9.1377221047878265e-02</leafValues></_>
        <_>
          <internalNodes>
            0 -1 768 7.1037478744983673e-02</internalNodes>
          <leafValues>
            5.1585022360086441e-02 -5.9996819496154785e-01</leafValues></_>
        <_>
          <internalNodes>
            0 -1 31 3.9995431900024414e-02</internalNodes>
          <leafValues>
            -1.1091803014278412e-01 2.8278744220733643e-01</leafValues></_>
        <_>
          <internalNodes>
            0 -1 647 1.4347949996590614e-02</internalNodes>
          <leafValues>
            1.5118394792079926e-01 -1.7829248309135437e-01</leafValues></_>
        <_>
          <internalNodes>
            0 -1 173 2.1243561059236526e-02</internalNodes>
          <leafValues>
            9.1687738895416260e-02 -3.1997826695442200e-01</leafValues></_>
        <_>
          <internalNodes>
            0 -1 794 1.0333134233951569e-01</internalNodes>
          <leafValues>
            3.2245997339487076e-02 -7.6335316896438599e-01</leafValues></_>
        <_>
          <internalNodes>
            0 -1 326 4.3062702752649784e-03</internalNodes>
          <leafValues>
            -4.3363705277442932e-01 5.1858101040124893e-02</leafValues></_>
        <_>
          <internalNodes>
            0 -1 677 4.7428540885448456e-02</internalNodes>
          <leafValues>
            -1.7223709821701050e-01 1.4748480916023254e-01</leafValues></_>
        <_>
          <internalNodes>
            0 -1 658 2.0413666963577271e-02</internalNodes>
          <leafValues>
            -3.3193650841712952e-01 6.9993644952774048e-02</leafValues></_>
        <_>
          <internalNodes>
            0 -1 895 7.6355203986167908e-02</internalNodes>
          <leafValues>
            5.5942628532648087e-02 -4.8108547925949097e-01</leafValues></_>
        <_>
          <internalNodes>
            0 -1 11 4.9489296972751617e-02</internalNodes>
          <leafValues>
            -1.5741315484046936e-01 1.7073999345302582e-01</leafValues></_>
        <_>
          <internalNodes>
            0 -1 773 1.0902546346187592e-01</internalNodes>
          <leafValues>
            3.9009861648082733e-02 -5.7979249954223633e-01</leafValues></_>
        <_>
          <internalNodes>
            0 -1 527 2.1514680236577988e-02</internalNodes>
          <leafValues>
            1.8498899042606354e-01 -1.5398159623146057e-01</leafValues></_>
        <_>
          <internalNodes>
            0 -1 926 1.3296494260430336e-02</internalNodes>
          <leafValues>
            1.1504562199115753e-01 -1.7251200973987579e-01</leafValues></_>
        <_>
          <internalNodes>
            0 -1 618 1.2316234409809113e-01</internalNodes>
          <leafValues>
            2.3134298622608185e-02 -9.2919087409973145e-01</leafValues></_>
        <_>
          <internalNodes>
            0 -1 96 2.7362808585166931e-02</internalNodes>
          <leafValues>
            -1.3099424540996552e-01 1.4824898540973663e-01</leafValues></_>
        <_>
          <internalNodes>
            0 -1 121 9.3058347702026367e-02</internalNodes>
          <leafValues>
            4.7125402837991714e-02 -4.9405485391616821e-01</leafValues></_>
        <_>
          <internalNodes>
            0 -1 586 1.0876175947487354e-02</internalNodes>
          <leafValues>
            1.6296750307083130e-01 -1.2729603052139282e-01</leafValues></_>
        <_>
          <internalNodes>
            0 -1 42 3.1245676800608635e-02</internalNodes>
          <leafValues>
            1.6438567638397217e-01 -1.2381613999605179e-01</leafValues></_>
        <_>
          <internalNodes>
            0 -1 663 1.0026746988296509e-01</internalNodes>
          <leafValues>
            -4.3569069355726242e-02 4.3098387122154236e-01</leafValues></_>
        <_>
          <internalNodes>
            0 -1 824 7.6839193701744080e-02</internalNodes>
          <leafValues>
            4.4296167790889740e-02 -5.2300065755844116e-01</leafValues></_>
        <_>
          <internalNodes>
            0 -1 317 1.1658228933811188e-01</internalNodes>
          <leafValues>
            2.9107443988323212e-02 -6.9067388772964478e-01</leafValues></_>
        <_>
          <internalNodes>
            0 -1 761 8.0879196524620056e-02</internalNodes>
          <leafValues>
            -7.6571404933929443e-02 2.8621891140937805e-01</leafValues></_>
        <_>
          <internalNodes>
            0 -1 596 1.8084453418850899e-02</internalNodes>
          <leafValues>
            1.2403420358896255e-01 -1.5961000323295593e-01</leafValues></_>
        <_>
          <internalNodes>
            0 -1 919 3.5153189674019814e-03</internalNodes>
          <leafValues>
            -6.2393724918365479e-01 3.1346254050731659e-02</leafValues></_>
        <_>
          <internalNodes>
            0 -1 507 1.6314513050019741e-03</internalNodes>
          <leafValues>
            3.2621359825134277e-01 -7.2586610913276672e-02</leafValues></_>
        <_>
          <internalNodes>
            0 -1 695 3.3406284637749195e-03</internalNodes>
          <leafValues>
            -4.8651260137557983e-01 4.6586025506258011e-02</leafValues></_>
        <_>
          <internalNodes>
            0 -1 243 1.0282657295465469e-01</internalNodes>
          <leafValues>
            -4.4623330235481262e-02 4.5343267917633057e-01</leafValues></_>
        <_>
          <internalNodes>
            0 -1 908 5.9835631400346756e-03</internalNodes>
          <leafValues>
            -5.2282029390335083e-01 3.8854617625474930e-02</leafValues></_>
        <_>
          <internalNodes>
            0 -1 458 8.6563296616077423e-02</internalNodes>
          <leafValues>
            -2.7585271745920181e-02 8.5315132141113281e-01</leafValues></_>
        <_>
          <internalNodes>
            0 -1 557 3.4373492002487183e-02</internalNodes>
          <leafValues>
            -9.9274240434169769e-02 1.8090321123600006e-01</leafValues></_>
        <_>
          <internalNodes>
            0 -1 6 1.4472480863332748e-02</internalNodes>
          <leafValues>
            1.2224950641393661e-01 -1.6157354414463043e-01</leafValues></_>
        <_>
          <internalNodes>
            0 -1 788 2.1961096674203873e-02</internalNodes>
          <leafValues>
            -1.5035328269004822e-01 1.2926425039768219e-01</leafValues></_>
        <_>
          <internalNodes>
            0 -1 125 3.6696936935186386e-02</internalNodes>
          <leafValues>
            -1.9696629047393799e-01 9.4038963317871094e-02</leafValues></_>
        <_>
          <internalNodes>
            0 -1 551 5.3891853895038366e-04</internalNodes>
          <leafValues>
            6.7895907163619995e-01 -2.8023315593600273e-02</leafValues></_>
        <_>
          <internalNodes>
            0 -1 255 2.0132098346948624e-02</internalNodes>
          <leafValues>
            1.1423431336879730e-01 -1.5606348216533661e-01</leafValues></_>
        <_>
          <internalNodes>
            0 -1 953 9.0214479714632034e-03</internalNodes>
          <leafValues>
            -5.1437157392501831e-01 3.6506310105323792e-02</leafValues></_>
        <_>
          <internalNodes>
            0 -1 496 2.3064181208610535e-02</internalNodes>
          <leafValues>
            -2.1443350613117218e-01 8.6730942130088806e-02</leafValues></_>
        <_>
          <internalNodes>
            0 -1 708 9.7965180873870850e-02</internalNodes>
          <leafValues>
            -5.1115706562995911e-02 3.4166201949119568e-01</leafValues></_>
        <_>
          <internalNodes>
            0 -1 321 2.6344589889049530e-02</internalNodes>
          <leafValues>
            -1.4653731882572174e-01 1.4786037802696228e-01</leafValues></_>
        <_>
          <internalNodes>
            0 -1 779 6.5582571551203728e-03</internalNodes>
          <leafValues>
            -3.8593807816505432e-01 5.0152715295553207e-02</leafValues></_>
        <_>
          <internalNodes>
            0 -1 683 6.5575037151575089e-03</internalNodes>
          <leafValues>
            -6.5585887432098389e-01 2.3649260401725769e-02</leafValues></_>
        <_>
          <internalNodes>
            0 -1 493 1.3892941176891327e-02</internalNodes>
          <leafValues>
            1.7385189235210419e-01 -1.0343527793884277e-01</leafValues></_>
        <_>
          <internalNodes>
            0 -1 912 9.5475483685731888e-03</internalNodes>
          <leafValues>
            -4.9350371956825256e-01 3.3779196441173553e-02</leafValues></_>
        <_>
          <internalNodes>
            0 -1 525 4.8376567428931594e-04</internalNodes>
          <leafValues>
            6.1350041627883911e-01 -2.6524549350142479e-02</leafValues></_>
        <_>
          <internalNodes>
            0 -1 518 1.1370635777711868e-01</internalNodes>
          <leafValues>
            2.6074055582284927e-02 -6.7564237117767334e-01</leafValues></_>
        <_>
          <internalNodes>
            0 -1 47 4.9794428050518036e-02</internalNodes>
          <leafValues>
            -4.8458293080329895e-02 3.3889088034629822e-01</leafValues></_>
        <_>
          <internalNodes>
            0 -1 107 2.2148326970636845e-03</internalNodes>
          <leafValues>
            -6.0603213310241699e-01 3.0389050021767616e-02</leafValues></_>
        <_>
          <internalNodes>
            0 -1 667 1.8001254647970200e-02</internalNodes>
          <leafValues>
            9.4859085977077484e-02 -1.7172951996326447e-01</leafValues></_>
        <_>
          <internalNodes>
            0 -1 670 7.0849940180778503e-02</internalNodes>
          <leafValues>
            3.5075992345809937e-02 -4.5152276754379272e-01</leafValues></_>
        <_>
          <internalNodes>
            0 -1 168 4.4094488024711609e-02</internalNodes>
          <leafValues>
            1.9323002547025681e-02 -7.5782781839370728e-01</leafValues></_>
        <_>
          <internalNodes>
            0 -1 569 4.9121681600809097e-02</internalNodes>
          <leafValues>
            -4.6495161950588226e-02 3.7419056892395020e-01</leafValues></_>
        <_>
          <internalNodes>
            0 -1 167 1.3507112860679626e-01</internalNodes>
          <leafValues>
            -2.9287712648510933e-02 5.0812292098999023e-01</leafValues></_>
        <_>
          <internalNodes>
            0 -1 771 1.4700940810143948e-02</internalNodes>
          <leafValues>
            -1.9943311810493469e-01 8.8470488786697388e-02</leafValues></_>
        <_>
          <internalNodes>
            0 -1 278 4.8412423580884933e-02</internalNodes>
          <leafValues>
            -1.2392890453338623e-01 1.3067381083965302e-01</leafValues></_>
        <_>
          <internalNodes>
            0 -1 4 7.5712285935878754e-02</internalNodes>
          <leafValues>
            3.7812322378158569e-02 -4.6054145693778992e-01</leafValues></_>
        <_>
          <internalNodes>
            0 -1 819 2.3035861551761627e-02</internalNodes>
          <leafValues>
            -2.0721663534641266e-01 8.6293600499629974e-02</leafValues></_>
        <_>
          <internalNodes>
            0 -1 150 2.1242814138531685e-02</internalNodes>
          <leafValues>
            -2.4262280762195587e-01 8.0567978322505951e-02</leafValues></_>
        <_>
          <internalNodes>
            0 -1 357 9.3231266364455223e-03</internalNodes>
          <leafValues>
            -4.8292770981788635e-01 2.6820687577128410e-02</leafValues></_>
        <_>
          <internalNodes>
            0 -1 567 1.1572371423244476e-01</internalNodes>
          <leafValues>
            2.8303045779466629e-02 -4.5365154743194580e-01</leafValues></_>
        <_>
          <internalNodes>
            0 -1 959 9.9782599136233330e-03</internalNodes>
          <leafValues>
            7.4469459056854248e-01 -2.0132213830947876e-02</leafValues></_>
        <_>
          <internalNodes>
            0 -1 272 7.1653895080089569e-02</internalNodes>
          <leafValues>
            -6.2852874398231506e-02 2.2292885184288025e-01</leafValues></_>
        <_>
          <internalNodes>
            0 -1 710 1.5852801734581590e-03</internalNodes>
          <leafValues>
            -8.1444138288497925e-01 1.7756311222910881e-02</leafValues></_>
        <_>
          <internalNodes>
            0 -1 376 3.7015408277511597e-02</internalNodes>
          <leafValues>
            2.4993434548377991e-02 -5.0207841396331787e-01</leafValues></_>
        <_>
          <internalNodes>
            0 -1 245 1.0134236887097359e-02</internalNodes>
          <leafValues>
            1.7877532541751862e-01 -8.1282645463943481e-02</leafValues></_>
        <_>
          <internalNodes>
            0 -1 107 8.7904080748558044e-02</internalNodes>
          <leafValues>
            2.8235824778676033e-02 -5.3745996952056885e-01</leafValues></_>
        <_>
          <internalNodes>
            0 -1 798 1.0928808152675629e-01</internalNodes>
          <leafValues>
            1.7030281946063042e-02 -7.5805747509002686e-01</leafValues></_>
        <_>
          <internalNodes>
            0 -1 941 5.0448622554540634e-02</internalNodes>
          <leafValues>
            -8.4931597113609314e-02 1.9490736722946167e-01</leafValues></_>
        <_>
          <internalNodes>
            0 -1 53 2.8599280864000320e-02</internalNodes>
          <leafValues>
            -1.6818368434906006e-01 8.8922306895256042e-02</leafValues></_>
        <_>
          <internalNodes>
            0 -1 84 8.3279550075531006e-02</internalNodes>
          <leafValues>
            6.9033488631248474e-02 -3.4092465043067932e-01</leafValues></_>
        <_>
          <internalNodes>
            0 -1 221 1.8123788759112358e-02</internalNodes>
          <leafValues>
            2.5054758787155151e-01 -6.3066512346267700e-02</leafValues></_>
        <_>
          <internalNodes>
            0 -1 267 3.6973180249333382e-03</internalNodes>
          <leafValues>
            1.8874408304691315e-01 -7.7947191894054413e-02</leafValues></_>
        <_>
          <internalNodes>
            0 -1 899 6.8954667076468468e-03</internalNodes>
          <leafValues>
            -4.3175211548805237e-01 4.2301103472709656e-02</leafValues></_>
        <_>
          <internalNodes>
            0 -1 963 4.2127333581447601e-02</internalNodes>
          <leafValues>
            7.0308297872543335e-02 -2.3443470895290375e-01</leafValues></_>
        <_>
          <internalNodes>
            0 -1 13 1.2958135455846786e-02</internalNodes>
          <leafValues>
            9.8992228507995605e-02 -1.5169158577919006e-01</leafValues></_>
        <_>
          <internalNodes>
            0 -1 787 1.5197349712252617e-02</internalNodes>
          <leafValues>
            -1.7747308313846588e-01 9.4383388757705688e-02</leafValues></_>
        <_>
          <internalNodes>
            0 -1 552 4.0996423194883391e-05</internalNodes>
          <leafValues>
            6.8457323312759399e-01 -2.3380612954497337e-02</leafValues></_>
        <_>
          <internalNodes>
            0 -1 914 5.8730602264404297e-02</internalNodes>
          <leafValues>
            2.0023223012685776e-02 -8.4687119722366333e-01</leafValues></_>
        <_>
          <internalNodes>
            0 -1 833 3.1338199973106384e-02</internalNodes>
          <leafValues>
            -1.1712406575679779e-01 1.2203834205865860e-01</leafValues></_>
        <_>
          <internalNodes>
            0 -1 399 1.4368754345923662e-03</internalNodes>
          <leafValues>
            -6.8826043605804443e-01 2.2593744099140167e-02</leafValues></_>
        <_>
          <internalNodes>
            0 -1 124 5.2470779046416283e-03</internalNodes>
          <leafValues>
            2.7426114678382874e-01 -5.5535972118377686e-02</leafValues></_>
        <_>
          <internalNodes>
            0 -1 610 2.9901670292019844e-02</internalNodes>
          <leafValues>
            -8.3717547357082367e-02 1.8082895874977112e-01</leafValues></_>
        <_>
          <internalNodes>
            0 -1 539 5.0901740789413452e-02</internalNodes>
          <leafValues>
            -3.2603558152914047e-02 4.1243109107017517e-01</leafValues></_>
        <_>
          <internalNodes>
            0 -1 627 2.7393203228712082e-02</internalNodes>
          <leafValues>
            -9.9601514637470245e-02 1.4235438406467438e-01</leafValues></_>
        <_>
          <internalNodes>
            0 -1 720 2.6812147349119186e-02</internalNodes>
          <leafValues>
            5.2922055125236511e-02 -2.7491408586502075e-01</leafValues></_>
        <_>
          <internalNodes>
            0 -1 117 4.1454732418060303e-02</internalNodes>
          <leafValues>
            7.8705780208110809e-02 -2.0492927730083466e-01</leafValues></_>
        <_>
          <internalNodes>
            0 -1 362 3.1954113394021988e-02</internalNodes>
          <leafValues>
            -7.5811214745044708e-02 1.9457964599132538e-01</leafValues></_>
        <_>
          <internalNodes>
            0 -1 638 4.5576378703117371e-02</internalNodes>
          <leafValues>
            -1.3860678672790527e-01 1.2475227564573288e-01</leafValues></_>
        <_>
          <internalNodes>
            0 -1 733 4.3985873460769653e-02</internalNodes>
          <leafValues>
            -1.4864227175712585e-01 1.0039952397346497e-01</leafValues></_>
        <_>
          <internalNodes>
            0 -1 715 7.7309333719313145e-03</internalNodes>
          <leafValues>
            -3.4378844499588013e-01 4.7419216483831406e-02</leafValues></_>
        <_>
          <internalNodes>
            0 -1 468 2.0023435354232788e-02</internalNodes>
          <leafValues>
            1.2140876799821854e-01 -1.2909376621246338e-01</leafValues></_>
        <_>
          <internalNodes>
            0 -1 299 6.3816532492637634e-02</internalNodes>
          <leafValues>
            -2.2199340164661407e-02 7.4197161197662354e-01</leafValues></_></weakClassifiers></_>
    <!-- stage 4 -->
    <_>
      <maxWeakCount>100</maxWeakCount>
      <stageThreshold>-1.5169889926910400e+00</stageThreshold>
      <weakClassifiers>
        <_>
          <internalNodes>
            0 -1 662 6.6554389894008636e-02</internalNodes>
          <leafValues>
            -6.8124538660049438e-01 -2.7803379297256470e-01</leafValues></_>
        <_>
          <internalNodes>
            0 -1 729 9.6109546720981598e-03</internalNodes>
          <leafValues>
            1.3149245083332062e-01 -2.7987632155418396e-01</leafValues></_>
        <_>
          <internalNodes>
            0 -1 400 2.6598807424306870e-02</internalNodes>
          <leafValues>
            -1.3798297941684723e-01 2.1057868003845215e-01</leafValues></_>
        <_>
          <internalNodes>
            0 -1 774 8.8396728038787842e-02</internalNodes>
          <leafValues>
            -7.6609469950199127e-02 3.0275163054466248e-01</leafValues></_>
        <_>
          <internalNodes>
            0 -1 652 1.8788520246744156e-02</internalNodes>
          <leafValues>
            -2.2813172638416290e-01 1.1171239614486694e-01</leafValues></_>
        <_>
          <internalNodes>
            0 -1 838 5.9473617002367973e-03</internalNodes>
          <leafValues>
            -5.2915591001510620e-01 5.9499748051166534e-02</leafValues></_>
        <_>
          <internalNodes>
            0 -1 146 1.3726918026804924e-02</internalNodes>
          <leafValues>
            1.3269187510013580e-01 -1.6526648402214050e-01</leafValues></_>
        <_>
          <internalNodes>
            0 -1 785 1.1728039942681789e-02</internalNodes>
          <leafValues>
            -4.1712307929992676e-01 3.9450727403163910e-02</leafValues></_>
        <_>
          <internalNodes>
            0 -1 349 2.8792629018425941e-02</internalNodes>
          <leafValues>
            -2.2180695831775665e-01 9.4276621937751770e-02</leafValues></_>
        <_>
          <internalNodes>
            0 -1 945 1.9015597179532051e-02</internalNodes>
          <leafValues>
            -2.0164312422275543e-01 9.7412608563899994e-02</leafValues></_>
        <_>
          <internalNodes>
            0 -1 540 3.9744740352034569e-03</internalNodes>
          <leafValues>
            -4.6917787194252014e-01 3.3918041735887527e-02</leafValues></_>
        <_>
          <internalNodes>
            0 -1 521 7.0442289113998413e-02</internalNodes>
          <leafValues>
            -9.8356768488883972e-02 2.1537645161151886e-01</leafValues></_>
        <_>
          <internalNodes>
            0 -1 53 6.7888349294662476e-03</internalNodes>
          <leafValues>
            -6.2704718112945557e-01 3.2453753054141998e-02</leafValues></_>
        <_>
          <internalNodes>
            0 -1 672 1.5427161008119583e-02</internalNodes>
          <leafValues>
            -1.7305539548397064e-01 1.0269024223089218e-01</leafValues></_>
        <_>
          <internalNodes>
            0 -1 516 1.5590627677738667e-02</internalNodes>
          <leafValues>
            9.5311038196086884e-02 -1.8186348676681519e-01</leafValues></_>
        <_>
          <internalNodes>
            0 -1 185 5.0074961036443710e-03</internalNodes>
          <leafValues>
            -2.5795623660087585e-01 6.5310947597026825e-02</leafValues></_>
        <_>
          <internalNodes>
            0 -1 317 3.7738967686891556e-02</internalNodes>
          <leafValues>
            -1.4550971984863281e-01 1.1419952660799026e-01</leafValues></_>
        <_>
          <internalNodes>
            0 -1 755 7.7093824744224548e-02</internalNodes>
          <leafValues>
            4.6294678002595901e-02 -4.3281614780426025e-01</leafValues></_>
        <_>
          <internalNodes>
            0 -1 97 3.1335711479187012e-02</internalNodes>
          <leafValues>
            -1.4011210203170776e-01 1.1607246100902557e-01</leafValues></_>
        <_>
          <internalNodes>
            0 -1 528 5.7284027338027954e-02</internalNodes>
          <leafValues>
            5.8715905994176865e-02 -2.8469792008399963e-01</leafValues></_>
        <_>
          <internalNodes>
            0 -1 919 9.2166081070899963e-02</internalNodes>
          <leafValues>
            1.6555717214941978e-02 -8.8009184598922729e-01</leafValues></_>
        <_>
          <internalNodes>
            0 -1 459 1.5804030001163483e-02</internalNodes>
          <leafValues>
            1.8200834095478058e-01 -8.7063640356063843e-02</leafValues></_>
        <_>
          <internalNodes>
            0 -1 884 1.5338599681854248e-02</internalNodes>
          <leafValues>
            -3.5604777932167053e-01 4.8639416694641113e-02</leafValues></_>
        <_>
          <internalNodes>
            0 -1 346 4.7695539891719818e-02</internalNodes>
          <leafValues>
            -3.1556308269500732e-02 5.0111287832260132e-01</leafValues></_>
        <_>
          <internalNodes>
            0 -1 929 1.0408882051706314e-02</internalNodes>
          <leafValues>
            -4.5584365725517273e-01 3.3227730542421341e-02</leafValues></_>
        <_>
          <internalNodes>
            0 -1 188 8.2220844924449921e-03</internalNodes>
          <leafValues>
            2.3736588656902313e-01 -6.6778816282749176e-02</leafValues></_>
        <_>
          <internalNodes>
            0 -1 652 4.3855264782905579e-02</internalNodes>
          <leafValues>
            -5.4770242422819138e-02 2.8530889749526978e-01</leafValues></_>
        <_>
          <internalNodes>
            0 -1 504 7.3568150401115417e-02</internalNodes>
          <leafValues>
            -8.8429875671863556e-02 1.7194208502769470e-01</leafValues></_>
        <_>
          <internalNodes>
            0 -1 196 5.4406421259045601e-03</internalNodes>
          <leafValues>
            2.5967147946357727e-01 -5.5292211472988129e-02</leafValues></_>
        <_>
          <internalNodes>
            0 -1 360 2.3615416139364243e-02</internalNodes>
          <leafValues>
            -5.8036725968122482e-02 2.5462573766708374e-01</leafValues></_>
        <_>
          <internalNodes>
            0 -1 903 1.1331229470670223e-02</internalNodes>
          <leafValues>
            -2.6491791009902954e-01 5.9749022126197815e-02</leafValues></_>
        <_>
          <internalNodes>
            0 -1 841 4.2417719960212708e-02</internalNodes>
          <leafValues>
            -9.2818826436996460e-02 1.4401438832283020e-01</leafValues></_>
        <_>
          <internalNodes>
            0 -1 761 6.8765804171562195e-02</internalNodes>
          <leafValues>
            -8.3650670945644379e-02 1.8139488995075226e-01</leafValues></_>
        <_>
          <internalNodes>
            0 -1 302 8.5187658667564392e-02</internalNodes>
          <leafValues>
            5.5844023823738098e-02 -3.0905905365943909e-01</leafValues></_>
        <_>
          <internalNodes>
            0 -1 771 4.1114032268524170e-02</internalNodes>
          <leafValues>
            -5.4693471640348434e-02 2.3850882053375244e-01</leafValues></_>
        <_>
          <internalNodes>
            0 -1 332 5.3851164877414703e-02</internalNodes>
          <leafValues>
            2.4669619277119637e-02 -5.2239423990249634e-01</leafValues></_>
        <_>
          <internalNodes>
            0 -1 714 1.8847133964300156e-02</internalNodes>
          <leafValues>
            1.0404796153306961e-01 -1.2641718983650208e-01</leafValues></_>
        <_>
          <internalNodes>
            0 -1 10 2.6028834283351898e-02</internalNodes>
          <leafValues>
            -9.4362780451774597e-02 1.3598722219467163e-01</leafValues></_>
        <_>
          <internalNodes>
            0 -1 321 5.1587555557489395e-02</internalNodes>
          <leafValues>
            -6.5700083971023560e-02 2.2320447862148285e-01</leafValues></_>
        <_>
          <internalNodes>
            0 -1 467 6.7025646567344666e-02</internalNodes>
          <leafValues>
            4.4136088341474533e-02 -3.9401844143867493e-01</leafValues></_>
        <_>
          <internalNodes>
            0 -1 141 5.7886682450771332e-02</internalNodes>
          <leafValues>
            2.0662302151322365e-02 -5.5870008468627930e-01</leafValues></_>
        <_>
          <internalNodes>
            0 -1 834 6.8099088966846466e-03</internalNodes>
          <leafValues>
            -4.7211301326751709e-01 2.4530779570341110e-02</leafValues></_>
        <_>
          <internalNodes>
            0 -1 585 5.3333237767219543e-02</internalNodes>
          <leafValues>
            1.4536325819790363e-02 -7.4461013078689575e-01</leafValues></_>
        <_>
          <internalNodes>
            0 -1 112 1.0176032781600952e-01</internalNodes>
          <leafValues>
            -4.9913369119167328e-02 2.7884313464164734e-01</leafValues></_>
        <_>
          <internalNodes>
            0 -1 333 9.9279455840587616e-02</internalNodes>
          <leafValues>
            3.5605657845735550e-02 -3.5616037249565125e-01</leafValues></_>
        <_>
          <internalNodes>
            0 -1 389 3.5037465393543243e-02</internalNodes>
          <leafValues>
            3.1639061868190765e-02 -3.6274775862693787e-01</leafValues></_>
        <_>
          <internalNodes>
            0 -1 621 3.2732509076595306e-02</internalNodes>
          <leafValues>
            -6.8558730185031891e-02 1.7951764166355133e-01</leafValues></_>
        <_>
          <internalNodes>
            0 -1 926 9.2529505491256714e-03</internalNodes>
          <leafValues>
            1.3869367539882660e-01 -1.1036618798971176e-01</leafValues></_>
        <_>
          <internalNodes>
            0 -1 644 1.7842389643192291e-02</internalNodes>
          <leafValues>
            -1.2224900722503662e-01 1.2468354403972626e-01</leafValues></_>
        <_>
          <internalNodes>
            0 -1 117 1.0359367728233337e-01</internalNodes>
          <leafValues>
            1.7137471586465836e-02 -6.4970690011978149e-01</leafValues></_>
        <_>
          <internalNodes>
            0 -1 197 1.1880799196660519e-02</internalNodes>
          <leafValues>
            1.1845733225345612e-01 -1.0029710829257965e-01</leafValues></_>
        <_>
          <internalNodes>
            0 -1 359 3.6654759198427200e-02</internalNodes>
          <leafValues>
            -3.8757883012294769e-02 3.1122094392776489e-01</leafValues></_>
        <_>
          <internalNodes>
            0 -1 411 3.6838301457464695e-03</internalNodes>
          <leafValues>
            -6.8066489696502686e-01 1.8704675137996674e-02</leafValues></_>
        <_>
          <internalNodes>
            0 -1 444 7.4762441217899323e-03</internalNodes>
          <leafValues>
            4.3377560377120972e-01 -3.3990930765867233e-02</leafValues></_>
        <_>
          <internalNodes>
            0 -1 826 4.9880802631378174e-02</internalNodes>
          <leafValues>
            1.0797866620123386e-02 -1.</leafValues></_>
        <_>
          <internalNodes>
            0 -1 457 1.1989716440439224e-02</internalNodes>
          <leafValues>
            1.0812263935804367e-01 -1.0394963622093201e-01</leafValues></_>
        <_>
          <internalNodes>
            0 -1 497 1.1196766048669815e-02</internalNodes>
          <leafValues>
            -3.5580581426620483e-01 3.5394314676523209e-02</leafValues></_>
        <_>
          <internalNodes>
            0 -1 818 3.0007852241396904e-02</internalNodes>
          <leafValues>
            -7.4597902595996857e-02 1.4736893773078918e-01</leafValues></_>
        <_>
          <internalNodes>
            0 -1 447 2.4023227393627167e-02</internalNodes>
          <leafValues>
            1.0226568579673767e-01 -1.1233372986316681e-01</leafValues></_>
        <_>
          <internalNodes>
            0 -1 361 2.4235675111413002e-02</internalNodes>
          <leafValues>
            -5.7520277798175812e-02 1.9964702427387238e-01</leafValues></_>
        <_>
          <internalNodes>
            0 -1 267 1.5357756055891514e-03</internalNodes>
          <leafValues>
            2.1626335382461548e-01 -6.4117975533008575e-02</leafValues></_>
        <_>
          <internalNodes>
            0 -1 898 8.4955478087067604e-04</internalNodes>
          <leafValues>
            -8.1565779447555542e-01 1.5031918883323669e-02</leafValues></_>
        <_>
          <internalNodes>
            0 -1 683 5.1935780793428421e-02</internalNodes>
          <leafValues>
            -4.1721086949110031e-02 3.2197096943855286e-01</leafValues></_>
        <_>
          <internalNodes>
            0 -1 725 5.9659551829099655e-02</internalNodes>
          <leafValues>
            1.2887574732303619e-02 -8.7288182973861694e-01</leafValues></_>
        <_>
          <internalNodes>
            0 -1 580 1.1731949634850025e-02</internalNodes>
          <leafValues>
            -3.1963557004928589e-01 3.0832847580313683e-02</leafValues></_>
        <_>
          <internalNodes>
            0 -1 657 5.6734502315521240e-02</internalNodes>
          <leafValues>
            1.7438806593418121e-02 -6.0366195440292358e-01</leafValues></_>
        <_>
          <internalNodes>
            0 -1 38 3.9610777050256729e-02</internalNodes>
          <leafValues>
            -1.0733028501272202e-01 1.1604811996221542e-01</leafValues></_>
        <_>
          <internalNodes>
            0 -1 919 2.5136977434158325e-02</internalNodes>
          <leafValues>
            1.0372252762317657e-01 -1.1864221096038818e-01</leafValues></_>
        <_>
          <internalNodes>
            0 -1 919 5.1112193614244461e-03</internalNodes>
          <leafValues>
            -4.0346738696098328e-01 3.2794959843158722e-02</leafValues></_>
        <_>
          <internalNodes>
            0 -1 395 5.8249616995453835e-03</internalNodes>
          <leafValues>
            1.8273486196994781e-01 -6.7985221743583679e-02</leafValues></_>
        <_>
          <internalNodes>
            0 -1 518 6.9307334721088409e-02</internalNodes>
          <leafValues>
            3.2960094511508942e-02 -3.4528777003288269e-01</leafValues></_>
        <_>
          <internalNodes>
            0 -1 487 8.0682396888732910e-02</internalNodes>
          <leafValues>
            -3.7924863398075104e-02 3.7635937333106995e-01</leafValues></_>
        <_>
          <internalNodes>
            0 -1 770 1.7378658056259155e-02</internalNodes>
          <leafValues>
            -1.5693332254886627e-01 8.2723930478096008e-02</leafValues></_>
        <_>
          <internalNodes>
            0 -1 475 1.0082757472991943e-01</internalNodes>
          <leafValues>
            -5.4541490972042084e-02 2.2878989577293396e-01</leafValues></_>
        <_>
          <internalNodes>
            0 -1 593 5.0072364509105682e-02</internalNodes>
          <leafValues>
            -4.1392847895622253e-02 3.2723104953765869e-01</leafValues></_>
        <_>
          <internalNodes>
            0 -1 955 7.2998432442545891e-03</internalNodes>
          <leafValues>
            -3.9458510279655457e-01 3.4562591463327408e-02</leafValues></_>
        <_>
          <internalNodes>
            0 -1 152 1.3121616095304489e-02</internalNodes>
          <leafValues>
            -1.6261906921863556e-01 7.2459220886230469e-02</leafValues></_>
        <_>
          <internalNodes>
            0 -1 693 1.9305560737848282e-02</internalNodes>
          <leafValues>
            1.0115233063697815e-01 -1.2872689962387085e-01</leafValues></_>
        <_>
          <internalNodes>
            0 -1 143 5.9949290007352829e-03</internalNodes>
          <leafValues>
            -6.9327509403228760e-01 1.6311079263687134e-02</leafValues></_>
        <_>
          <internalNodes>
            0 -1 731 1.9953125156462193e-03</internalNodes>
          <leafValues>
            -5.3942960500717163e-01 2.0488081499934196e-02</leafValues></_>
        <_>
          <internalNodes>
            0 -1 6 4.6393964439630508e-03</internalNodes>
          <leafValues>
            2.0338150858879089e-01 -6.2869563698768616e-02</leafValues></_>
        <_>
          <internalNodes>
            0 -1 408 5.2657265216112137e-02</internalNodes>
          <leafValues>
            2.4894153699278831e-02 -4.8776057362556458e-01</leafValues></_>
        <_>
          <internalNodes>
            0 -1 802 2.2296956740319729e-03</internalNodes>
          <leafValues>
            -7.8777533769607544e-01 1.1490824632346630e-02</leafValues></_>
        <_>
          <internalNodes>
            0 -1 139 9.3136252835392952e-03</internalNodes>
          <leafValues>
            1.2589082121849060e-01 -9.3027763068675995e-02</leafValues></_>
        <_>
          <internalNodes>
            0 -1 139 5.6709609925746918e-02</internalNodes>
          <leafValues>
            -1.9896514713764191e-02 6.0812211036682129e-01</leafValues></_>
        <_>
          <internalNodes>
            0 -1 120 4.7688230872154236e-02</internalNodes>
          <leafValues>
            -4.5310582965612411e-02 2.4369977414608002e-01</leafValues></_>
        <_>
          <internalNodes>
            0 -1 269 5.7207472622394562e-02</internalNodes>
          <leafValues>
            1.9680514931678772e-02 -5.8107417821884155e-01</leafValues></_>
        <_>
          <internalNodes>
            0 -1 431 3.8805368822067976e-03</internalNodes>
          <leafValues>
            -3.6386749148368835e-01 3.0466709285974503e-02</leafValues></_>
        <_>
          <internalNodes>
            0 -1 526 2.4897793773561716e-03</internalNodes>
          <leafValues>
            2.8381726145744324e-01 -4.0522385388612747e-02</leafValues></_>
        <_>
          <internalNodes>
            0 -1 31 5.7934455573558807e-02</internalNodes>
          <leafValues>
            -4.1458792984485626e-02 2.8629156947135925e-01</leafValues></_>
        <_>
          <internalNodes>
            0 -1 674 8.8493749499320984e-02</internalNodes>
          <leafValues>
            2.7133746072649956e-02 -3.9946463704109192e-01</leafValues></_>
        <_>
          <internalNodes>
            0 -1 116 1.4540193602442741e-02</internalNodes>
          <leafValues>
            1.1056668311357498e-01 -1.0795398056507111e-01</leafValues></_>
        <_>
          <internalNodes>
            0 -1 624 1.2831673957407475e-03</internalNodes>
          <leafValues>
            5.9977895021438599e-01 -2.0971288904547691e-02</leafValues></_>
        <_>
          <internalNodes>
            0 -1 247 3.0278448015451431e-02</internalNodes>
          <leafValues>
            4.6429045498371124e-02 -2.4531421065330505e-01</leafValues></_>
        <_>
          <internalNodes>
            0 -1 848 2.0277280360460281e-02</internalNodes>
          <leafValues>
            -1.2673467397689819e-01 9.9530071020126343e-02</leafValues></_>
        <_>
          <internalNodes>
            0 -1 575 2.1529868245124817e-02</internalNodes>
          <leafValues>
            -1.0194112360477448e-01 1.4064508676528931e-01</leafValues></_>
        <_>
          <internalNodes>
            0 -1 962 3.3468842506408691e-02</internalNodes>
          <leafValues>
            3.1647726893424988e-02 -3.5693955421447754e-01</leafValues></_>
        <_>
          <internalNodes>
            0 -1 898 2.9209252446889877e-02</internalNodes>
          <leafValues>
            -6.0115423053503036e-02 2.2402581572532654e-01</leafValues></_>
        <_>
          <internalNodes>
            0 -1 961 2.0152475684881210e-02</internalNodes>
          <leafValues>
            5.7884924113750458e-02 -2.3317202925682068e-01</leafValues></_>
        <_>
          <internalNodes>
            0 -1 88 7.8404977917671204e-02</internalNodes>
          <leafValues>
            -1.7553897574543953e-02 7.7412343025207520e-01</leafValues></_></weakClassifiers></_>
    <!-- stage 5 -->
    <_>
      <maxWeakCount>100</maxWeakCount>
      <stageThreshold>-1.5065631866455078e+00</stageThreshold>
      <weakClassifiers>
        <_>
          <internalNodes>
            0 -1 708 7.9737432301044464e-02</internalNodes>
          <leafValues>
            -6.5234500169754028e-01 -2.2187171876430511e-01</leafValues></_>
        <_>
          <internalNodes>
            0 -1 774 5.7183720171451569e-02</internalNodes>
          <leafValues>
            -2.7612864971160889e-01 1.2831382453441620e-01</leafValues></_>
        <_>
          <internalNodes>
            0 -1 712 7.6256990432739258e-02</internalNodes>
          <leafValues>
            -1.1981207132339478e-01 2.9382255673408508e-01</leafValues></_>
        <_>
          <internalNodes>
            0 -1 132 3.5978615283966064e-02</internalNodes>
          <leafValues>
            -9.6302166581153870e-02 2.2104121744632721e-01</leafValues></_>
        <_>
          <internalNodes>
            0 -1 265 3.5307251382619143e-03</internalNodes>
          <leafValues>
            2.8954318165779114e-01 -6.2014225870370865e-02</leafValues></_>
        <_>
          <internalNodes>
            0 -1 772 1.6059380024671555e-02</internalNodes>
          <leafValues>
            -3.0394440889358521e-01 6.0027167201042175e-02</leafValues></_>
        <_>
          <internalNodes>
            0 -1 795 1.4796464703977108e-02</internalNodes>
          <leafValues>
            1.4664760231971741e-01 -1.1552213877439499e-01</leafValues></_>
        <_>
          <internalNodes>
            0 -1 259 6.9499984383583069e-02</internalNodes>
          <leafValues>
            3.8364794105291367e-02 -3.8985055685043335e-01</leafValues></_>
        <_>
          <internalNodes>
            0 -1 673 1.3432089239358902e-02</internalNodes>
          <leafValues>
            -2.7375930547714233e-01 7.0369131863117218e-02</leafValues></_>
        <_>
          <internalNodes>
            0 -1 528 1.0333921015262604e-01</internalNodes>
          <leafValues>
            3.5545334219932556e-02 -6.3107186555862427e-01</leafValues></_>
        <_>
          <internalNodes>
            0 -1 787 4.5237801969051361e-03</internalNodes>
          <leafValues>
            -5.7065659761428833e-01 2.9830353334546089e-02</leafValues></_>
        <_>
          <internalNodes>
            0 -1 662 2.8467252850532532e-02</internalNodes>
          <leafValues>
            -2.2190232574939728e-01 5.8472253382205963e-02</leafValues></_>
        <_>
          <internalNodes>
            0 -1 42 1.3569964095950127e-02</internalNodes>
          <leafValues>
            2.9068794846534729e-01 -5.2847683429718018e-02</leafValues></_>
        <_>
          <internalNodes>
            0 -1 151 4.9122247844934464e-02</internalNodes>
          <leafValues>
            -8.3878934383392334e-02 1.5500058233737946e-01</leafValues></_>
        <_>
          <internalNodes>
            0 -1 56 3.6142794415354729e-03</internalNodes>
          <leafValues>
            -3.3133554458618164e-01 4.5910742133855820e-02</leafValues></_>
        <_>
          <internalNodes>
            0 -1 476 4.2838335037231445e-02</internalNodes>
          <leafValues>
            -1.7144440114498138e-01 8.0987520515918732e-02</leafValues></_>
        <_>
          <internalNodes>
            0 -1 633 2.6784487068653107e-02</internalNodes>
          <leafValues>
            -1.1827016621828079e-01 1.2332411855459213e-01</leafValues></_>
        <_>
          <internalNodes>
            0 -1 4 2.2142503410577774e-02</internalNodes>
          <leafValues>
            1.4115417003631592e-01 -9.0819157660007477e-02</leafValues></_>
        <_>
          <internalNodes>
            0 -1 654 1.3057208620011806e-02</internalNodes>
          <leafValues>
            -3.4850683808326721e-01 3.8716103881597519e-02</leafValues></_>
        <_>
          <internalNodes>
            0 -1 46 5.3604453802108765e-02</internalNodes>
          <leafValues>
            -4.7610580921173096e-02 3.1444352865219116e-01</leafValues></_>
        <_>
          <internalNodes>
            0 -1 143 1.5850575640797615e-02</internalNodes>
          <leafValues>
            -3.5337594151496887e-01 4.1156295686960220e-02</leafValues></_>
        <_>
          <internalNodes>
            0 -1 743 8.9836213737726212e-03</internalNodes>
          <leafValues>
            -3.6756691336631775e-01 3.5070061683654785e-02</leafValues></_>
        <_>
          <internalNodes>
            0 -1 769 7.8922305256128311e-03</internalNodes>
          <leafValues>
            -5.1196199655532837e-01 2.1981142461299896e-02</leafValues></_>
        <_>
          <internalNodes>
            0 -1 611 9.8192706704139709e-02</internalNodes>
          <leafValues>
            -6.1619851738214493e-02 2.3625163733959198e-01</leafValues></_>
        <_>
          <internalNodes>
            0 -1 562 1.2693306198343635e-03</internalNodes>
          <leafValues>
            -5.2274930477142334e-01 2.9298037290573120e-02</leafValues></_>
        <_>
          <internalNodes>
            0 -1 121 3.2584052532911301e-03</internalNodes>
          <leafValues>
            -4.9483618140220642e-01 2.3592900484800339e-02</leafValues></_>
        <_>
          <internalNodes>
            0 -1 242 2.2582398727536201e-02</internalNodes>
          <leafValues>
            -1.9244655966758728e-01 7.2381310164928436e-02</leafValues></_>
        <_>
          <internalNodes>
            0 -1 238 2.0153867080807686e-02</internalNodes>
          <leafValues>
            -7.2053633630275726e-02 1.7134331166744232e-01</leafValues></_>
        <_>
          <internalNodes>
            0 -1 268 1.2736129574477673e-03</internalNodes>
          <leafValues>
            2.4957318603992462e-01 -6.5503895282745361e-02</leafValues></_>
        <_>
          <internalNodes>
            0 -1 616 1.7304692417383194e-02</internalNodes>
          <leafValues>
            -1.4533171057701111e-01 1.0032905638217926e-01</leafValues></_>
        <_>
          <internalNodes>
            0 -1 147 9.8365568555891514e-04</internalNodes>
          <leafValues>
            3.6190035939216614e-01 -3.7989526987075806e-02</leafValues></_>
        <_>
          <internalNodes>
            0 -1 434 6.4335100352764130e-02</internalNodes>
          <leafValues>
            -2.7361296117305756e-02 4.5720925927162170e-01</leafValues></_>
        <_>
          <internalNodes>
            0 -1 757 1.9706815481185913e-02</internalNodes>
          <leafValues>
            9.6664018929004669e-02 -1.5070277452468872e-01</leafValues></_>
        <_>
          <internalNodes>
            0 -1 956 6.0049248859286308e-03</internalNodes>
          <leafValues>
            -4.1799995303153992e-01 3.0385443940758705e-02</leafValues></_>
        <_>
          <internalNodes>
            0 -1 562 4.2650271207094193e-02</internalNodes>
          <leafValues>
            -6.6958233714103699e-02 1.8072265386581421e-01</leafValues></_>
        <_>
          <internalNodes>
            0 -1 930 1.6619928181171417e-02</internalNodes>
          <leafValues>
            -1.7625114321708679e-01 7.5963564217090607e-02</leafValues></_>
        <_>
          <internalNodes>
            0 -1 393 1.7445819452404976e-02</internalNodes>
          <leafValues>
            7.1426525712013245e-02 -1.8028701841831207e-01</leafValues></_>
        <_>
          <internalNodes>
            0 -1 820 2.9873750172555447e-03</internalNodes>
          <leafValues>
            -8.3637845516204834e-01 1.2575222179293633e-02</leafValues></_>
        <_>
          <internalNodes>
            0 -1 316 1.9263170659542084e-02</internalNodes>
          <leafValues>
            -2.0282556116580963e-01 5.2021883428096771e-02</leafValues></_>
        <_>
          <internalNodes>
            0 -1 801 2.4131063371896744e-02</internalNodes>
          <leafValues>
            -8.8238485157489777e-02 1.4102835953235626e-01</leafValues></_>
        <_>
          <internalNodes>
            0 -1 825 4.2530901730060577e-02</internalNodes>
          <leafValues>
            1.8446547910571098e-02 -5.6864088773727417e-01</leafValues></_>
        <_>
          <internalNodes>
            0 -1 518 8.4601022535935044e-05</internalNodes>
          <leafValues>
            -6.2121069431304932e-01 1.6080092638731003e-02</leafValues></_>
        <_>
          <internalNodes>
            0 -1 913 1.0437451303005219e-02</internalNodes>
          <leafValues>
            1.3061383366584778e-01 -8.6437955498695374e-02</leafValues></_>
        <_>
          <internalNodes>
            0 -1 952 1.0559760034084320e-02</internalNodes>
          <leafValues>
            -2.1525540947914124e-01 6.0195486992597580e-02</leafValues></_>
        <_>
          <internalNodes>
            0 -1 724 1.9377771764993668e-02</internalNodes>
          <leafValues>
            6.5214268863201141e-02 -1.7749489843845367e-01</leafValues></_>
        <_>
          <internalNodes>
            0 -1 644 4.5969940721988678e-02</internalNodes>
          <leafValues>
            -4.0669538080692291e-02 2.9407310485839844e-01</leafValues></_>
        <_>
          <internalNodes>
            0 -1 714 3.5437442362308502e-02</internalNodes>
          <leafValues>
            4.2584285140037537e-02 -2.5782421231269836e-01</leafValues></_>
        <_>
          <internalNodes>
            0 -1 425 5.9044875204563141e-02</internalNodes>
          <leafValues>
            -5.0135493278503418e-02 3.2613161206245422e-01</leafValues></_>
        <_>
          <internalNodes>
            0 -1 802 2.7558164671063423e-02</internalNodes>
          <leafValues>
            7.6081551611423492e-02 -1.5412159264087677e-01</leafValues></_>
        <_>
          <internalNodes>
            0 -1 755 9.4774492084980011e-02</internalNodes>
          <leafValues>
            2.3685635998845100e-02 -4.8330432176589966e-01</leafValues></_>
        <_>
          <internalNodes>
            0 -1 294 4.5921027660369873e-02</internalNodes>
          <leafValues>
            2.4616630747914314e-02 -4.1529148817062378e-01</leafValues></_>
        <_>
          <internalNodes>
            0 -1 220 9.0720932930707932e-03</internalNodes>
          <leafValues>
            2.8406676650047302e-01 -4.3740160763263702e-02</leafValues></_>
        <_>
          <internalNodes>
            0 -1 806 3.5067358985543251e-03</internalNodes>
          <leafValues>
            -8.2454800605773926e-01 1.5261755324900150e-02</leafValues></_>
        <_>
          <internalNodes>
            0 -1 773 1.0179188847541809e-01</internalNodes>
          <leafValues>
            2.3989649489521980e-02 -4.2199763655662537e-01</leafValues></_>
        <_>
          <internalNodes>
            0 -1 833 9.1597750782966614e-02</internalNodes>
          <leafValues>
            -2.9444117099046707e-02 4.0305322408676147e-01</leafValues></_>
        <_>
          <internalNodes>
            0 -1 758 1.0721139609813690e-01</internalNodes>
          <leafValues>
            1.7318662256002426e-02 -7.4867838621139526e-01</leafValues></_>
        <_>
          <internalNodes>
            0 -1 959 1.1604174971580505e-02</internalNodes>
          <leafValues>
            5.4094040393829346e-01 -2.5549221783876419e-02</leafValues></_>
        <_>
          <internalNodes>
            0 -1 511 2.3651793599128723e-02</internalNodes>
          <leafValues>
            6.8938881158828735e-02 -1.8233665823936462e-01</leafValues></_>
        <_>
          <internalNodes>
            0 -1 399 2.1629121154546738e-02</internalNodes>
          <leafValues>
            -1.0677327215671539e-01 1.0066471993923187e-01</leafValues></_>
        <_>
          <internalNodes>
            0 -1 800 5.3663857281208038e-02</internalNodes>
          <leafValues>
            2.1193787455558777e-02 -4.8873454332351685e-01</leafValues></_>
        <_>
          <internalNodes>
            0 -1 547 4.3772733770310879e-03</internalNodes>
          <leafValues>
            2.8706315159797668e-01 -3.9973001927137375e-02</leafValues></_>
        <_>
          <internalNodes>
            0 -1 323 1.0890001431107521e-02</internalNodes>
          <leafValues>
            -3.0713894963264465e-01 3.7963349372148514e-02</leafValues></_>
        <_>
          <internalNodes>
            0 -1 688 1.1034408584237099e-02</internalNodes>
          <leafValues>
            -3.1386101245880127e-01 3.4224241971969604e-02</leafValues></_>
        <_>
          <internalNodes>
            0 -1 239 3.6795675754547119e-02</internalNodes>
          <leafValues>
            4.7381866723299026e-02 -2.4236735701560974e-01</leafValues></_>
        <_>
          <internalNodes>
            0 -1 435 7.6679080724716187e-02</internalNodes>
          <leafValues>
            -5.0376422703266144e-02 2.4220238626003265e-01</leafValues></_>
        <_>
          <internalNodes>
            0 -1 963 4.6846140176057816e-02</internalNodes>
          <leafValues>
            5.3940564393997192e-02 -2.6437237858772278e-01</leafValues></_>
        <_>
          <internalNodes>
            0 -1 622 1.3063770532608032e-01</internalNodes>
          <leafValues>
            -2.5501610711216927e-02 5.0887209177017212e-01</leafValues></_>
        <_>
          <internalNodes>
            0 -1 539 3.1932126730680466e-02</internalNodes>
          <leafValues>
            -6.1302490532398224e-02 2.0126792788505554e-01</leafValues></_>
        <_>
          <internalNodes>
            0 -1 171 2.1007243543863297e-02</internalNodes>
          <leafValues>
            -2.1948410570621490e-01 4.9594592303037643e-02</leafValues></_>
        <_>
          <internalNodes>
            0 -1 885 4.8651404678821564e-02</internalNodes>
          <leafValues>
            -2.6439245790243149e-02 5.0397706031799316e-01</leafValues></_>
        <_>
          <internalNodes>
            0 -1 643 7.7015578746795654e-02</internalNodes>
          <leafValues>
            -1.9015386700630188e-02 6.0548394918441772e-01</leafValues></_>
        <_>
          <internalNodes>
            0 -1 92 1.0037424415349960e-01</internalNodes>
          <leafValues>
            2.0956005901098251e-02 -6.4177781343460083e-01</leafValues></_>
        <_>
          <internalNodes>
            0 -1 115 5.3075820207595825e-02</internalNodes>
          <leafValues>
            2.1404016762971878e-02 -4.7614756226539612e-01</leafValues></_>
        <_>
          <internalNodes>
            0 -1 549 3.7744265049695969e-02</internalNodes>
          <leafValues>
            1.1716402322053909e-01 -9.1805815696716309e-02</leafValues></_>
        <_>
          <internalNodes>
            0 -1 324 5.4436899721622467e-02</internalNodes>
          <leafValues>
            -9.0009540319442749e-02 1.3483887910842896e-01</leafValues></_>
        <_>
          <internalNodes>
            0 -1 780 5.8564424514770508e-02</internalNodes>
          <leafValues>
            1.5512781217694283e-02 -6.9230580329895020e-01</leafValues></_>
        <_>
          <internalNodes>
            0 -1 874 5.2666403353214264e-02</internalNodes>
          <leafValues>
            6.5970346331596375e-02 -1.5360283851623535e-01</leafValues></_>
        <_>
          <internalNodes>
            0 -1 280 5.8435099199414253e-03</internalNodes>
          <leafValues>
            1.9043844938278198e-01 -5.9793520718812943e-02</leafValues></_>
        <_>
          <internalNodes>
            0 -1 828 3.0609322711825371e-03</internalNodes>
          <leafValues>
            -5.8488255739212036e-01 1.7179902642965317e-02</leafValues></_>
        <_>
          <internalNodes>
            0 -1 427 7.4067816138267517e-02</internalNodes>
          <leafValues>
            8.3801271393895149e-03 -9.3643641471862793e-01</leafValues></_>
        <_>
          <internalNodes>
            0 -1 659 5.0433997064828873e-02</internalNodes>
          <leafValues>
            1.0322237387299538e-02 -7.1870583295822144e-01</leafValues></_>
        <_>
          <internalNodes>
            0 -1 118 2.2458255290985107e-02</internalNodes>
          <leafValues>
            1.3710765540599823e-01 -7.8725740313529968e-02</leafValues></_>
        <_>
          <internalNodes>
            0 -1 217 2.2923413664102554e-02</internalNodes>
          <leafValues>
            8.9149385690689087e-02 -1.0868181288242340e-01</leafValues></_>
        <_>
          <internalNodes>
            0 -1 674 1.1652155220508575e-01</internalNodes>
          <leafValues>
            1.5710497274994850e-02 -6.1012023687362671e-01</leafValues></_>
        <_>
          <internalNodes>
            0 -1 267 2.1881228312849998e-02</internalNodes>
          <leafValues>
            3.9498709142208099e-02 -2.2911822795867920e-01</leafValues></_>
        <_>
          <internalNodes>
            0 -1 361 1.7490144819021225e-02</internalNodes>
          <leafValues>
            -7.3307700455188751e-02 1.5451978147029877e-01</leafValues></_>
        <_>
          <internalNodes>
            0 -1 457 5.3358608856797218e-03</internalNodes>
          <leafValues>
            2.0774812996387482e-01 -6.0474116355180740e-02</leafValues></_>
        <_>
          <internalNodes>
            0 -1 836 6.3144713640213013e-02</internalNodes>
          <leafValues>
            4.0828574448823929e-02 -2.4295109510421753e-01</leafValues></_>
        <_>
          <internalNodes>
            0 -1 955 4.7337949275970459e-02</internalNodes>
          <leafValues>
            1.0583973489701748e-02 -8.0027848482131958e-01</leafValues></_>
        <_>
          <internalNodes>
            0 -1 651 8.2249410450458527e-02</internalNodes>
          <leafValues>
            1.2114805169403553e-02 -6.3958001136779785e-01</leafValues></_>
        <_>
          <internalNodes>
            0 -1 882 4.1579026728868484e-02</internalNodes>
          <leafValues>
            1.9685089588165283e-02 -4.4330158829689026e-01</leafValues></_>
        <_>
          <internalNodes>
            0 -1 135 1.5071746893227100e-02</internalNodes>
          <leafValues>
            9.1678552329540253e-02 -1.0605364292860031e-01</leafValues></_>
        <_>
          <internalNodes>
            0 -1 946 8.2526467740535736e-02</internalNodes>
          <leafValues>
            2.4219188839197159e-02 -4.5721963047981262e-01</leafValues></_>
        <_>
          <internalNodes>
            0 -1 179 4.8645533621311188e-02</internalNodes>
          <leafValues>
            -8.0200783908367157e-02 1.3022565841674805e-01</leafValues></_>
        <_>
          <internalNodes>
            0 -1 167 3.1507648527622223e-02</internalNodes>
          <leafValues>
            -1.0015773028135300e-01 1.1083369702100754e-01</leafValues></_>
        <_>
          <internalNodes>
            0 -1 862 3.9140380918979645e-02</internalNodes>
          <leafValues>
            2.1072406321763992e-02 -4.4377586245536804e-01</leafValues></_>
        <_>
          <internalNodes>
            0 -1 181 3.0267091933637857e-03</internalNodes>
          <leafValues>
            -2.6288664340972900e-01 3.5494968295097351e-02</leafValues></_>
        <_>
          <internalNodes>
            0 -1 625 1.6796842217445374e-01</internalNodes>
          <leafValues>
            -2.2912401705980301e-02 4.9964690208435059e-01</leafValues></_>
        <_>
          <internalNodes>
            0 -1 527 3.1277310103178024e-02</internalNodes>
          <leafValues>
            7.2615832090377808e-02 -1.3081347942352295e-01</leafValues></_>
        <_>
          <internalNodes>
            0 -1 278 5.9052044525742531e-03</internalNodes>
          <leafValues>
            -6.7811536788940430e-01 1.2412770651280880e-02</leafValues></_></weakClassifiers></_>
    <!-- stage 6 -->
    <_>
      <maxWeakCount>100</maxWeakCount>
      <stageThreshold>-1.4719014167785645e+00</stageThreshold>
      <weakClassifiers>
        <_>
          <internalNodes>
            0 -1 730 1.0566138662397861e-02</internalNodes>
          <leafValues>
            -3.0903789401054382e-01 -6.7579907178878784e-01</leafValues></_>
        <_>
          <internalNodes>
            0 -1 708 1.1786226928234100e-01</internalNodes>
          <leafValues>
            -1.5260170400142670e-01 4.3051925301551819e-01</leafValues></_>
        <_>
          <internalNodes>
            0 -1 508 1.3313255039975047e-03</internalNodes>
          <leafValues>
            2.8066328167915344e-01 -8.4603890776634216e-02</leafValues></_>
        <_>
          <internalNodes>
            0 -1 400 4.0462255477905273e-02</internalNodes>
          <leafValues>
            -8.3271861076354980e-02 2.9588258266448975e-01</leafValues></_>
        <_>
          <internalNodes>
            0 -1 316 3.6200407892465591e-02</internalNodes>
          <leafValues>
            -1.5405716001987457e-01 1.2052583694458008e-01</leafValues></_>
        <_>
          <internalNodes>
            0 -1 3 1.0693527758121490e-01</internalNodes>
          <leafValues>
            2.2214701399207115e-02 -6.9239950180053711e-01</leafValues></_>
        <_>
          <internalNodes>
            0 -1 526 3.4744638949632645e-02</internalNodes>
          <leafValues>
            4.9151167273521423e-02 -3.3376365900039673e-01</leafValues></_>
        <_>
          <internalNodes>
            0 -1 553 3.6587588489055634e-02</internalNodes>
          <leafValues>
            -2.5285987183451653e-02 3.4006807208061218e-01</leafValues></_>
        <_>
          <internalNodes>
            0 -1 181 6.6587263718247414e-03</internalNodes>
          <leafValues>
            -2.2298134863376617e-01 5.9340998530387878e-02</leafValues></_>
        <_>
          <internalNodes>
            0 -1 271 4.8874430358409882e-02</internalNodes>
          <leafValues>
            -1.2920700013637543e-01 1.2731538712978363e-01</leafValues></_>
        <_>
          <internalNodes>
            0 -1 677 3.1495936214923859e-02</internalNodes>
          <leafValues>
            -2.2536414861679077e-01 5.7727117091417313e-02</leafValues></_>
        <_>
          <internalNodes>
            0 -1 90 1.3586980290710926e-02</internalNodes>
          <leafValues>
            -1.6394358873367310e-01 9.9472597241401672e-02</leafValues></_>
        <_>
          <internalNodes>
            0 -1 53 1.7480435967445374e-01</internalNodes>
          <leafValues>
            1.4910224825143814e-02 -7.4293750524520874e-01</leafValues></_>
        <_>
          <internalNodes>
            0 -1 141 6.5211325883865356e-02</internalNodes>
          <leafValues>
            1.3663366436958313e-02 -7.5463330745697021e-01</leafValues></_>
        <_>
          <internalNodes>
            0 -1 137 2.7952780947089195e-02</internalNodes>
          <leafValues>
            5.4239980876445770e-02 -2.3311679065227509e-01</leafValues></_>
        <_>
          <internalNodes>
            0 -1 877 1.4590108767151833e-02</internalNodes>
          <leafValues>
            -3.1185963749885559e-01 3.9156205952167511e-02</leafValues></_>
        <_>
          <internalNodes>
            0 -1 506 1.0097956284880638e-02</internalNodes>
          <leafValues>
            1.3397620618343353e-01 -8.8612295687198639e-02</leafValues></_>
        <_>
          <internalNodes>
            0 -1 899 2.2551408037543297e-02</internalNodes>
          <leafValues>
            -1.4132817089557648e-01 9.3537025153636932e-02</leafValues></_>
        <_>
          <internalNodes>
            0 -1 109 2.0682837814092636e-02</internalNodes>
          <leafValues>
            -1.2198131531476974e-01 1.2429888546466827e-01</leafValues></_>
        <_>
          <internalNodes>
            0 -1 227 1.7032586038112640e-03</internalNodes>
          <leafValues>
            -5.1267886161804199e-01 2.3810012266039848e-02</leafValues></_>
        <_>
          <internalNodes>
            0 -1 458 6.9193141534924507e-03</internalNodes>
          <leafValues>
            2.2297327220439911e-01 -6.8607084453105927e-02</leafValues></_>
        <_>
          <internalNodes>
            0 -1 638 1.1821475625038147e-01</internalNodes>
          <leafValues>
            -4.7803435474634171e-02 2.5943470001220703e-01</leafValues></_>
        <_>
          <internalNodes>
            0 -1 42 6.9663673639297485e-02</internalNodes>
          <leafValues>
            7.3870956897735596e-02 -1.9180808961391449e-01</leafValues></_>
        <_>
          <internalNodes>
            0 -1 932 4.7287173569202423e-02</internalNodes>
          <leafValues>
            -1.1610488593578339e-01 1.2532088160514832e-01</leafValues></_>
        <_>
          <internalNodes>
            0 -1 896 1.9822013564407825e-03</internalNodes>
          <leafValues>
            -7.3275405168533325e-01 1.6783192753791809e-02</leafValues></_>
        <_>
          <internalNodes>
            0 -1 603 4.2174205183982849e-02</internalNodes>
          <leafValues>
            6.3082128763198853e-02 -1.8534402549266815e-01</leafValues></_>
        <_>
          <internalNodes>
            0 -1 3 2.4434711784124374e-02</internalNodes>
          <leafValues>
            1.3311930000782013e-01 -9.6245288848876953e-02</leafValues></_>
        <_>
          <internalNodes>
            0 -1 16 8.4232255816459656e-02</internalNodes>
          <leafValues>
            1.7006592825055122e-02 -6.9919586181640625e-01</leafValues></_>
        <_>
          <internalNodes>
            0 -1 131 6.1931654810905457e-02</internalNodes>
          <leafValues>
            -3.7925638258457184e-02 3.3999738097190857e-01</leafValues></_>
        <_>
          <internalNodes>
            0 -1 919 5.8962251991033554e-02</internalNodes>
          <leafValues>
            3.5285174846649170e-02 -3.2667881250381470e-01</leafValues></_>
        <_>
          <internalNodes>
            0 -1 40 7.7001787722110748e-03</internalNodes>
          <leafValues>
            1.5986402332782745e-01 -7.8418165445327759e-02</leafValues></_>
        <_>
          <internalNodes>
            0 -1 768 5.2473647519946098e-03</internalNodes>
          <leafValues>
            -4.7588691115379333e-01 2.6496075093746185e-02</leafValues></_>
        <_>
          <internalNodes>
            0 -1 526 2.4496421683579683e-03</internalNodes>
          <leafValues>
            3.0706134438514709e-01 -4.5758072286844254e-02</leafValues></_>
        <_>
          <internalNodes>
            0 -1 787 1.0671801865100861e-02</internalNodes>
          <leafValues>
            -2.5525701045989990e-01 5.3678967058658600e-02</leafValues></_>
        <_>
          <internalNodes>
            0 -1 413 5.9282511472702026e-02</internalNodes>
          <leafValues>
            1.7319543287158012e-02 -5.6000828742980957e-01</leafValues></_>
        <_>
          <internalNodes>
            0 -1 486 4.9926165491342545e-02</internalNodes>
          <leafValues>
            -3.3520858734846115e-02 3.5865649580955505e-01</leafValues></_>
        <_>
          <internalNodes>
            0 -1 402 6.8746685981750488e-02</internalNodes>
          <leafValues>
            4.4902648776769638e-02 -3.1645861268043518e-01</leafValues></_>
        <_>
          <internalNodes>
            0 -1 349 5.9784036129713058e-02</internalNodes>
          <leafValues>
            -1.1146400123834610e-01 1.4445947110652924e-01</leafValues></_>
        <_>
          <internalNodes>
            0 -1 76 1.1686681210994720e-01</internalNodes>
          <leafValues>
            2.6574525982141495e-02 -4.5780038833618164e-01</leafValues></_>
        <_>
          <internalNodes>
            0 -1 488 1.2585894763469696e-01</internalNodes>
          <leafValues>
            -4.9156233668327332e-02 3.4738022089004517e-01</leafValues></_>
        <_>
          <internalNodes>
            0 -1 293 5.8030553162097931e-02</internalNodes>
          <leafValues>
            -4.9333453178405762e-02 2.7328312397003174e-01</leafValues></_>
        <_>
          <internalNodes>
            0 -1 891 4.3800733983516693e-02</internalNodes>
          <leafValues>
            -3.5224325954914093e-02 3.4950235486030579e-01</leafValues></_>
        <_>
          <internalNodes>
            0 -1 81 1.6679957509040833e-02</internalNodes>
          <leafValues>
            -1.8735702335834503e-01 6.5184392035007477e-02</leafValues></_>
        <_>
          <internalNodes>
            0 -1 669 1.2064827606081963e-02</internalNodes>
          <leafValues>
