<?xml version="1.0"?>
<opencv_storage>
<cascade>
  <stageType>BOOST</stageType>
  <featureType>HOG</featureType>
  <height>32</height>
  <width>32</width>
  <stageParams>
    <boostType>GAB</boostType>
    <minHitRate>9.9500000476837158e-01</minHitRate>
    <maxFalseAlarm>1.0000000149011612e-01</maxFalseAlarm>
    <weightTrimRate>9.4999999999999996e-01</weightTrimRate>
    <maxDepth>1</maxDepth>
    <maxWeakCount>100</maxWeakCount></stageParams>
  <featureParams>
    <maxCatCount>0</maxCatCount>
    <featSize>36</featSize></featureParams>
  <stageNum>26</stageNum>
  <stages>
    <!-- stage 0 -->
    <_>
      <maxWeakCount>24</maxWeakCount>
      <stageThreshold>-1.2386646270751953e+00</stageThreshold>
      <weakClassifiers>
        <_>
          <internalNodes>
            0 -1 780 1.5721237286925316e-02</internalNodes>
          <leafValues>
            -8.8769781589508057e-01 9.6460789442062378e-02</leafValues></_>
        <_>
          <internalNodes>
            0 -1 674 1.1984881944954395e-02</internalNodes>
          <leafValues>
            -7.8545045852661133e-01 2.4328006803989410e-01</leafValues></_>
        <_>
          <internalNodes>
            0 -1 783 1.6563966870307922e-02</internalNodes>
          <leafValues>
            -8.4573817253112793e-01 2.3014858365058899e-01</leafValues></_>
        <_>
          <internalNodes>
            0 -1 654 7.5924424454569817e-03</internalNodes>
          <leafValues>
            -9.2106568813323975e-01 2.6842227578163147e-01</leafValues></_>
        <_>
          <internalNodes>
            0 -1 663 3.6114595830440521e-02</internalNodes>
          <leafValues>
            -5.7305270433425903e-01 2.5499844551086426e-01</leafValues></_>
        <_>
          <internalNodes>
            0 -1 844 8.1338416785001755e-03</internalNodes>
          <leafValues>
            -6.9311404228210449e-01 1.8279704451560974e-01</leafValues></_>
        <_>
          <internalNodes>
            0 -1 357 2.3981261998414993e-02</internalNodes>
          <leafValues>
            -5.0464749336242676e-01 2.5511807203292847e-01</leafValues></_>
        <_>
          <internalNodes>
            0 -1 794 1.7955301329493523e-02</internalNodes>
          <leafValues>
            -4.6553578972816467e-01 2.3713353276252747e-01</leafValues></_>
        <_>
          <internalNodes>
            0 -1 932 1.7806079238653183e-02</internalNodes>
          <leafValues>
            -7.0298677682876587e-01 1.4768524467945099e-01</leafValues></_>
        <_>
          <internalNodes>
            0 -1 24 1.9996527582406998e-02</internalNodes>
          <leafValues>
            -4.2071509361267090e-01 2.0151154696941376e-01</leafValues></_>
        <_>
          <internalNodes>
            0 -1 691 8.9885875582695007e-02</internalNodes>
          <leafValues>
            -1.4082117378711700e-01 6.4677470922470093e-01</leafValues></_>
        <_>
          <internalNodes>
            0 -1 823 3.9132926613092422e-03</internalNodes>
          <leafValues>
            -9.4584059715270996e-01 7.2278887033462524e-02</leafValues></_>
        <_>
          <internalNodes>
            0 -1 420 2.4084677919745445e-02</internalNodes>
          <leafValues>
            1.6102048754692078e-01 -4.0997833013534546e-01</leafValues></_>
        <_>
          <internalNodes>
            0 -1 606 9.1140538454055786e-02</internalNodes>
          <leafValues>
            6.9034025073051453e-02 -7.9870349168777466e-01</leafValues></_>
        <_>
          <internalNodes>
            0 -1 722 3.0835609883069992e-02</internalNodes>
          <leafValues>
            7.1949563920497894e-02 -6.5730887651443481e-01</leafValues></_>
        <_>
          <internalNodes>
            0 -1 31 2.4023693054914474e-02</internalNodes>
          <leafValues>
            -2.2830170392990112e-01 2.5283128023147583e-01</leafValues></_>
        <_>
          <internalNodes>
            0 -1 526 2.6890203356742859e-02</internalNodes>
          <leafValues>
            1.2183229625225067e-01 -4.6950480341911316e-01</leafValues></_>
        <_>
          <internalNodes>
            0 -1 49 3.1576799228787422e-03</internalNodes>
          <leafValues>
            -7.0942330360412598e-01 7.7234476804733276e-02</leafValues></_>
        <_>
          <internalNodes>
            0 -1 926 4.5699747279286385e-03</internalNodes>
          <leafValues>
            -5.1231902837753296e-01 1.0534007847309113e-01</leafValues></_>
        <_>
          <internalNodes>
            0 -1 927 1.8869562074542046e-02</internalNodes>
          <leafValues>
            1.2084277719259262e-01 -4.3081209063529968e-01</leafValues></_>
        <_>
          <internalNodes>
            0 -1 700 1.9565969705581665e-02</internalNodes>
          <leafValues>
            -1.9082449376583099e-01 3.1930539011955261e-01</leafValues></_>
        <_>
          <internalNodes>
            0 -1 283 6.0649201273918152e-02</internalNodes>
          <leafValues>
            -1.5256240963935852e-01 3.7977653741836548e-01</leafValues></_>
        <_>
          <internalNodes>
            0 -1 846 5.9455903246998787e-03</internalNodes>
          <leafValues>
            -6.7105418443679810e-01 8.9557662606239319e-02</leafValues></_>
        <_>
          <internalNodes>
            0 -1 415 5.1023211330175400e-02</internalNodes>
          <leafValues>
            -1.4727176725864410e-01 4.3453261256217957e-01</leafValues></_></weakClassifiers></_>
    <!-- stage 1 -->
    <_>
      <maxWeakCount>48</maxWeakCount>
      <stageThreshold>-1.1365561485290527e+00</stageThreshold>
      <weakClassifiers>
        <_>
          <internalNodes>
            0 -1 691 5.6638028472661972e-02</internalNodes>
          <leafValues>
            -7.2247707843780518e-01 3.6989796161651611e-01</leafValues></_>
        <_>
          <internalNodes>
            0 -1 755 5.0351239740848541e-02</internalNodes>
          <leafValues>
            -4.8545020818710327e-01 5.5089259147644043e-01</leafValues></_>
        <_>
          <internalNodes>
            0 -1 271 1.0890698060393333e-02</internalNodes>
          <leafValues>
            4.8985633254051208e-01 -2.6795390248298645e-01</leafValues></_>
        <_>
          <internalNodes>
            0 -1 638 2.2445060312747955e-02</internalNodes>
          <leafValues>
            -4.4832080602645874e-01 2.3065541684627533e-01</leafValues></_>
        <_>
          <internalNodes>
            0 -1 31 3.0080001801252365e-02</internalNodes>
          <leafValues>
            -2.6663255691528320e-01 3.6664512753486633e-01</leafValues></_>
        <_>
          <internalNodes>
            0 -1 522 3.8515005260705948e-02</internalNodes>
          <leafValues>
            -2.6571369171142578e-01 3.0899992585182190e-01</leafValues></_>
        <_>
          <internalNodes>
            0 -1 128 2.8285192325711250e-02</internalNodes>
          <leafValues>
            1.2405349314212799e-01 -5.6620591878890991e-01</leafValues></_>
        <_>
          <internalNodes>
            0 -1 560 3.4271713346242905e-02</internalNodes>
          <leafValues>
            -1.8863949179649353e-01 3.7179550528526306e-01</leafValues></_>
        <_>
          <internalNodes>
            0 -1 131 3.8605466485023499e-02</internalNodes>
          <leafValues>
            -2.5618746876716614e-01 2.5461193919181824e-01</leafValues></_>
        <_>
          <internalNodes>
            0 -1 683 3.4375626593828201e-02</internalNodes>
          <leafValues>
            -3.0529189109802246e-01 2.3047885298728943e-01</leafValues></_>
        <_>
          <internalNodes>
            0 -1 660 2.2354982793331146e-02</internalNodes>
          <leafValues>
            -4.5983922481536865e-01 1.5385890007019043e-01</leafValues></_>
        <_>
          <internalNodes>
            0 -1 1 9.5425099134445190e-03</internalNodes>
          <leafValues>
            -4.9606361985206604e-01 1.3559998571872711e-01</leafValues></_>
        <_>
          <internalNodes>
            0 -1 733 3.8799829781055450e-02</internalNodes>
          <leafValues>
            -2.6535761356353760e-01 2.7601584792137146e-01</leafValues></_>
        <_>
          <internalNodes>
            0 -1 125 3.7696000188589096e-02</internalNodes>
          <leafValues>
            -1.3466019928455353e-01 4.3850851058959961e-01</leafValues></_>
        <_>
          <internalNodes>
            0 -1 824 2.4507049471139908e-02</internalNodes>
          <leafValues>
            -3.1738156080245972e-01 1.8164981901645660e-01</leafValues></_>
        <_>
          <internalNodes>
            0 -1 940 1.1334296315908432e-02</internalNodes>
          <leafValues>
            -4.5477652549743652e-01 1.3118347525596619e-01</leafValues></_>
        <_>
          <internalNodes>
            0 -1 802 3.0079744756221771e-02</internalNodes>
          <leafValues>
            9.6725247800350189e-02 -5.2718877792358398e-01</leafValues></_>
        <_>
          <internalNodes>
            0 -1 799 1.6741979867219925e-02</internalNodes>
          <leafValues>
            1.8354287743568420e-01 -2.9508769512176514e-01</leafValues></_>
        <_>
          <internalNodes>
            0 -1 651 2.4848207831382751e-02</internalNodes>
          <leafValues>
            1.2750929594039917e-01 -4.1017675399780273e-01</leafValues></_>
        <_>
          <internalNodes>
            0 -1 528 4.9526780843734741e-02</internalNodes>
          <leafValues>
            1.0613108426332474e-01 -4.3089729547500610e-01</leafValues></_>
        <_>
          <internalNodes>
            0 -1 725 3.5392619669437408e-02</internalNodes>
          <leafValues>
            -2.9593104124069214e-01 1.6641546785831451e-01</leafValues></_>
        <_>
          <internalNodes>
            0 -1 896 3.5509496927261353e-02</internalNodes>
          <leafValues>
            -1.8536305427551270e-01 2.7039757370948792e-01</leafValues></_>
        <_>
          <internalNodes>
            0 -1 322 2.1036393940448761e-02</internalNodes>
          <leafValues>
            -3.1179818511009216e-01 1.5303653478622437e-01</leafValues></_>
        <_>
          <internalNodes>
            0 -1 275 2.4212121963500977e-02</internalNodes>
          <leafValues>
            -3.1182664632797241e-01 1.4430162310600281e-01</leafValues></_>
        <_>
          <internalNodes>
            0 -1 526 1.2862659059464931e-03</internalNodes>
          <leafValues>
            7.0395982265472412e-01 -7.1247793734073639e-02</leafValues></_>
        <_>
          <internalNodes>
            0 -1 899 1.8398713320493698e-02</internalNodes>
          <leafValues>
            -1.9839338958263397e-01 2.3362579941749573e-01</leafValues></_>
        <_>
          <internalNodes>
            0 -1 740 5.4554264992475510e-02</internalNodes>
          <leafValues>
            -1.6989310085773468e-01 2.8733301162719727e-01</leafValues></_>
        <_>
          <internalNodes>
            0 -1 949 1.1387063190340996e-02</internalNodes>
          <leafValues>
            -3.6226740479469299e-01 1.3083884119987488e-01</leafValues></_>
        <_>
          <internalNodes>
            0 -1 506 2.3143265396356583e-02</internalNodes>
          <leafValues>
            1.1941292881965637e-01 -3.6194014549255371e-01</leafValues></_>
        <_>
          <internalNodes>
            0 -1 683 6.0914829373359680e-02</internalNodes>
          <leafValues>
            -1.1974957585334778e-01 3.4881660342216492e-01</leafValues></_>
        <_>
          <internalNodes>
            0 -1 845 2.5069132447242737e-02</internalNodes>
          <leafValues>
            -3.0938118696212769e-01 1.6467650234699249e-01</leafValues></_>
        <_>
          <internalNodes>
            0 -1 922 8.9082248508930206e-02</internalNodes>
          <leafValues>
            4.4992741197347641e-02 -9.0033119916915894e-01</leafValues></_>
        <_>
          <internalNodes>
            0 -1 941 8.5902940481901169e-03</internalNodes>
          <leafValues>
            -6.4674705266952515e-01 4.4357109814882278e-02</leafValues></_>
        <_>
          <internalNodes>
            0 -1 206 3.5098034888505936e-02</internalNodes>
          <leafValues>
            -1.7397528886795044e-01 2.0853485167026520e-01</leafValues></_>
        <_>
          <internalNodes>
            0 -1 167 3.2812535762786865e-02</internalNodes>
          <leafValues>
            -1.4296078681945801e-01 2.8316640853881836e-01</leafValues></_>
        <_>
          <internalNodes>
            0 -1 509 6.1915464699268341e-02</internalNodes>
          <leafValues>
            -1.4699491858482361e-01 2.7697253227233887e-01</leafValues></_>
        <_>
          <internalNodes>
            0 -1 650 6.6191345453262329e-02</internalNodes>
          <leafValues>
            1.0102225095033646e-01 -4.1931205987930298e-01</leafValues></_>
        <_>
          <internalNodes>
            0 -1 399 2.4747889488935471e-02</internalNodes>
          <leafValues>
            1.0678818821907043e-01 -3.8131582736968994e-01</leafValues></_>
        <_>
          <internalNodes>
            0 -1 337 3.9971914142370224e-02</internalNodes>
          <leafValues>
            -1.8947777152061462e-01 1.8971985578536987e-01</leafValues></_>
        <_>
          <internalNodes>
            0 -1 100 4.6412527561187744e-02</internalNodes>
          <leafValues>
            -5.4119434207677841e-02 6.3993555307388306e-01</leafValues></_>
        <_>
          <internalNodes>
            0 -1 726 3.8765460252761841e-02</internalNodes>
          <leafValues>
            7.2636827826499939e-02 -5.1926440000534058e-01</leafValues></_>
        <_>
          <internalNodes>
            0 -1 122 1.0016040503978729e-01</internalNodes>
          <leafValues>
            3.8222104310989380e-02 -7.6645892858505249e-01</leafValues></_>
        <_>
          <internalNodes>
            0 -1 517 3.9818875491619110e-02</internalNodes>
          <leafValues>
            -1.5968693792819977e-01 2.1264910697937012e-01</leafValues></_>
        <_>
          <internalNodes>
            0 -1 121 6.7696034908294678e-02</internalNodes>
          <leafValues>
            7.3247775435447693e-02 -4.7333297133445740e-01</leafValues></_>
        <_>
          <internalNodes>
            0 -1 269 2.3938282392919064e-03</internalNodes>
          <leafValues>
            4.9201190471649170e-01 -8.0635212361812592e-02</leafValues></_>
        <_>
          <internalNodes>
            0 -1 6 4.2823078110814095e-03</internalNodes>
          <leafValues>
            3.7927648425102234e-01 -8.6638063192367554e-02</leafValues></_>
        <_>
          <internalNodes>
            0 -1 779 4.1112735867500305e-02</internalNodes>
          <leafValues>
            -7.6726496219635010e-02 4.5744934678077698e-01</leafValues></_>
        <_>
          <internalNodes>
            0 -1 853 4.2231116443872452e-02</internalNodes>
          <leafValues>
            -1.4557927846908569e-01 2.3571853339672089e-01</leafValues></_></weakClassifiers></_>
    <!-- stage 2 -->
    <_>
      <maxWeakCount>100</maxWeakCount>
      <stageThreshold>-1.3123600482940674e+00</stageThreshold>
      <weakClassifiers>
        <_>
          <internalNodes>
            0 -1 655 1.7918391153216362e-02</internalNodes>
          <leafValues>
            -7.3095399141311646e-01 -2.7534741163253784e-01</leafValues></_>
        <_>
          <internalNodes>
            0 -1 739 4.1067399084568024e-02</internalNodes>
          <leafValues>
            -3.9403247833251953e-01 1.3738618791103363e-01</leafValues></_>
        <_>
          <internalNodes>
            0 -1 675 1.7099495977163315e-02</internalNodes>
          <leafValues>
            -4.6683254837989807e-01 1.4357414841651917e-01</leafValues></_>
        <_>
          <internalNodes>
            0 -1 960 7.5343921780586243e-02</internalNodes>
          <leafValues>
            9.7151830792427063e-02 -7.7677631378173828e-01</leafValues></_>
        <_>
          <internalNodes>
            0 -1 610 1.8795512616634369e-02</internalNodes>
          <leafValues>
            -4.6429297327995300e-01 1.3249871134757996e-01</leafValues></_>
        <_>
          <internalNodes>
            0 -1 270 4.8226751387119293e-03</internalNodes>
          <leafValues>
            3.4563899040222168e-01 -1.8598780035972595e-01</leafValues></_>
        <_>
          <internalNodes>
            0 -1 776 7.1033477783203125e-02</internalNodes>
          <leafValues>
            6.1923809349536896e-02 -6.6611927747726440e-01</leafValues></_>
        <_>
          <internalNodes>
            0 -1 522 6.6726222634315491e-02</internalNodes>
          <leafValues>
            -1.5681268274784088e-01 2.9745107889175415e-01</leafValues></_>
        <_>
          <internalNodes>
            0 -1 403 2.7860019356012344e-02</internalNodes>
          <leafValues>
            -1.4537797868251801e-01 2.7413541078567505e-01</leafValues></_>
        <_>
          <internalNodes>
            0 -1 175 2.4784995242953300e-02</internalNodes>
          <leafValues>
            1.0104883462190628e-01 -4.2922595143318176e-01</leafValues></_>
        <_>
          <internalNodes>
            0 -1 660 1.8038885667920113e-02</internalNodes>
          <leafValues>
            -4.5044720172882080e-01 8.4205158054828644e-02</leafValues></_>
        <_>
          <internalNodes>
            0 -1 953 5.7285041548311710e-03</internalNodes>
          <leafValues>
            -6.4632368087768555e-01 5.6366831064224243e-02</leafValues></_>
        <_>
          <internalNodes>
            0 -1 488 4.4459078460931778e-02</internalNodes>
          <leafValues>
            -2.4491001665592194e-01 1.6770774126052856e-01</leafValues></_>
        <_>
          <internalNodes>
            0 -1 926 3.3679351210594177e-02</internalNodes>
          <leafValues>
            4.9485534429550171e-02 -5.6179213523864746e-01</leafValues></_>
        <_>
          <internalNodes>
            0 -1 675 1.1100992560386658e-01</internalNodes>
          <leafValues>
            3.9677310734987259e-02 -7.2822666168212891e-01</leafValues></_>
        <_>
          <internalNodes>
            0 -1 703 2.5290971621870995e-02</internalNodes>
          <leafValues>
            6.6781342029571533e-02 -4.5232746005058289e-01</leafValues></_>
        <_>
          <internalNodes>
            0 -1 901 7.4962764978408813e-02</internalNodes>
          <leafValues>
            6.8907670676708221e-02 -4.8755612969398499e-01</leafValues></_>
        <_>
          <internalNodes>
            0 -1 799 2.4662164971232414e-02</internalNodes>
          <leafValues>
            7.0207647979259491e-02 -3.8756856322288513e-01</leafValues></_>
        <_>
          <internalNodes>
            0 -1 136 2.6550959795713425e-02</internalNodes>
          <leafValues>
            -1.3733215630054474e-01 2.1380515396595001e-01</leafValues></_>
        <_>
          <internalNodes>
            0 -1 130 3.0524056404829025e-02</internalNodes>
          <leafValues>
            -2.1297889947891235e-01 1.2545542418956757e-01</leafValues></_>
        <_>
          <internalNodes>
            0 -1 879 5.8651887811720371e-03</internalNodes>
          <leafValues>
            -5.0563693046569824e-01 4.5777115970849991e-02</leafValues></_>
        <_>
          <internalNodes>
            0 -1 904 2.3397756740450859e-02</internalNodes>
          <leafValues>
            -1.8695373833179474e-01 1.3826484978199005e-01</leafValues></_>
        <_>
          <internalNodes>
            0 -1 501 2.1701222285628319e-02</internalNodes>
          <leafValues>
            -2.9778102040290833e-01 1.1237298697233200e-01</leafValues></_>
        <_>
          <internalNodes>
            0 -1 710 8.0709919333457947e-02</internalNodes>
          <leafValues>
            -8.7558902800083160e-02 3.1022036075592041e-01</leafValues></_>
        <_>
          <internalNodes>
            0 -1 318 4.2114146053791046e-02</internalNodes>
          <leafValues>
            -1.1400887370109558e-01 2.6521396636962891e-01</leafValues></_>
        <_>
          <internalNodes>
            0 -1 941 1.9007913768291473e-02</internalNodes>
          <leafValues>
            -2.2588060796260834e-01 1.2314453721046448e-01</leafValues></_>
        <_>
          <internalNodes>
            0 -1 314 3.6152247339487076e-02</internalNodes>
          <leafValues>
            -2.0442858338356018e-01 1.5350766479969025e-01</leafValues></_>
        <_>
          <internalNodes>
            0 -1 62 4.1264072060585022e-02</internalNodes>
          <leafValues>
            -1.4861084520816803e-01 1.8261505663394928e-01</leafValues></_>
        <_>
          <internalNodes>
            0 -1 781 1.1647549271583557e-01</internalNodes>
          <leafValues>
            4.9180600792169571e-02 -6.5458756685256958e-01</leafValues></_>
        <_>
          <internalNodes>
            0 -1 652 1.6427095979452133e-02</internalNodes>
          <leafValues>
            1.0478044301271439e-01 -2.2911261022090912e-01</leafValues></_>
        <_>
          <internalNodes>
            0 -1 98 2.7670267969369888e-02</internalNodes>
          <leafValues>
            -1.3272678852081299e-01 1.9125527143478394e-01</leafValues></_>
        <_>
          <internalNodes>
            0 -1 682 6.5501220524311066e-03</internalNodes>
          <leafValues>
            -6.7544752359390259e-01 3.6873489618301392e-02</leafValues></_>
        <_>
          <internalNodes>
            0 -1 333 4.5151961967349052e-03</internalNodes>
          <leafValues>
            -4.4703885912895203e-01 4.6093471348285675e-02</leafValues></_>
        <_>
          <internalNodes>
            0 -1 391 1.0693905875086784e-02</internalNodes>
          <leafValues>
            1.9426807761192322e-01 -1.5367412567138672e-01</leafValues></_>
        <_>
          <internalNodes>
            0 -1 387 4.2819850146770477e-02</internalNodes>
          <leafValues>
            -1.5508784353733063e-01 1.3436405360698700e-01</leafValues></_>
        <_>
          <internalNodes>
            0 -1 790 1.5667399391531944e-02</internalNodes>
          <leafValues>
            3.2150918245315552e-01 -7.4985586106777191e-02</leafValues></_>
        <_>
          <internalNodes>
            0 -1 929 8.3802312612533569e-02</internalNodes>
          <leafValues>
            4.2101379483938217e-02 -6.4303493499755859e-01</leafValues></_>
        <_>
          <internalNodes>
            0 -1 477 2.1353984251618385e-02</internalNodes>
          <leafValues>
            1.3159324228763580e-01 -1.7657464742660522e-01</leafValues></_>
        <_>
          <internalNodes>
            0 -1 529 6.3602000474929810e-02</internalNodes>
          <leafValues>
            6.6672191023826599e-02 -3.7667188048362732e-01</leafValues></_>
        <_>
          <internalNodes>
            0 -1 207 2.3124646395444870e-02</internalNodes>
          <leafValues>
            -1.1818231642246246e-01 1.9069562852382660e-01</leafValues></_>
        <_>
          <internalNodes>
            0 -1 757 2.8745317831635475e-02</internalNodes>
          <leafValues>
            7.1463532745838165e-02 -2.9984834790229797e-01</leafValues></_>
        <_>
          <internalNodes>
            0 -1 92 1.3341134414076805e-02</internalNodes>
          <leafValues>
            -2.1565656363964081e-01 1.0246577858924866e-01</leafValues></_>
        <_>
          <internalNodes>
            0 -1 180 2.1790590137243271e-02</internalNodes>
          <leafValues>
            -2.2546853125095367e-01 1.0152261704206467e-01</leafValues></_>
        <_>
          <internalNodes>
            0 -1 524 2.5167584419250488e-02</internalNodes>
          <leafValues>
            9.1310694813728333e-02 -2.5292614102363586e-01</leafValues></_>
        <_>
          <internalNodes>
            0 -1 838 2.8965916484594345e-02</internalNodes>
          <leafValues>
            -1.4814768731594086e-01 1.6063205897808075e-01</leafValues></_>
        <_>
          <internalNodes>
            0 -1 778 1.8888628110289574e-02</internalNodes>
          <leafValues>
            -1.8116393685340881e-01 1.2712070345878601e-01</leafValues></_>
        <_>
          <internalNodes>
            0 -1 668 2.9039032757282257e-02</internalNodes>
          <leafValues>
            6.2047000974416733e-02 -4.1093710064888000e-01</leafValues></_>
        <_>
          <internalNodes>
            0 -1 121 8.1707000732421875e-02</internalNodes>
          <leafValues>
            3.6464061588048935e-02 -5.1220554113388062e-01</leafValues></_>
        <_>
          <internalNodes>
            0 -1 337 8.6900079622864723e-03</internalNodes>
          <leafValues>
            5.2027857303619385e-01 -4.3728236109018326e-02</leafValues></_>
        <_>
          <internalNodes>
            0 -1 527 4.3246958404779434e-02</internalNodes>
          <leafValues>
            3.9555232971906662e-02 -5.6627786159515381e-01</leafValues></_>
        <_>
          <internalNodes>
            0 -1 574 3.1600659713149071e-03</internalNodes>
          <leafValues>
            -9.5439267158508301e-01 1.6390053555369377e-02</leafValues></_>
        <_>
          <internalNodes>
            0 -1 265 6.1690295115113258e-03</internalNodes>
          <leafValues>
            1.6911365091800690e-01 -1.2414155900478363e-01</leafValues></_>
        <_>
          <internalNodes>
            0 -1 796 4.0413839742541313e-03</internalNodes>
          <leafValues>
            -5.8432275056838989e-01 3.5691373050212860e-02</leafValues></_>
        <_>
          <internalNodes>
            0 -1 361 2.8567999601364136e-02</internalNodes>
          <leafValues>
            -1.0258235782384872e-01 1.9996701180934906e-01</leafValues></_>
        <_>
          <internalNodes>
            0 -1 731 2.8342025354504585e-02</internalNodes>
          <leafValues>
            6.2418986111879349e-02 -4.2920199036598206e-01</leafValues></_>
        <_>
          <internalNodes>
            0 -1 398 6.8547008559107780e-03</internalNodes>
          <leafValues>
            2.7384471893310547e-01 -9.5415048301219940e-02</leafValues></_>
        <_>
          <internalNodes>
            0 -1 904 6.7516467534005642e-03</internalNodes>
          <leafValues>
            -4.6685937047004700e-01 4.6690598130226135e-02</leafValues></_>
        <_>
          <internalNodes>
            0 -1 651 1.4348467811942101e-02</internalNodes>
          <leafValues>
            1.3639400899410248e-01 -1.7825943231582642e-01</leafValues></_>
        <_>
          <internalNodes>
            0 -1 922 7.1726977825164795e-02</internalNodes>
          <leafValues>
            4.2050495743751526e-02 -5.4876720905303955e-01</leafValues></_>
        <_>
          <internalNodes>
            0 -1 43 1.6118664294481277e-02</internalNodes>
          <leafValues>
            1.3441696763038635e-01 -1.6577364504337311e-01</leafValues></_>
        <_>
          <internalNodes>
            0 -1 122 1.0968011617660522e-01</internalNodes>
          <leafValues>
            2.9689697548747063e-02 -7.3983353376388550e-01</leafValues></_>
        <_>
          <internalNodes>
            0 -1 186 1.6435079742223024e-03</internalNodes>
          <leafValues>
            -5.3582006692886353e-01 3.4423541277647018e-02</leafValues></_>
        <_>
          <internalNodes>
            0 -1 289 4.7114260494709015e-02</internalNodes>
          <leafValues>
            3.6561172455549240e-02 -5.3168326616287231e-01</leafValues></_>
        <_>
          <internalNodes>
            0 -1 350 1.1573864519596100e-01</internalNodes>
          <leafValues>
            2.3230975493788719e-02 -6.7038208246231079e-01</leafValues></_>
        <_>
          <internalNodes>
            0 -1 131 4.8673510551452637e-02</internalNodes>
          <leafValues>
            -1.4549602568149567e-01 1.4063796401023865e-01</leafValues></_>
        <_>
          <internalNodes>
            0 -1 825 1.3539288192987442e-02</internalNodes>
          <leafValues>
            -2.7193847298622131e-01 7.5668714940547943e-02</leafValues></_>
        <_>
          <internalNodes>
            0 -1 496 9.4121158123016357e-02</internalNodes>
          <leafValues>
            -7.8978076577186584e-02 3.2173112034797668e-01</leafValues></_>
        <_>
          <internalNodes>
            0 -1 228 3.0400872230529785e-02</internalNodes>
          <leafValues>
            1.7323973774909973e-01 -1.1397710442543030e-01</leafValues></_>
        <_>
          <internalNodes>
            0 -1 664 4.7057393938302994e-02</internalNodes>
          <leafValues>
            -1.4920672774314880e-01 1.8248829245567322e-01</leafValues></_>
        <_>
          <internalNodes>
            0 -1 483 3.5269740968942642e-02</internalNodes>
          <leafValues>
            5.6839622557163239e-02 -3.5744816064834595e-01</leafValues></_>
        <_>
          <internalNodes>
            0 -1 940 7.1432110853493214e-03</internalNodes>
          <leafValues>
            -5.5447632074356079e-01 4.0165409445762634e-02</leafValues></_>
        <_>
          <internalNodes>
            0 -1 803 7.7567910775542259e-03</internalNodes>
          <leafValues>
            2.4667391180992126e-01 -1.0132404416799545e-01</leafValues></_>
        <_>
          <internalNodes>
            0 -1 656 3.0956339091062546e-02</internalNodes>
          <leafValues>
            -1.0291155427694321e-01 2.1469250321388245e-01</leafValues></_>
        <_>
          <internalNodes>
            0 -1 896 2.5104986503720284e-02</internalNodes>
          <leafValues>
            -1.8637120723724365e-01 1.3758614659309387e-01</leafValues></_>
        <_>
          <internalNodes>
            0 -1 694 1.2960629537701607e-03</internalNodes>
          <leafValues>
            -8.9154481887817383e-01 2.2472977638244629e-02</leafValues></_>
        <_>
          <internalNodes>
            0 -1 175 7.7847965061664581e-02</internalNodes>
          <leafValues>
            -2.4507388472557068e-02 9.3033051490783691e-01</leafValues></_>
        <_>
          <internalNodes>
            0 -1 672 1.5043567866086960e-02</internalNodes>
          <leafValues>
            -1.7506434023380280e-01 1.0602845251560211e-01</leafValues></_>
        <_>
          <internalNodes>
            0 -1 258 6.7951930686831474e-03</internalNodes>
          <leafValues>
            2.5798416137695312e-01 -7.8699558973312378e-02</leafValues></_>
        <_>
          <internalNodes>
            0 -1 929 8.4494352340698242e-02</internalNodes>
          <leafValues>
            2.9274610802531242e-02 -6.0111767053604126e-01</leafValues></_>
        <_>
          <internalNodes>
            0 -1 800 2.7937225997447968e-02</internalNodes>
          <leafValues>
            6.6449366509914398e-02 -2.5346577167510986e-01</leafValues></_>
        <_>
          <internalNodes>
            0 -1 660 3.5114780068397522e-02</internalNodes>
          <leafValues>
            -1.6075316071510315e-01 1.4666622877120972e-01</leafValues></_>
        <_>
          <internalNodes>
            0 -1 34 2.0683344919234514e-03</internalNodes>
          <leafValues>
            -8.1480604410171509e-01 2.3696823045611382e-02</leafValues></_>
        <_>
          <internalNodes>
            0 -1 636 8.0185831757262349e-04</internalNodes>
          <leafValues>
            -8.0743801593780518e-01 1.5544882044196129e-02</leafValues></_>
        <_>
          <internalNodes>
            0 -1 362 4.5328564941883087e-02</internalNodes>
          <leafValues>
            -1.3682954013347626e-01 1.2082218378782272e-01</leafValues></_>
        <_>
          <internalNodes>
            0 -1 900 1.1272363364696503e-01</internalNodes>
          <leafValues>
            2.3787014186382294e-02 -7.2406446933746338e-01</leafValues></_>
        <_>
          <internalNodes>
            0 -1 529 1.0384146869182587e-01</internalNodes>
          <leafValues>
            2.4377977475523949e-02 -6.2417715787887573e-01</leafValues></_>
        <_>
          <internalNodes>
            0 -1 951 9.6399903297424316e-02</internalNodes>
          <leafValues>
            1.1389930732548237e-02 -1.</leafValues></_>
        <_>
          <internalNodes>
            0 -1 6 4.6526594087481499e-03</internalNodes>
          <leafValues>
            2.2227805852890015e-01 -7.8717894852161407e-02</leafValues></_>
        <_>
          <internalNodes>
            0 -1 767 6.8671884946525097e-03</internalNodes>
          <leafValues>
            2.9307422041893005e-01 -5.1442675292491913e-02</leafValues></_>
        <_>
          <internalNodes>
            0 -1 922 2.6133884675800800e-03</internalNodes>
          <leafValues>
            -6.5840888023376465e-01 2.7998520061373711e-02</leafValues></_>
        <_>
          <internalNodes>
            0 -1 320 8.3890306996181607e-04</internalNodes>
          <leafValues>
            -8.0066531896591187e-01 1.7243897542357445e-02</leafValues></_>
        <_>
          <internalNodes>
            0 -1 527 2.1046355366706848e-02</internalNodes>
          <leafValues>
            8.4525205194950104e-02 -2.0378135144710541e-01</leafValues></_>
        <_>
          <internalNodes>
            0 -1 477 6.1190195381641388e-02</internalNodes>
          <leafValues>
            2.6390444487333298e-02 -6.0518950223922729e-01</leafValues></_>
        <_>
          <internalNodes>
            0 -1 354 4.5956060290336609e-02</internalNodes>
          <leafValues>
            3.1307429075241089e-02 -4.4677770137786865e-01</leafValues></_>
        <_>
          <internalNodes>
            0 -1 272 4.2324744164943695e-02</internalNodes>
          <leafValues>
            4.1848711669445038e-02 -3.8755780458450317e-01</leafValues></_>
        <_>
          <internalNodes>
            0 -1 659 5.5466443300247192e-02</internalNodes>
          <leafValues>
            2.7046751230955124e-02 -5.4781001806259155e-01</leafValues></_>
        <_>
          <internalNodes>
            0 -1 657 4.6825632452964783e-02</internalNodes>
          <leafValues>
            8.0931074917316437e-02 -2.2605757415294647e-01</leafValues></_>
        <_>
          <internalNodes>
            0 -1 637 2.2121068090200424e-02</internalNodes>
          <leafValues>
            -1.4086146652698517e-01 1.3115172088146210e-01</leafValues></_>
        <_>
          <internalNodes>
            0 -1 163 1.6044199466705322e-02</internalNodes>
          <leafValues>
            1.2429204583168030e-01 -1.4830131828784943e-01</leafValues></_>
        <_>
          <internalNodes>
            0 -1 580 5.4144412279129028e-03</internalNodes>
          <leafValues>
            -3.9961290359497070e-01 5.1342386752367020e-02</leafValues></_></weakClassifiers></_>
    <!-- stage 3 -->
    <_>
      <maxWeakCount>100</maxWeakCount>
      <stageThreshold>-1.3054149150848389e+00</stageThreshold>
      <weakClassifiers>
        <_>
          <internalNodes>
            0 -1 760 8.4578162059187889e-03</internalNodes>
          <leafValues>
            -1.0221285372972488e-01 -6.1321908235549927e-01</leafValues></_>
        <_>
          <internalNodes>
            0 -1 275 4.7882348299026489e-02</internalNodes>
          <leafValues>
            -2.8482186794281006e-01 1.4945119619369507e-01</leafValues></_>
        <_>
          <internalNodes>
            0 -1 613 9.2700555920600891e-02</internalNodes>
          <leafValues>
            -1.0022196918725967e-01 3.9963769912719727e-01</leafValues></_>
        <_>
          <internalNodes>
            0 -1 625 1.7417006194591522e-02</internalNodes>
          <leafValues>
            -3.1341636180877686e-01 1.3117463886737823e-01</leafValues></_>
        <_>
          <internalNodes>
            0 -1 33 6.5517112612724304e-02</internalNodes>
          <leafValues>
            1.0819350183010101e-01 -4.3057709932327271e-01</leafValues></_>
        <_>
          <internalNodes>
            0 -1 779 3.4134931862354279e-02</internalNodes>
          <leafValues>
            -1.2947672605514526e-01 2.3490458726882935e-01</leafValues></_>
        <_>
          <internalNodes>
            0 -1 771 4.5805089175701141e-02</internalNodes>
          <leafValues>
            -1.5606379508972168e-01 1.6436691582202911e-01</leafValues></_>
        <_>
          <internalNodes>
            0 -1 508 3.0380189418792725e-02</internalNodes>
          <leafValues>
            -2.4094246327877045e-01 1.1909513920545578e-01</leafValues></_>
        <_>
          <internalNodes>
            0 -1 654 2.4102378636598587e-02</internalNodes>
          <leafValues>
            -1.8425048887729645e-01 1.4044407010078430e-01</leafValues></_>
        <_>
          <internalNodes>
            0 -1 322 2.9124215245246887e-02</internalNodes>
          <leafValues>
            -2.0343524217605591e-01 1.0787720978260040e-01</leafValues></_>
        <_>
          <internalNodes>
            0 -1 950 1.0463031008839607e-02</internalNodes>
          <leafValues>
            -4.0322202444076538e-01 5.9147316962480545e-02</leafValues></_>
        <_>
          <internalNodes>
            0 -1 247 2.3011308163404465e-02</internalNodes>
          <leafValues>
            -2.1237091720104218e-01 8.1444680690765381e-02</leafValues></_>
        <_>
          <internalNodes>
            0 -1 852 6.5381545573472977e-03</internalNodes>
          <leafValues>
            -5.0904184579849243e-01 3.4518569707870483e-02</leafValues></_>
        <_>
          <internalNodes>
            0 -1 655 3.7643499672412872e-02</internalNodes>
          <leafValues>
            -7.8939676284790039e-02 2.3790813982486725e-01</leafValues></_>
        <_>
          <internalNodes>
            0 -1 567 4.1896510869264603e-02</internalNodes>
          <leafValues>
            -8.5295535624027252e-02 2.1168331801891327e-01</leafValues></_>
        <_>
          <internalNodes>
            0 -1 742 2.0470894873142242e-02</internalNodes>
          <leafValues>
            1.0716185718774796e-01 -2.0652951300144196e-01</leafValues></_>
        <_>
          <internalNodes>
            0 -1 402 1.4027506113052368e-03</internalNodes>
          <leafValues>
            -7.3602467775344849e-01 2.4905599653720856e-02</leafValues></_>
        <_>
          <internalNodes>
            0 -1 527 2.9954493511468172e-03</internalNodes>
          <leafValues>
            3.0362731218338013e-01 -6.2149427831172943e-02</leafValues></_>
        <_>
          <internalNodes>
            0 -1 4 7.5063094496726990e-02</internalNodes>
          <leafValues>
            4.0125664323568344e-02 -4.5190158486366272e-01</leafValues></_>
        <_>
          <internalNodes>
            0 -1 807 1.0521518066525459e-02</internalNodes>
          <leafValues>
            -2.4847726523876190e-01 7.0825882256031036e-02</leafValues></_>
        <_>
          <internalNodes>
            0 -1 148 2.3470703512430191e-02</internalNodes>
          <leafValues>
            8.1566400825977325e-02 -2.0585305988788605e-01</leafValues></_>
        <_>
          <internalNodes>
            0 -1 107 7.9823002219200134e-02</internalNodes>
          <leafValues>
            3.6994185298681259e-02 -4.2809665203094482e-01</leafValues></_>
        <_>
          <internalNodes>
            0 -1 927 1.4472812414169312e-02</internalNodes>
          <leafValues>
            9.5622077584266663e-02 -1.8032944202423096e-01</leafValues></_>
        <_>
          <internalNodes>
            0 -1 617 5.0942050293087959e-03</internalNodes>
          <leafValues>
            -3.7252232432365417e-01 5.2412170916795731e-02</leafValues></_>
        <_>
          <internalNodes>
            0 -1 461 2.2638186812400818e-02</internalNodes>
          <leafValues>
            7.2812862694263458e-02 -2.3140063881874084e-01</leafValues></_>
        <_>
          <internalNodes>
            0 -1 659 5.6375827640295029e-02</internalNodes>
          <leafValues>
            2.2983666509389877e-02 -6.3486945629119873e-01</leafValues></_>
        <_>
          <internalNodes>
            0 -1 722 2.9295733198523521e-02</internalNodes>
          <leafValues>
            3.0062781646847725e-02 -4.3563795089721680e-01</leafValues></_>
        <_>
          <internalNodes>
            0 -1 796 1.0464916005730629e-02</internalNodes>
          <leafValues>
            -2.5526571273803711e-01 5.8113381266593933e-02</leafValues></_>
        <_>
          <internalNodes>
            0 -1 832 9.4011850655078888e-02</internalNodes>
          <leafValues>
            -3.8160055875778198e-02 4.2972713708877563e-01</leafValues></_>
        <_>
          <internalNodes>
            0 -1 142 3.8589082658290863e-02</internalNodes>
          <leafValues>
            9.2546455562114716e-02 -1.6867898404598236e-01</leafValues></_>
        <_>
          <internalNodes>
            0 -1 677 3.0705539509654045e-02</internalNodes>
          <leafValues>
            -2.3031665384769440e-01 6.2977612018585205e-02</leafValues></_>
        <_>
          <internalNodes>
            0 -1 599 2.5037234649062157e-02</internalNodes>
          <leafValues>
            2.0231463015079498e-01 -7.9751491546630859e-02</leafValues></_>
        <_>
          <internalNodes>
            0 -1 60 2.2015295922756195e-02</internalNodes>
          <leafValues>
            -1.6803659498691559e-01 8.2259200513362885e-02</leafValues></_>
        <_>
          <internalNodes>
            0 -1 126 3.2295051496475935e-03</internalNodes>
          <leafValues>
            -5.0336521863937378e-01 2.8710529208183289e-02</leafValues></_>
        <_>
          <internalNodes>
            0 -1 392 3.7636339664459229e-02</internalNodes>
          <leafValues>
            3.4115806221961975e-02 -3.9675951004028320e-01</leafValues></_>
        <_>
          <internalNodes>
            0 -1 104 3.2603028230369091e-03</internalNodes>
          <leafValues>
            -6.0149359703063965e-01 2.0498000085353851e-02</leafValues></_>
        <_>
          <internalNodes>
            0 -1 143 5.8148574084043503e-02</internalNodes>
          <leafValues>
            -2.2671667858958244e-02 6.8890929222106934e-01</leafValues></_>
        <_>
          <internalNodes>
            0 -1 798 1.9558161497116089e-02</internalNodes>
          <leafValues>
            -2.5407344102859497e-01 5.8254268020391464e-02</leafValues></_>
        <_>
          <internalNodes>
            0 -1 529 2.9330756515264511e-02</internalNodes>
          <leafValues>
            1.2396284937858582e-01 -1.2757375836372375e-01</leafValues></_>
        <_>
          <internalNodes>
            0 -1 403 1.5014731325209141e-03</internalNodes>
          <leafValues>
            -6.1192739009857178e-01 2.3024199530482292e-02</leafValues></_>
        <_>
          <internalNodes>
            0 -1 94 1.2985542416572571e-03</internalNodes>
          <leafValues>
            -6.8962645530700684e-01 1.6643846407532692e-02</leafValues></_>
        <_>
          <internalNodes>
            0 -1 279 5.0629666075110435e-03</internalNodes>
          <leafValues>
            1.9521221518516541e-01 -7.3486939072608948e-02</leafValues></_>
        <_>
          <internalNodes>
            0 -1 533 1.6827446222305298e-01</internalNodes>
          <leafValues>
            1.4394596219062805e-02 -8.9647424221038818e-01</leafValues></_>
        <_>
          <internalNodes>
            0 -1 552 7.1420927997678518e-04</internalNodes>
          <leafValues>
            -5.1440799236297607e-01 2.1209113299846649e-02</leafValues></_>
        <_>
          <internalNodes>
            0 -1 389 1.0861676186323166e-02</internalNodes>
          <leafValues>
            1.0403475165367126e-01 -1.2995518743991852e-01</leafValues></_>
        <_>
          <internalNodes>
            0 -1 364 4.0069673210382462e-02</internalNodes>
          <leafValues>
            -4.3713323771953583e-02 3.3596977591514587e-01</leafValues></_>
        <_>
          <internalNodes>
            0 -1 43 3.4118302166461945e-02</internalNodes>
          <leafValues>
            4.6047285199165344e-02 -3.1763258576393127e-01</leafValues></_>
        <_>
          <internalNodes>
            0 -1 262 1.5703525394201279e-02</internalNodes>
          <leafValues>
            -1.1771680414676666e-01 1.1335914582014084e-01</leafValues></_>
        <_>
          <internalNodes>
            0 -1 887 1.0618790984153748e-02</internalNodes>
          <leafValues>
            -4.4469141960144043e-01 2.7560960501432419e-02</leafValues></_>
        <_>
          <internalNodes>
            0 -1 484 2.6278220117092133e-02</internalNodes>
          <leafValues>
            9.5362618565559387e-02 -1.5053209662437439e-01</leafValues></_>
        <_>
          <internalNodes>
            0 -1 507 5.9440754354000092e-02</internalNodes>
          <leafValues>
            2.1697992458939552e-02 -5.7314366102218628e-01</leafValues></_>
        <_>
          <internalNodes>
            0 -1 942 4.8290394246578217e-02</internalNodes>
          <leafValues>
            6.3092172145843506e-02 -1.9401662051677704e-01</leafValues></_>
        <_>
          <internalNodes>
            0 -1 586 3.2362937927246094e-02</internalNodes>
          <leafValues>
            -9.8423413932323456e-02 1.4735020697116852e-01</leafValues></_>
        <_>
          <internalNodes>
            0 -1 102 5.7393290102481842e-02</internalNodes>
          <leafValues>
            -8.8460691273212433e-02 1.5545889735221863e-01</leafValues></_>
        <_>
          <internalNodes>
            0 -1 660 9.6069741994142532e-03</internalNodes>
          <leafValues>
            -6.3445264101028442e-01 2.2484639659523964e-02</leafValues></_>
        <_>
          <internalNodes>
            0 -1 553 3.9096251130104065e-03</internalNodes>
          <leafValues>
            3.2559412717819214e-01 -4.5465536415576935e-02</leafValues></_>
        <_>
          <internalNodes>
            0 -1 393 3.1659849919378757e-03</internalNodes>
          <leafValues>
            -7.8222584724426270e-01 2.0818565040826797e-02</leafValues></_>
        <_>
          <internalNodes>
            0 -1 39 5.2945483475923538e-03</internalNodes>
          <leafValues>
            2.2361296415328979e-01 -6.1328835785388947e-02</leafValues></_>
        <_>
          <internalNodes>
            0 -1 897 1.4515174552798271e-02</internalNodes>
          <leafValues>
            -1.4525535702705383e-01 9.6694447100162506e-02</leafValues></_>
        <_>
          <internalNodes>
            0 -1 4 1.8839253112673759e-02</internalNodes>
          <leafValues>
            1.6945587098598480e-01 -8.0782666802406311e-02</leafValues></_>
        <_>
          <internalNodes>
            0 -1 597 5.1397725939750671e-02</internalNodes>
          <leafValues>
            -4.0046989917755127e-02 3.2913199067115784e-01</leafValues></_>
        <_>
          <internalNodes>
            0 -1 597 1.4074835926294327e-02</internalNodes>
          <leafValues>
            1.5154850482940674e-01 -8.6665652692317963e-02</leafValues></_>
        <_>
          <internalNodes>
            0 -1 776 5.8329720050096512e-03</internalNodes>
          <leafValues>
            -4.6000576019287109e-01 2.8479183092713356e-02</leafValues></_>
        <_>
          <internalNodes>
            0 -1 770 8.3415538072586060e-02</internalNodes>
          <leafValues>
            -4.9777675420045853e-02 2.4008132517337799e-01</leafValues></_>
        <_>
          <internalNodes>
            0 -1 41 4.2743392288684845e-02</internalNodes>
          <leafValues>
            1.0597727447748184e-01 -1.4409588277339935e-01</leafValues></_>
        <_>
          <internalNodes>
            0 -1 850 9.7264125943183899e-02</internalNodes>
          <leafValues>
            1.8421340733766556e-02 -6.5246593952178955e-01</leafValues></_>
        <_>
          <internalNodes>
            0 -1 330 5.3117558360099792e-02</internalNodes>
          <leafValues>
            -9.6606843173503876e-02 1.4327824115753174e-01</leafValues></_>
        <_>
          <internalNodes>
            0 -1 829 7.9679429531097412e-02</internalNodes>
          <leafValues>
            2.7794623747467995e-02 -4.6259534358978271e-01</leafValues></_>
        <_>
          <internalNodes>
            0 -1 664 1.2248846888542175e-01</internalNodes>
          <leafValues>
            -2.7834605425596237e-02 5.5605876445770264e-01</leafValues></_>
        <_>
          <internalNodes>
            0 -1 410 4.7873094677925110e-02</internalNodes>
          <leafValues>
            -2.9930995777249336e-02 4.0709224343299866e-01</leafValues></_>
        <_>
          <internalNodes>
            0 -1 809 1.9225743599236012e-03</internalNodes>
          <leafValues>
            -8.6212772130966187e-01 1.4011748135089874e-02</leafValues></_>
        <_>
          <internalNodes>
            0 -1 517 4.8704601824283600e-02</internalNodes>
          <leafValues>
            -9.0055510401725769e-02 1.2620159983634949e-01</leafValues></_>
        <_>
          <internalNodes>
            0 -1 620 4.1482128202915192e-02</internalNodes>
          <leafValues>
            8.5555143654346466e-02 -1.6970300674438477e-01</leafValues></_>
        <_>
          <internalNodes>
            0 -1 634 1.1717876419425011e-02</internalNodes>
          <leafValues>
            -2.3402717709541321e-01 4.9117747694253922e-02</leafValues></_>
        <_>
          <internalNodes>
            0 -1 431 7.4912793934345245e-02</internalNodes>
          <leafValues>
            -2.5021156296133995e-02 4.1947701573371887e-01</leafValues></_>
        <_>
          <internalNodes>
            0 -1 772 3.1923640519380569e-02</internalNodes>
          <leafValues>
            5.5425904691219330e-02 -2.3312805593013763e-01</leafValues></_>
        <_>
          <internalNodes>
            0 -1 326 1.1615536175668240e-02</internalNodes>
          <leafValues>
            -1.6119617223739624e-01 7.7477030456066132e-02</leafValues></_>
        <_>
          <internalNodes>
            0 -1 593 5.9065073728561401e-03</internalNodes>
          <leafValues>
            2.2480709850788116e-01 -5.8141104876995087e-02</leafValues></_>
        <_>
          <internalNodes>
            0 -1 417 7.0074021816253662e-02</internalNodes>
          <leafValues>
            1.7055064439773560e-02 -7.7016139030456543e-01</leafValues></_>
        <_>
          <internalNodes>
            0 -1 756 6.5329574048519135e-02</internalNodes>
          <leafValues>
            -7.8350618481636047e-02 1.4695040881633759e-01</leafValues></_>
        <_>
          <internalNodes>
            0 -1 237 6.8678508978337049e-04</internalNodes>
          <leafValues>
            -5.6981700658798218e-01 1.9807614386081696e-02</leafValues></_>
        <_>
          <internalNodes>
            0 -1 710 1.0533057898283005e-01</internalNodes>
          <leafValues>
            -3.8755916059017181e-02 3.0490437150001526e-01</leafValues></_>
        <_>
          <internalNodes>
            0 -1 937 9.0319909155368805e-02</internalNodes>
          <leafValues>
            2.1876674145460129e-02 -5.8841240406036377e-01</leafValues></_>
        <_>
          <internalNodes>
            0 -1 574 1.1569641530513763e-01</internalNodes>
          <leafValues>
            2.6671864092350006e-02 -3.8918232917785645e-01</leafValues></_>
        <_>
          <internalNodes>
            0 -1 398 5.0409622490406036e-02</internalNodes>
          <leafValues>
            1.7957577481865883e-02 -5.4188388586044312e-01</leafValues></_>
        <_>
          <internalNodes>
            0 -1 182 7.0857092738151550e-02</internalNodes>
          <leafValues>
            1.0492699220776558e-02 -8.1031292676925659e-01</leafValues></_>
        <_>
          <internalNodes>
            0 -1 554 6.3242408214136958e-04</internalNodes>
          <leafValues>
            4.8217529058456421e-01 -2.6334039866924286e-02</leafValues></_>
        <_>
          <internalNodes>
            0 -1 625 1.9503596704453230e-03</internalNodes>
          <leafValues>
            -6.7385268211364746e-01 2.0555051043629646e-02</leafValues></_>
        <_>
          <internalNodes>
            0 -1 927 8.9700389653444290e-03</internalNodes>
          <leafValues>
            1.2460656464099884e-01 -9.3481019139289856e-02</leafValues></_>
        <_>
          <internalNodes>
            0 -1 877 5.1945209503173828e-02</internalNodes>
          <leafValues>
            7.3827534914016724e-02 -1.7216980457305908e-01</leafValues></_>
        <_>
          <internalNodes>
            0 -1 620 1.2339235842227936e-01</internalNodes>
          <leafValues>
            1.4558129012584686e-02 -7.9410016536712646e-01</leafValues></_>
        <_>
          <internalNodes>
            0 -1 158 1.0550701059401035e-02</internalNodes>
          <leafValues>
            1.3001507520675659e-01 -1.0363750159740448e-01</leafValues></_>
        <_>
          <internalNodes>
            0 -1 767 1.9684091210365295e-02</internalNodes>
          <leafValues>
            8.8746853172779083e-02 -1.2709745764732361e-01</leafValues></_>
        <_>
          <internalNodes>
            0 -1 624 7.0253973826766014e-03</internalNodes>
          <leafValues>
            -2.5037187337875366e-01 4.9368139356374741e-02</leafValues></_>
        <_>
          <internalNodes>
            0 -1 0 8.7485298514366150e-02</internalNodes>
          <leafValues>
            -1.8474908545613289e-02 6.3752198219299316e-01</leafValues></_>
        <_>
          <internalNodes>
            0 -1 145 6.3151754438877106e-02</internalNodes>
          <leafValues>
            2.0633330568671227e-02 -5.7123970985412598e-01</leafValues></_>
        <_>
          <internalNodes>
            0 -1 11 3.0459307134151459e-02</internalNodes>
          <leafValues>
            -7.6055996119976044e-02 1.4697773754596710e-01</leafValues></_>
        <_>
          <internalNodes>
            0 -1 24 2.1541560068726540e-02</internalNodes>
          <leafValues>
            -2.1512122452259064e-01 6.2096018344163895e-02</leafValues></_>
        <_>
          <internalNodes>
            0 -1 203 6.1763776466250420e-03</internalNodes>
          <leafValues>
            2.3014208674430847e-01 -5.0197623670101166e-02</leafValues></_>
        <_>
          <internalNodes>
            0 -1 87 2.7176248840987682e-03</internalNodes>
          <leafValues>
            -4.0200448036193848e-01 2.9296955093741417e-02</leafValues></_></weakClassifiers></_>
    <!-- stage 4 -->
    <_>
      <maxWeakCount>100</maxWeakCount>
      <stageThreshold>-1.3487728834152222e+00</stageThreshold>
      <weakClassifiers>
        <_>
          <internalNodes>
            0 -1 691 6.6263929009437561e-02</internalNodes>
          <leafValues>
            -6.2305027246475220e-01 -1.4835165441036224e-01</leafValues></_>
        <_>
          <internalNodes>
            0 -1 736 1.0484976693987846e-02</internalNodes>
          <leafValues>
            2.2229734063148499e-01 -2.0613493025302887e-01</leafValues></_>
        <_>
          <internalNodes>
            0 -1 755 6.4506545662879944e-02</internalNodes>
          <leafValues>
            -1.2423243373632431e-01 1.9384978711605072e-01</leafValues></_>
        <_>
          <internalNodes>
            0 -1 655 2.2424709051847458e-02</internalNodes>
          <leafValues>
            -1.8913719058036804e-01 1.5755330026149750e-01</leafValues></_>
        <_>
          <internalNodes>
            0 -1 625 3.2772682607173920e-02</internalNodes>
          <leafValues>
            -1.4212566614151001e-01 1.3350231945514679e-01</leafValues></_>
        <_>
          <internalNodes>
            0 -1 779 1.2191750109195709e-02</internalNodes>
          <leafValues>
            -2.4492852389812469e-01 9.2409819364547729e-02</leafValues></_>
        <_>
          <internalNodes>
            0 -1 181 5.6071735918521881e-02</internalNodes>
          <leafValues>
            -6.6403031349182129e-02 2.3728170990943909e-01</leafValues></_>
        <_>
          <internalNodes>
            0 -1 674 2.1841086447238922e-02</internalNodes>
          <leafValues>
            -1.5171428024768829e-01 1.1052474379539490e-01</leafValues></_>
        <_>
          <internalNodes>
            0 -1 102 2.3138713091611862e-02</internalNodes>
          <leafValues>
            -2.4634014070034027e-01 7.9854086041450500e-02</leafValues></_>
        <_>
          <internalNodes>
            0 -1 771 7.9387456178665161e-02</internalNodes>
          <leafValues>
            -8.1418156623840332e-02 2.3046578466892242e-01</leafValues></_>
        <_>
          <internalNodes>
            0 -1 172 6.0800004750490189e-02</internalNodes>
          <leafValues>
            9.6321985125541687e-02 -1.9196312129497528e-01</leafValues></_>
        <_>
          <internalNodes>
            0 -1 663 3.6145187914371490e-02</internalNodes>
          <leafValues>
            -1.8938401341438293e-01 8.4000512957572937e-02</leafValues></_>
        <_>
          <internalNodes>
            0 -1 920 6.7837829701602459e-03</internalNodes>
          <leafValues>
            -3.3176565170288086e-01 4.8710890114307404e-02</leafValues></_>
        <_>
          <internalNodes>
            0 -1 887 1.5457663685083389e-02</internalNodes>
          <leafValues>
            -3.5179707407951355e-01 4.6433903276920319e-02</leafValues></_>
        <_>
          <internalNodes>
            0 -1 960 4.9793377518653870e-02</internalNodes>
          <leafValues>
            5.9967365115880966e-02 -3.2176545262336731e-01</leafValues></_>
        <_>
          <internalNodes>
            0 -1 367 4.3450281023979187e-02</internalNodes>
          <leafValues>
            -6.8377293646335602e-02 3.2839733362197876e-01</leafValues></_>
        <_>
          <internalNodes>
            0 -1 783 8.8676720857620239e-02</internalNodes>
          <leafValues>
            -7.0153743028640747e-02 2.8973197937011719e-01</leafValues></_>
        <_>
          <internalNodes>
            0 -1 815 3.3511803485453129e-03</internalNodes>
          <leafValues>
            -6.6635060310363770e-01 2.6147261261940002e-02</leafValues></_>
        <_>
          <internalNodes>
            0 -1 550 3.3893384039402008e-02</internalNodes>
          <leafValues>
            5.1138732582330704e-02 -2.6906171441078186e-01</leafValues></_>
        <_>
          <internalNodes>
            0 -1 671 5.8120504021644592e-02</internalNodes>
          <leafValues>
            4.9283891916275024e-02 -2.9874208569526672e-01</leafValues></_>
        <_>
          <internalNodes>
            0 -1 268 3.5431422293186188e-03</internalNodes>
          <leafValues>
            2.8210696578025818e-01 -5.6614179164171219e-02</leafValues></_>
        <_>
          <internalNodes>
            0 -1 213 9.3084454536437988e-02</internalNodes>
          <leafValues>
            4.4584594666957855e-02 -2.9378396272659302e-01</leafValues></_>
        <_>
          <internalNodes>
            0 -1 706 5.9832125902175903e-02</internalNodes>
          <leafValues>
            -9.2021398246288300e-02 1.5336327254772186e-01</leafValues></_>
        <_>
          <internalNodes>
            0 -1 764 7.5425460934638977e-02</internalNodes>
          <leafValues>
            4.2009592056274414e-02 -3.7479111552238464e-01</leafValues></_>
        <_>
          <internalNodes>
            0 -1 137 3.0577853322029114e-02</internalNodes>
          <leafValues>
            -9.4086237251758575e-02 1.4415451884269714e-01</leafValues></_>
        <_>
          <internalNodes>
            0 -1 379 3.8436576724052429e-02</internalNodes>
          <leafValues>
            2.5562014430761337e-02 -5.4734551906585693e-01</leafValues></_>
        <_>
          <internalNodes>
            0 -1 227 3.9462475106120110e-03</internalNodes>
          <leafValues>
            4.5797401666641235e-01 -3.0752923339605331e-02</leafValues></_>
        <_>
          <internalNodes>
            0 -1 922 9.2108219861984253e-02</internalNodes>
          <leafValues>
            1.5730399638414383e-02 -8.1464880704879761e-01</leafValues></_>
        <_>
          <internalNodes>
            0 -1 624 3.6013349890708923e-02</internalNodes>
          <leafValues>
            -6.2352772802114487e-02 2.0109492540359497e-01</leafValues></_>
        <_>
          <internalNodes>
            0 -1 849 1.4618806540966034e-02</internalNodes>
          <leafValues>
            -3.0569729208946228e-01 4.3827772140502930e-02</leafValues></_>
        <_>
          <internalNodes>
            0 -1 647 7.6067626476287842e-02</internalNodes>
          <leafValues>
            -1.8179541453719139e-02 7.2025132179260254e-01</leafValues></_>
        <_>
          <internalNodes>
            0 -1 276 7.3825910687446594e-02</internalNodes>
          <leafValues>
            -6.0417972505092621e-02 2.0712229609489441e-01</leafValues></_>
        <_>
          <internalNodes>
            0 -1 3 1.0594929754734039e-01</internalNodes>
          <leafValues>
            2.1009925752878189e-02 -7.2754889726638794e-01</leafValues></_>
        <_>
          <internalNodes>
            0 -1 505 8.0133806914091110e-03</internalNodes>
          <leafValues>
            2.8949165344238281e-01 -4.4321611523628235e-02</leafValues></_>
        <_>
          <internalNodes>
            0 -1 355 4.2959254235029221e-02</internalNodes>
          <leafValues>
            -3.0557114630937576e-02 3.6378148198127747e-01</leafValues></_>
        <_>
          <internalNodes>
            0 -1 269 1.9925278611481190e-03</internalNodes>
          <leafValues>
            2.1950899064540863e-01 -4.8462972044944763e-02</leafValues></_>
        <_>
          <internalNodes>
            0 -1 521 2.2910963743925095e-02</internalNodes>
          <leafValues>
            -1.7878437042236328e-01 5.9975381940603256e-02</leafValues></_>
        <_>
          <internalNodes>
            0 -1 573 3.0502235516905785e-02</internalNodes>
          <leafValues>
            -8.5594087839126587e-02 1.4993983507156372e-01</leafValues></_>
        <_>
          <internalNodes>
            0 -1 939 3.1392961740493774e-02</internalNodes>
          <leafValues>
            -5.9055078774690628e-02 2.0794418454170227e-01</leafValues></_>
        <_>
          <internalNodes>
            0 -1 411 5.7450294494628906e-02</internalNodes>
          <leafValues>
            -4.7301433980464935e-02 2.8172102570533752e-01</leafValues></_>
        <_>
          <internalNodes>
            0 -1 942 5.5798418819904327e-02</internalNodes>
          <leafValues>
            4.8548966646194458e-02 -2.3794788122177124e-01</leafValues></_>
        <_>
          <internalNodes>
            0 -1 790 1.3571324758231640e-02</internalNodes>
          <leafValues>
            2.8899997472763062e-01 -5.3384792059659958e-02</leafValues></_>
        <_>
          <internalNodes>
            0 -1 901 3.4953035414218903e-02</internalNodes>
          <leafValues>
            -1.4519344270229340e-01 9.6621997654438019e-02</leafValues></_>
        <_>
          <internalNodes>
            0 -1 109 4.3354630470275879e-03</internalNodes>
          <leafValues>
            -6.5766656398773193e-01 1.6668332740664482e-02</leafValues></_>
        <_>
          <internalNodes>
            0 -1 812 4.3813362717628479e-03</internalNodes>
          <leafValues>
            -5.8335828781127930e-01 1.6703626140952110e-02</leafValues></_>
        <_>
          <internalNodes>
            0 -1 327 8.3991780877113342e-02</internalNodes>
          <leafValues>
            -3.5991087555885315e-02 3.4283673763275146e-01</leafValues></_>
        <_>
          <internalNodes>
            0 -1 582 2.1520411595702171e-02</internalNodes>
          <leafValues>
            -1.0120616853237152e-01 1.2271188944578171e-01</leafValues></_>
        <_>
          <internalNodes>
            0 -1 555 2.5285943411290646e-03</internalNodes>
          <leafValues>
            3.3295905590057373e-01 -3.6429502069950104e-02</leafValues></_>
        <_>
          <internalNodes>
            0 -1 799 1.4179268851876259e-02</internalNodes>
          <leafValues>
            9.2736177146434784e-02 -1.2520572543144226e-01</leafValues></_>
        <_>
          <internalNodes>
            0 -1 951 5.0905864685773849e-02</internalNodes>
          <leafValues>
            4.7118246555328369e-02 -2.4288436770439148e-01</leafValues></_>
        <_>
          <internalNodes>
            0 -1 99 3.3704079687595367e-02</internalNodes>
          <leafValues>
            -1.1425300687551498e-01 1.1266935616731644e-01</leafValues></_>
        <_>
          <internalNodes>
            0 -1 890 1.6376322135329247e-02</internalNodes>
          <leafValues>
            -1.2717626988887787e-01 9.2493496835231781e-02</leafValues></_>
        <_>
          <internalNodes>
            0 -1 697 3.9051122963428497e-02</internalNodes>
          <leafValues>
            3.2407004386186600e-02 -4.4000050425529480e-01</leafValues></_>
        <_>
          <internalNodes>
            0 -1 825 5.8867493644356728e-03</internalNodes>
          <leafValues>
            -4.8171770572662354e-01 2.1122738718986511e-02</leafValues></_>
        <_>
          <internalNodes>
            0 -1 511 4.5112937688827515e-02</internalNodes>
          <leafValues>
            1.5403656288981438e-02 -6.6224211454391479e-01</leafValues></_>
        <_>
          <internalNodes>
            0 -1 745 4.3726228177547455e-02</internalNodes>
          <leafValues>
            2.6276629418134689e-02 -3.6634558439254761e-01</leafValues></_>
        <_>
          <internalNodes>
            0 -1 791 1.1660783551633358e-02</internalNodes>
          <leafValues>
            1.3551259040832520e-01 -8.1885829567909241e-02</leafValues></_>
        <_>
          <internalNodes>
            0 -1 570 1.8928730860352516e-03</internalNodes>
          <leafValues>
            -5.2076315879821777e-01 2.2841235622763634e-02</leafValues></_>
        <_>
          <internalNodes>
            0 -1 649 1.3466319441795349e-01</internalNodes>
          <leafValues>
            1.3921348378062248e-02 -6.4251291751861572e-01</leafValues></_>
        <_>
          <internalNodes>
            0 -1 75 1.3961426448076963e-03</internalNodes>
          <leafValues>
            3.5435640811920166e-01 -3.1740054488182068e-02</leafValues></_>
        <_>
          <internalNodes>
            0 -1 318 4.1036520153284073e-02</internalNodes>
          <leafValues>
            -7.2925806045532227e-02 1.5489178895950317e-01</leafValues></_>
        <_>
          <internalNodes>
            0 -1 462 3.5195328295230865e-02</internalNodes>
          <leafValues>
            6.3638277351856232e-02 -2.0536854863166809e-01</leafValues></_>
        <_>
          <internalNodes>
            0 -1 490 6.3823431730270386e-02</internalNodes>
          <leafValues>
            -3.0251303687691689e-02 4.1872102022171021e-01</leafValues></_>
        <_>
          <internalNodes>
            0 -1 645 4.0690384805202484e-02</internalNodes>
          <leafValues>
            4.4601328670978546e-02 -2.7085244655609131e-01</leafValues></_>
        <_>
          <internalNodes>
            0 -1 836 7.1062922477722168e-02</internalNodes>
          <leafValues>
            3.8236673921346664e-02 -2.7675488591194153e-01</leafValues></_>
        <_>
          <internalNodes>
            0 -1 454 4.7530423849821091e-02</internalNodes>
          <leafValues>
            -7.7755466103553772e-02 1.4439095556735992e-01</leafValues></_>
        <_>
          <internalNodes>
            0 -1 737 2.0080646499991417e-03</internalNodes>
          <leafValues>
            -5.4548007249832153e-01 1.8884532153606415e-02</leafValues></_>
        <_>
          <internalNodes>
            0 -1 272 1.1136563494801521e-02</internalNodes>
          <leafValues>
            1.3492614030838013e-01 -8.9158743619918823e-02</leafValues></_>
        <_>
          <internalNodes>
            0 -1 795 1.5343202278017998e-02</internalNodes>
          <leafValues>
            -1.6333717107772827e-01 7.4013628065586090e-02</leafValues></_>
        <_>
          <internalNodes>
            0 -1 89 1.2050986289978027e-02</internalNodes>
          <leafValues>
            2.9851788282394409e-01 -3.5975340753793716e-02</leafValues></_>
        <_>
          <internalNodes>
            0 -1 878 5.3529953584074974e-03</internalNodes>
          <leafValues>
            -4.9077084660530090e-01 2.6771338656544685e-02</leafValues></_>
        <_>
          <internalNodes>
            0 -1 710 9.0981252491474152e-02</internalNodes>
          <leafValues>
            -5.1197309046983719e-02 2.6464524865150452e-01</leafValues></_>
        <_>
          <internalNodes>
            0 -1 952 7.3463926091790199e-03</internalNodes>
          <leafValues>
            -3.8516420125961304e-01 3.0371494591236115e-02</leafValues></_>
        <_>
          <internalNodes>
            0 -1 281 1.4319207984954119e-03</internalNodes>
          <leafValues>
            4.3284150958061218e-01 -2.5391386821866035e-02</leafValues></_>
        <_>
          <internalNodes>
            0 -1 487 9.9883154034614563e-02</internalNodes>
          <leafValues>
            -4.5751594007015228e-02 2.0509439706802368e-01</leafValues></_>
        <_>
          <internalNodes>
            0 -1 8 1.2616769969463348e-01</internalNodes>
          <leafValues>
            2.1490657702088356e-02 -4.9834117293357849e-01</leafValues></_>
        <_>
          <internalNodes>
            0 -1 902 1.3272431679069996e-02</internalNodes>
          <leafValues>
            -9.9699981510639191e-02 9.4994850456714630e-02</leafValues></_>
        <_>
          <internalNodes>
            0 -1 766 1.2276010587811470e-02</internalNodes>
          <leafValues>
            1.1169730871915817e-01 -1.0687864571809769e-01</leafValues></_>
        <_>
          <internalNodes>
            0 -1 324 3.1237141229212284e-03</internalNodes>
          <leafValues>
            -3.8211807608604431e-01 2.7094060555100441e-02</leafValues></_>
        <_>
          <internalNodes>
            0 -1 805 1.0428614914417267e-01</internalNodes>
          <leafValues>
            1.3085354119539261e-02 -6.3953781127929688e-01</leafValues></_>
        <_>
          <internalNodes>
            0 -1 37 1.5433548390865326e-01</internalNodes>
          <leafValues>
            -2.4560391902923584e-02 4.5865142345428467e-01</leafValues></_>
        <_>
          <internalNodes>
            0 -1 154 2.3741107434034348e-02</internalNodes>
          <leafValues>
            -1.5843398869037628e-01 7.1423396468162537e-02</leafValues></_>
        <_>
          <internalNodes>
            0 -1 286 5.0301556475460529e-03</internalNodes>
          <leafValues>
            2.0583164691925049e-01 -5.4797638207674026e-02</leafValues></_>
        <_>
          <internalNodes>
            0 -1 808 7.1312529034912586e-03</internalNodes>
          <leafValues>
            -3.0106523633003235e-01 4.1590929031372070e-02</leafValues></_>
        <_>
          <internalNodes>
            0 -1 602 6.8692982196807861e-02</internalNodes>
          <leafValues>
            1.7550304532051086e-02 -5.3573250770568848e-01</leafValues></_>
        <_>
          <internalNodes>
            0 -1 456 1.1141732335090637e-02</internalNodes>
          <leafValues>
            1.4993725717067719e-01 -7.1618735790252686e-02</leafValues></_>
        <_>
          <internalNodes>
            0 -1 243 3.2564792782068253e-02</internalNodes>
          <leafValues>
            -3.6489430814981461e-02 2.9021307826042175e-01</leafValues></_>
        <_>
          <internalNodes>
            0 -1 785 4.3246656656265259e-02</internalNodes>
          <leafValues>
            1.7918800935149193e-02 -5.6051093339920044e-01</leafValues></_>
        <_>
          <internalNodes>
            0 -1 621 1.5978844836354256e-02</internalNodes>
          <leafValues>
            1.8147322535514832e-01 -5.8594916015863419e-02</leafValues></_>
        <_>
          <internalNodes>
            0 -1 307 4.6167321503162384e-02</internalNodes>
          <leafValues>
            3.0907500535249710e-02 -3.2939034700393677e-01</leafValues></_>
        <_>
          <internalNodes>
            0 -1 402 2.1629549562931061e-02</internalNodes>
          <leafValues>
            -1.0329505056142807e-01 1.0455424338579178e-01</leafValues></_>
        <_>
          <internalNodes>
            0 -1 807 2.5588586926460266e-02</internalNodes>
          <leafValues>
            7.1279622614383698e-02 -1.4086166024208069e-01</leafValues></_>
        <_>
          <internalNodes>
            0 -1 648 4.4247306883335114e-02</internalNodes>
          <leafValues>
            -3.8159642368555069e-02 2.9017731547355652e-01</leafValues></_>
        <_>
          <internalNodes>
            0 -1 279 3.8424250669777393e-03</internalNodes>
          <leafValues>
            1.9969406723976135e-01 -4.7646302729845047e-02</leafValues></_>
        <_>
          <internalNodes>
            0 -1 434 7.3851183056831360e-02</internalNodes>
          <leafValues>
            9.0593257918953896e-03 -9.3165630102157593e-01</leafValues></_>
        <_>
          <internalNodes>
            0 -1 699 1.3707078993320465e-02</internalNodes>
          <leafValues>
            -1.3393728435039520e-01 7.0594131946563721e-02</leafValues></_>
        <_>
          <internalNodes>
            0 -1 677 4.8427373170852661e-02</internalNodes>
          <leafValues>
            -1.0129982978105545e-01 9.9221929907798767e-02</leafValues></_>
        <_>
          <internalNodes>
            0 -1 842 7.8530654311180115e-02</internalNodes>
          <leafValues>
            2.8879987075924873e-02 -3.6578640341758728e-01</leafValues></_>
        <_>
          <internalNodes>
            0 -1 208 9.3204611912369728e-03</internalNodes>
          <leafValues>
            2.0229358971118927e-01 -5.6225582957267761e-02</leafValues></_>
        <_>
          <internalNodes>
            0 -1 334 2.1763375028967857e-02</internalNodes>
          <leafValues>
            7.3049955070018768e-02 -1.3104940950870514e-01</leafValues></_></weakClassifiers></_>
    <!-- stage 5 -->
    <_>
      <maxWeakCount>100</maxWeakCount>
      <stageThreshold>-1.2499960660934448e+00</stageThreshold>
      <weakClassifiers>
        <_>
          <internalNodes>
            0 -1 759 4.1807917878031731e-03</internalNodes>
          <leafValues>
            -6.0897435992956161e-02 -5.6268012523651123e-01</leafValues></_>
        <_>
          <internalNodes>
            0 -1 691 4.3798834085464478e-02</internalNodes>
          <leafValues>
            -2.8307378292083740e-01 8.0634616315364838e-02</leafValues></_>
        <_>
          <internalNodes>
            0 -1 780 1.5610493719577789e-02</internalNodes>
          <leafValues>
            -3.4375029802322388e-01 7.9409837722778320e-02</leafValues></_>
        <_>
          <internalNodes>
            0 -1 783 5.2482347935438156e-02</internalNodes>
          <leafValues>
            -1.5338090062141418e-01 1.9731900095939636e-01</leafValues></_>
        <_>
          <internalNodes>
            0 -1 797 1.4753354713320732e-02</internalNodes>
          <leafValues>
            -2.2576382756233215e-01 1.0712123662233353e-01</leafValues></_>
        <_>
          <internalNodes>
            0 -1 403 5.8380976319313049e-02</internalNodes>
          <leafValues>
            -4.6945914626121521e-02 4.4677025079727173e-01</leafValues></_>
        <_>
          <internalNodes>
            0 -1 485 1.4920733869075775e-01</internalNodes>
          <leafValues>
            2.2553987801074982e-02 -7.2302401065826416e-01</leafValues></_>
        <_>
          <internalNodes>
            0 -1 625 5.4954301565885544e-02</internalNodes>
          <leafValues>
            -7.7909722924232483e-02 2.1780964732170105e-01</leafValues></_>
        <_>
          <internalNodes>
            0 -1 541 3.1945854425430298e-02</internalNodes>
          <leafValues>
            -7.9159215092658997e-02 2.1929737925529480e-01</leafValues></_>
        <_>
          <internalNodes>
            0 -1 522 5.2222833037376404e-02</internalNodes>
          <leafValues>
            -1.2877202033996582e-01 1.5060009062290192e-01</leafValues></_>
        <_>
          <internalNodes>
            0 -1 942 8.8855382055044174e-03</internalNodes>
          <leafValues>
            -7.3975396156311035e-01 1.0455301962792873e-02</leafValues></_>
        <_>
          <internalNodes>
            0 -1 175 2.1510096266865730e-02</internalNodes>
          <leafValues>
            6.5242908895015717e-02 -2.4614757299423218e-01</leafValues></_>
        <_>
          <internalNodes>
            0 -1 191 2.0300692413002253e-03</internalNodes>
          <leafValues>
            -3.9509770274162292e-01 4.0445294231176376e-02</leafValues></_>
        <_>
          <internalNodes>
            0 -1 204 1.0218773968517780e-02</internalNodes>
          <leafValues>
            1.9150722026824951e-01 -1.0589689016342163e-01</leafValues></_>
        <_>
          <internalNodes>
            0 -1 841 9.4158025458455086e-03</internalNodes>
          <leafValues>
            -5.1197552680969238e-01 2.7618082240223885e-02</leafValues></_>
        <_>
          <internalNodes>
            0 -1 950 8.2228342071175575e-03</internalNodes>
          <leafValues>
            -4.6681395173072815e-01 3.4273099154233932e-02</leafValues></_>
        <_>
          <internalNodes>
            0 -1 654 4.1192829608917236e-02</internalNodes>
          <leafValues>
            -7.2131253778934479e-02 2.0991021394729614e-01</leafValues></_>
        <_>
          <internalNodes>
            0 -1 298 4.0800120681524277e-02</internalNodes>
          <leafValues>
            3.6253701895475388e-02 -3.7944176793098450e-01</leafValues></_>
        <_>
          <internalNodes>
            0 -1 323 1.3087585568428040e-01</internalNodes>
          <leafValues>
            1.9384015351533890e-02 -7.1672600507736206e-01</leafValues></_>
        <_>
          <internalNodes>
            0 -1 136 6.5990008413791656e-02</internalNodes>
          <leafValues>
            -3.9313469082117081e-02 4.3723255395889282e-01</leafValues></_>
        <_>
          <internalNodes>
            0 -1 513 4.5164913171902299e-04</internalNodes>
          <leafValues>
            3.3906990289688110e-01 -4.3899212032556534e-02</leafValues></_>
        <_>
          <internalNodes>
            0 -1 953 7.8916903585195541e-03</internalNodes>
          <leafValues>
            -2.9738926887512207e-01 4.8338565975427628e-02</leafValues></_>
        <_>
          <internalNodes>
            0 -1 345 1.2922445312142372e-02</internalNodes>
          <leafValues>
            1.2177835404872894e-01 -1.1823185533285141e-01</leafValues></_>
        <_>
          <internalNodes>
            0 -1 493 1.1201784014701843e-01</internalNodes>
          <leafValues>
            2.1620206534862518e-02 -6.1915308237075806e-01</leafValues></_>
        <_>
          <internalNodes>
            0 -1 898 4.3589778244495392e-02</internalNodes>
          <leafValues>
            2.0663533359766006e-02 -5.8984094858169556e-01</leafValues></_>
        <_>
          <internalNodes>
            0 -1 793 5.5263642221689224e-02</internalNodes>
          <leafValues>
            2.0766220986843109e-02 -6.0641217231750488e-01</leafValues></_>
        <_>
          <internalNodes>
            0 -1 836 2.9080167412757874e-02</internalNodes>
          <leafValues>
            1.6845573484897614e-01 -8.0208830535411835e-02</leafValues></_>
        <_>
          <internalNodes>
            0 -1 718 9.4814650714397430e-02</internalNodes>
          <leafValues>
            -4.6947374939918518e-02 2.9763793945312500e-01</leafValues></_>
        <_>
          <internalNodes>
            0 -1 883 5.4832115769386292e-02</internalNodes>
          <leafValues>
            6.3044153153896332e-02 -2.0487616956233978e-01</leafValues></_>
        <_>
          <internalNodes>
            0 -1 27 4.6106137335300446e-02</internalNodes>
          <leafValues>
            -1.0168639570474625e-01 1.4748966693878174e-01</leafValues></_>
        <_>
          <internalNodes>
            0 -1 423 5.9259340167045593e-02</internalNodes>
          <leafValues>
            8.5374787449836731e-02 -1.5936155617237091e-01</leafValues></_>
        <_>
          <internalNodes>
            0 -1 600 2.1471511572599411e-02</internalNodes>
          <leafValues>
            7.1707688271999359e-02 -1.9171933829784393e-01</leafValues></_>
        <_>
          <internalNodes>
            0 -1 701 9.3016549944877625e-03</internalNodes>
          <leafValues>
            2.8531059622764587e-01 -4.4615264981985092e-02</leafValues></_>
        <_>
          <internalNodes>
            0 -1 922 3.4882999025285244e-03</internalNodes>
          <leafValues>
            -5.5618280172348022e-01 2.6409896090626717e-02</leafValues></_>
        <_>
          <internalNodes>
            0 -1 652 3.9798384532332420e-03</internalNodes>
          <leafValues>
            2.3051275312900543e-01 -6.1661753803491592e-02</leafValues></_>
        <_>
          <internalNodes>
            0 -1 98 4.5047972351312637e-02</internalNodes>
          <leafValues>
            -5.2201729267835617e-02 2.5366050004959106e-01</leafValues></_>
        <_>
          <internalNodes>
            0 -1 241 4.4998541474342346e-02</internalNodes>
          <leafValues>
            -1.4917077124118805e-01 1.0012951493263245e-01</leafValues></_>
        <_>
          <internalNodes>
            0 -1 939 1.5435390174388885e-02</internalNodes>
          <leafValues>
            -1.9019439816474915e-01 7.9473674297332764e-02</leafValues></_>
        <_>
          <internalNodes>
            0 -1 169 5.2484937012195587e-02</internalNodes>
          <leafValues>
            -7.3468640446662903e-02 1.7372840642929077e-01</leafValues></_>
        <_>
          <internalNodes>
            0 -1 683 1.3704180717468262e-02</internalNodes>
          <leafValues>
            -4.5132324099540710e-01 3.3575274050235748e-02</leafValues></_>
        <_>
          <internalNodes>
            0 -1 438 2.1441554650664330e-02</internalNodes>
          <leafValues>
            -9.0535491704940796e-02 1.6191555559635162e-01</leafValues></_>
        <_>
          <internalNodes>
            0 -1 527 3.9627932012081146e-02</internalNodes>
          <leafValues>
            3.3547751605510712e-02 -4.2791542410850525e-01</leafValues></_>
        <_>
          <internalNodes>
            0 -1 257 3.4808754920959473e-02</internalNodes>
          <leafValues>
            2.8826911002397537e-02 -3.7238180637359619e-01</leafValues></_>
        <_>
          <internalNodes>
            0 -1 795 4.3595544993877411e-02</internalNodes>
          <leafValues>
            3.2834056764841080e-02 -3.3261436223983765e-01</leafValues></_>
        <_>
          <internalNodes>
            0 -1 956 1.2569054029881954e-02</internalNodes>
          <leafValues>
            5.5337369441986084e-01 -2.5070505216717720e-02</leafValues></_>
        <_>
          <internalNodes>
            0 -1 442 1.4135277830064297e-02</internalNodes>
          <leafValues>
            -2.8564366698265076e-01 4.7408223152160645e-02</leafValues></_>
        <_>
          <internalNodes>
            0 -1 495 5.0218246877193451e-02</internalNodes>
          <leafValues>
            -3.2178826630115509e-02 3.9284476637840271e-01</leafValues></_>
        <_>
          <internalNodes>
            0 -1 126 9.3726366758346558e-02</internalNodes>
          <leafValues>
            3.0332524329423904e-02 -3.9926764369010925e-01</leafValues></_>
        <_>
          <internalNodes>
            0 -1 109 3.0531469732522964e-02</internalNodes>
          <leafValues>
            -1.5418185293674469e-01 8.8987730443477631e-02</leafValues></_>
        <_>
          <internalNodes>
            0 -1 463 7.3048607446253300e-03</internalNodes>
          <leafValues>
            2.2218754887580872e-01 -5.1482830196619034e-02</leafValues></_>
        <_>
          <internalNodes>
            0 -1 916 6.8539031781256199e-03</internalNodes>
          <leafValues>
            -6.6869068145751953e-01 2.0949911326169968e-02</leafValues></_>
        <_>
          <internalNodes>
            0 -1 108 6.4876223914325237e-03</internalNodes>
          <leafValues>
            -5.0435203313827515e-01 2.4368738755583763e-02</leafValues></_>
        <_>
          <internalNodes>
            0 -1 122 2.2733829915523529e-02</internalNodes>
          <leafValues>
            1.6200800240039825e-01 -8.2903943955898285e-02</leafValues></_>
        <_>
          <internalNodes>
            0 -1 642 1.1572812497615814e-01</internalNodes>
          <leafValues>
            -5.1554407924413681e-02 3.0996602773666382e-01</leafValues></_>
        <_>
          <internalNodes>
            0 -1 794 6.8327292799949646e-02</internalNodes>
          <leafValues>
            4.1946813464164734e-02 -2.4484176933765411e-01</leafValues></_>
        <_>
          <internalNodes>
            0 -1 786 1.5050722286105156e-02</internalNodes>
          <leafValues>
            -1.6230866312980652e-01 7.6748400926589966e-02</leafValues></_>
        <_>
          <internalNodes>
            0 -1 616 3.4808453172445297e-02</internalNodes>
          <leafValues>
            -5.8433800935745239e-02 1.8784917891025543e-01</leafValues></_>
        <_>
          <internalNodes>
            0 -1 740 5.4791674017906189e-02</internalNodes>
          <leafValues>
            -1.1466523259878159e-01 1.1920968443155289e-01</leafValues></_>
        <_>
          <internalNodes>
            0 -1 796 1.5335988253355026e-02</internalNodes>
          <leafValues>
            -1.4978210628032684e-01 7.6947569847106934e-02</leafValues></_>
        <_>
          <internalNodes>
            0 -1 378 6.6244639456272125e-03</internalNodes>
          <leafValues>
            1.4864408969879150e-01 -8.9746885001659393e-02</leafValues></_>
        <_>
          <internalNodes>
            0 -1 349 1.1638469994068146e-02</internalNodes>
          <leafValues>
            3.7470117211341858e-01 -3.6536592990159988e-02</leafValues></_>
        <_>
          <internalNodes>
            0 -1 601 9.0654037892818451e-02</internalNodes>
          <leafValues>
            2.8905428946018219e-02 -4.2150098085403442e-01</leafValues></_>
        <_>
          <internalNodes>
            0 -1 401 1.0010725259780884e-01</internalNodes>
          <leafValues>
            2.3043679073452950e-02 -5.0321710109710693e-01</leafValues></_>
        <_>
          <internalNodes>
            0 -1 15 1.3018675148487091e-02</internalNodes>
          <leafValues>
            9.4101414084434509e-02 -1.5483486652374268e-01</leafValues></_>
        <_>
          <internalNodes>
            0 -1 340 1.1896271258592606e-02</internalNodes>
          <leafValues>
            -1.6737160086631775e-01 7.1975834667682648e-02</leafValues></_>
        <_>
          <internalNodes>
            0 -1 824 2.1487953141331673e-02</internalNodes>
          <leafValues>
            -1.7976061999797821e-01 6.7030675709247589e-02</leafValues></_>
        <_>
          <internalNodes>
            0 -1 723 6.6378768533468246e-03</internalNodes>
          <leafValues>
            3.2604241371154785e-01 -3.8396842777729034e-02</leafValues></_>
        <_>
          <internalNodes>
            0 -1 466 2.5594493374228477e-02</internalNodes>
          <leafValues>
            -1.5503202378749847e-01 8.3773098886013031e-02</leafValues></_>
        <_>
          <internalNodes>
            0 -1 890 6.8979649804532528e-03</internalNodes>
          <leafValues>
            -3.1764703989028931e-01 3.1645566225051880e-02</leafValues></_>
        <_>
          <internalNodes>
            0 -1 204 5.9281988069415092e-04</internalNodes>
          <leafValues>
            6.0222655534744263e-01 -2.1426115185022354e-02</leafValues></_>
        <_>
          <internalNodes>
            0 -1 620 1.9038703292608261e-02</internalNodes>
          <leafValues>
            1.4200067520141602e-01 -7.0152617990970612e-02</leafValues></_>
        <_>
          <internalNodes>
            0 -1 789 2.8755348175764084e-02</internalNodes>
          <leafValues>
            -1.2890523672103882e-01 9.8151378333568573e-02</leafValues></_>
        <_>
          <internalNodes>
            0 -1 605 4.2428806424140930e-02</internalNodes>
          <leafValues>
            7.4962146580219269e-02 -1.7859455943107605e-01</leafValues></_>
        <_>
          <internalNodes>
            0 -1 453 6.0952235013246536e-02</internalNodes>
          <leafValues>
            -6.3316084444522858e-02 2.3883479833602905e-01</leafValues></_>
        <_>
          <internalNodes>
            0 -1 384 5.0629224628210068e-02</internalNodes>
          <leafValues>
            -1.9120054319500923e-02 5.6171542406082153e-01</leafValues></_>
        <_>
          <internalNodes>
            0 -1 19 5.1400057971477509e-02</internalNodes>
          <leafValues>
            3.4683790057897568e-02 -3.3206987380981445e-01</leafValues></_>
        <_>
          <internalNodes>
            0 -1 211 2.8261054307222366e-02</internalNodes>
          <leafValues>
            3.7110012024641037e-02 -2.6583048701286316e-01</leafValues></_>
        <_>
          <internalNodes>
            0 -1 738 8.2131139934062958e-03</internalNodes>
          <leafValues>
            -1.9256308674812317e-01 6.2258992344141006e-02</leafValues></_>
        <_>
          <internalNodes>
            0 -1 689 3.6280214786529541e-02</internalNodes>
          <leafValues>
            2.1292671561241150e-02 -4.5294731855392456e-01</leafValues></_>
        <_>
          <internalNodes>
            0 -1 140 1.0967824608087540e-02</internalNodes>
          <leafValues>
            1.3070730865001678e-01 -8.3408750593662262e-02</leafValues></_>
        <_>
          <internalNodes>
            0 -1 660 1.3523149490356445e-01</internalNodes>
          <leafValues>
            2.3093122988939285e-02 -5.4745090007781982e-01</leafValues></_>
        <_>
          <internalNodes>
            0 -1 37 1.7478780448436737e-01</internalNodes>
          <leafValues>
            -2.2429784759879112e-02 6.0978668928146362e-01</leafValues></_>
        <_>
          <internalNodes>
            0 -1 300 2.0919898524880409e-03</internalNodes>
          <leafValues>
            8.8665419816970825e-01 -1.1124720796942711e-02</leafValues></_>
        <_>
          <internalNodes>
            0 -1 155 1.2865804135799408e-02</internalNodes>
          <leafValues>
            -1.4546078443527222e-01 7.8404083847999573e-02</leafValues></_>
        <_>
          <internalNodes>
            0 -1 185 4.0752608329057693e-03</internalNodes>
          <leafValues>
            -2.5495329499244690e-01 3.8077205419540405e-02</leafValues></_>
        <_>
          <internalNodes>
            0 -1 461 1.6565034165978432e-02</internalNodes>
          <leafValues>
            7.9087771475315094e-02 -1.3614468276500702e-01</leafValues></_>
        <_>
          <internalNodes>
            0 -1 352 5.4235095158219337e-03</internalNodes>
          <leafValues>
            2.8026255965232849e-01 -4.1637085378170013e-02</leafValues></_>
        <_>
          <internalNodes>
            0 -1 764 7.4794091284275055e-02</internalNodes>
          <leafValues>
            3.7793383002281189e-02 -3.3631148934364319e-01</leafValues></_>
        <_>
          <internalNodes>
            0 -1 823 6.6612184047698975e-02</internalNodes>
          <leafValues>
            1.0388045571744442e-02 -9.0704339742660522e-01</leafValues></_>
        <_>
          <internalNodes>
            0 -1 919 5.8703802525997162e-02</internalNodes>
          <leafValues>
            -7.2795636951923370e-02 1.4696513116359711e-01</leafValues></_>
        <_>
          <internalNodes>
            0 -1 829 6.4845137298107147e-02</internalNodes>
          <leafValues>
            4.1483204811811447e-02 -2.6105186343193054e-01</leafValues></_>
        <_>
          <internalNodes>
            0 -1 152 7.9254694283008575e-03</internalNodes>
          <leafValues>
            2.4005143344402313e-01 -4.7845337539911270e-02</leafValues></_>
        <_>
          <internalNodes>
            0 -1 85 2.7208093553781509e-02</internalNodes>
          <leafValues>
            -8.6670428514480591e-02 1.1368653923273087e-01</leafValues></_>
        <_>
          <internalNodes>
            0 -1 686 4.6196453273296356e-02</internalNodes>
          <leafValues>
            2.2986382246017456e-02 -3.9754852652549744e-01</leafValues></_>
        <_>
          <internalNodes>
            0 -1 141 6.5528288483619690e-02</internalNodes>
          <leafValues>
            -1.7180023714900017e-02 6.0763627290725708e-01</leafValues></_>
        <_>
          <internalNodes>
            0 -1 121 4.7869876027107239e-02</internalNodes>
          <leafValues>
            5.1646415144205093e-02 -1.9712816178798676e-01</leafValues></_>
        <_>
          <internalNodes>
            0 -1 763 3.5309786908328533e-03</internalNodes>
          <leafValues>
            -8.5690611600875854e-01 1.1604311875998974e-02</leafValues></_>
        <_>
          <internalNodes>
            0 -1 745 6.6720008850097656e-02</internalNodes>
          <leafValues>
            7.6765823177993298e-03 -8.6986660957336426e-01</leafValues></_>
        <_>
          <internalNodes>
            0 -1 856 6.9213751703500748e-03</internalNodes>
          <leafValues>
            -3.9210557937622070e-01 2.0831787958741188e-02</leafValues></_>
        <_>
          <internalNodes>
            0 -1 891 2.8196476399898529e-02</internalNodes>
          <leafValues>
            -1.5049344301223755e-01 6.1243552714586258e-02</leafValues></_></weakClassifiers></_>
    <!-- stage 6 -->
    <_>
      <maxWeakCount>100</maxWeakCount>
      <stageThreshold>-1.4301148653030396e+00</stageThreshold>
      <weakClassifiers>
        <_>
          <internalNodes>
            0 -1 771 7.3850125074386597e-02</internalNodes>
          <leafValues>
            -5.7283854484558105e-01 -1.7185698449611664e-01</leafValues></_>
        <_>
          <internalNodes>
            0 -1 779 2.0259944722056389e-02</internalNodes>
          <leafValues>
            -2.6300865411758423e-01 1.0506448149681091e-01</leafValues></_>
        <_>
          <internalNodes>
            0 -1 783 5.7666871696710587e-02</internalNodes>
          <leafValues>
            -1.5107157826423645e-01 1.6335637867450714e-01</leafValues></_>
        <_>
          <internalNodes>
            0 -1 136 3.0776027590036392e-02</internalNodes>
          <leafValues>
            -1.1453347653150558e-01 2.0564191043376923e-01</leafValues></_>
        <_>
          <internalNodes>
            0 -1 846 1.3798820786178112e-02</internalNodes>
          <leafValues>
            -1.9429881870746613e-01 1.3591083884239197e-01</leafValues></_>
        <_>
          <internalNodes>
            0 -1 710 8.6625449359416962e-02</internalNodes>
          <leafValues>
            -9.4423331320285797e-02 2.9176414012908936e-01</leafValues></_>
        <_>
          <internalNodes>
            0 -1 667 1.0291613638401031e-02</internalNodes>
          <leafValues>
            -2.8210982680320740e-01 8.0144092440605164e-02</leafValues></_>
        <_>
          <internalNodes>
            0 -1 512 1.6847713850438595e-03</internalNodes>
          <leafValues>
            2.2096551954746246e-01 -8.1810958683490753e-02</leafValues></_>
        <_>
          <internalNodes>
            0 -1 819 1.7287686467170715e-02</internalNodes>
          <leafValues>
            -1.1571076512336731e-01 1.4584362506866455e-01</leafValues></_>
        <_>
          <internalNodes>
            0 -1 143 2.3046655580401421e-02</internalNodes>
          <leafValues>
            6.3418917357921600e-02 -2.3713426291942596e-01</leafValues></_>
        <_>
          <internalNodes>
            0 -1 431 5.7434596121311188e-02</internalNodes>
          <leafValues>
            -5.0419148057699203e-02 3.3310467004776001e-01</leafValues></_>
        <_>
          <internalNodes>
            0 -1 796 4.5511913485825062e-03</internalNodes>
          <leafValues>
            -5.1651000976562500e-01 2.8600402176380157e-02</leafValues></_>
        <_>
          <internalNodes>
            0 -1 959 4.8291436396539211e-03</internalNodes>
          <leafValues>
            -5.0036835670471191e-01 2.4109959602355957e-02</leafValues></_>
        <_>
          <internalNodes>
            0 -1 470 4.0276404470205307e-03</internalNodes>
          <leafValues>
            3.4966716170310974e-01 -5.7132899761199951e-02</leafValues></_>
        <_>
          <internalNodes>
            0 -1 396 2.4518333375453949e-02</internalNodes>
          <leafValues>
            4.7069307416677475e-02 -2.6558628678321838e-01</leafValues></_>
        <_>
          <internalNodes>
            0 -1 290 1.5798777341842651e-01</internalNodes>
          <leafValues>
            2.0071983337402344e-02 -6.5833848714828491e-01</leafValues></_>
        <_>
          <internalNodes>
            0 -1 145 6.3256859779357910e-02</internalNodes>
          <leafValues>
            1.3113651424646378e-02 -6.4734959602355957e-01</leafValues></_>
        <_>
          <internalNodes>
            0 -1 659 4.3149575591087341e-02</internalNodes>
          <leafValues>
            3.3765751868486404e-02 -3.3409473299980164e-01</leafValues></_>
        <_>
          <internalNodes>
            0 -1 671 5.1404409110546112e-02</internalNodes>
          <leafValues>
            5.1745809614658356e-02 -2.3401071131229401e-01</leafValues></_>
        <_>
          <internalNodes>
            0 -1 181 8.4049925208091736e-02</internalNodes>
          <leafValues>
            -3.6357697099447250e-02 3.5441479086875916e-01</leafValues></_>
        <_>
          <internalNodes>
            0 -1 776 8.5092000663280487e-02</internalNodes>
          <leafValues>
            1.5047960914671421e-02 -6.4159452915191650e-01</leafValues></_>
        <_>
          <internalNodes>
            0 -1 270 2.8376772999763489e-02</internalNodes>
          <leafValues>
            3.7471745163202286e-02 -3.2596513628959656e-01</leafValues></_>
        <_>
          <internalNodes>
            0 -1 942 5.2767533808946609e-02</internalNodes>
          <leafValues>
            5.0600115209817886e-02 -2.2522050142288208e-01</leafValues></_>
        <_>
          <internalNodes>
            0 -1 768 3.9236970245838165e-02</internalNodes>
          <leafValues>
            -7.8415207564830780e-02 1.9616743922233582e-01</leafValues></_>
        <_>
          <internalNodes>
            0 -1 732 6.0191228985786438e-02</internalNodes>
          <leafValues>
            1.1987579055130482e-02 -8.6358392238616943e-01</leafValues></_>
        <_>
          <internalNodes>
            0 -1 648 4.7682594507932663e-02</internalNodes>
          <leafValues>
            -3.9470985531806946e-02 3.1052914261817932e-01</leafValues></_>
        <_>
          <internalNodes>
            0 -1 798 1.3374802470207214e-01</internalNodes>
          <leafValues>
