<?xml version="1.0"?>
<opencv_storage>
<cascade>
  <stageType>BOOST</stageType>
  <featureType>HOG</featureType>
  <height>32</height>
  <width>32</width>
  <stageParams>
    <boostType>GAB</boostType>
    <minHitRate>9.9500000476837158e-01</minHitRate>
    <maxFalseAlarm>1.0000000149011612e-01</maxFalseAlarm>
    <weightTrimRate>9.4999999999999996e-01</weightTrimRate>
    <maxDepth>1</maxDepth>
    <maxWeakCount>100</maxWeakCount></stageParams>
  <featureParams>
    <maxCatCount>0</maxCatCount>
    <featSize>36</featSize></featureParams>
  <stageNum>27</stageNum>
  <stages>
    <!-- stage 0 -->
    <_>
      <maxWeakCount>40</maxWeakCount>
      <stageThreshold>-1.2487015724182129e+00</stageThreshold>
      <weakClassifiers>
        <_>
          <internalNodes>
            0 -1 730 4.6216607093811035e-02</internalNodes>
          <leafValues>
            -7.2174656391143799e-01 1.5979380905628204e-01</leafValues></_>
        <_>
          <internalNodes>
            0 -1 722 3.2543785870075226e-02</internalNodes>
          <leafValues>
            -5.8308357000350952e-01 3.0613321065902710e-01</leafValues></_>
        <_>
          <internalNodes>
            0 -1 102 2.9281398281455040e-02</internalNodes>
          <leafValues>
            -4.6546873450279236e-01 4.3802776932716370e-01</leafValues></_>
        <_>
          <internalNodes>
            0 -1 259 3.1825367361307144e-02</internalNodes>
          <leafValues>
            -4.4494855403900146e-01 3.5221704840660095e-01</leafValues></_>
        <_>
          <internalNodes>
            0 -1 626 3.7796474993228912e-02</internalNodes>
          <leafValues>
            -2.8256750106811523e-01 5.1361262798309326e-01</leafValues></_>
        <_>
          <internalNodes>
            0 -1 21 2.8531698510050774e-02</internalNodes>
          <leafValues>
            -3.8575035333633423e-01 3.4070330858230591e-01</leafValues></_>
        <_>
          <internalNodes>
            0 -1 664 1.7603602260351181e-02</internalNodes>
          <leafValues>
            -5.2196848392486572e-01 2.1983870863914490e-01</leafValues></_>
        <_>
          <internalNodes>
            0 -1 744 2.2481122985482216e-02</internalNodes>
          <leafValues>
            1.9806596636772156e-01 -5.4640090465545654e-01</leafValues></_>
        <_>
          <internalNodes>
            0 -1 940 1.3559490442276001e-02</internalNodes>
          <leafValues>
            -6.9957530498504639e-01 1.1446604132652283e-01</leafValues></_>
        <_>
          <internalNodes>
            0 -1 772 5.7306893169879913e-02</internalNodes>
          <leafValues>
            -1.8391771614551544e-01 4.0302160382270813e-01</leafValues></_>
        <_>
          <internalNodes>
            0 -1 672 2.8874021023511887e-02</internalNodes>
          <leafValues>
            -3.3980941772460938e-01 2.3984244465827942e-01</leafValues></_>
        <_>
          <internalNodes>
            0 -1 812 3.8932509720325470e-02</internalNodes>
          <leafValues>
            -2.0424838364124298e-01 3.5526591539382935e-01</leafValues></_>
        <_>
          <internalNodes>
            0 -1 511 1.0533883236348629e-02</internalNodes>
          <leafValues>
            -5.1791840791702271e-01 1.4493590593338013e-01</leafValues></_>
        <_>
          <internalNodes>
            0 -1 792 1.7192874103784561e-02</internalNodes>
          <leafValues>
            1.9558042287826538e-01 -3.3926209807395935e-01</leafValues></_>
        <_>
          <internalNodes>
            0 -1 91 2.3321470245718956e-02</internalNodes>
          <leafValues>
            -2.3859187960624695e-01 3.0397629737854004e-01</leafValues></_>
        <_>
          <internalNodes>
            0 -1 770 9.4524296000599861e-03</internalNodes>
          <leafValues>
            -5.7833862304687500e-01 1.0396778583526611e-01</leafValues></_>
        <_>
          <internalNodes>
            0 -1 581 5.8383576571941376e-02</internalNodes>
          <leafValues>
            -1.1588817089796066e-01 6.2249308824539185e-01</leafValues></_>
        <_>
          <internalNodes>
            0 -1 482 5.6891102343797684e-02</internalNodes>
          <leafValues>
            -1.6362681984901428e-01 4.3267616629600525e-01</leafValues></_>
        <_>
          <internalNodes>
            0 -1 41 1.4946278184652328e-02</internalNodes>
          <leafValues>
            2.0598582923412323e-01 -2.7822586894035339e-01</leafValues></_>
        <_>
          <internalNodes>
            0 -1 642 9.7172949463129044e-03</internalNodes>
          <leafValues>
            -5.9605389833450317e-01 1.0632320493459702e-01</leafValues></_>
        <_>
          <internalNodes>
            0 -1 918 2.8571043163537979e-02</internalNodes>
          <leafValues>
            -2.7724540233612061e-01 2.1705393493175507e-01</leafValues></_>
        <_>
          <internalNodes>
            0 -1 424 6.1387449502944946e-02</internalNodes>
          <leafValues>
            -9.3564018607139587e-02 7.1490675210952759e-01</leafValues></_>
        <_>
          <internalNodes>
            0 -1 709 6.3434526324272156e-02</internalNodes>
          <leafValues>
            -1.5202629566192627e-01 4.2993772029876709e-01</leafValues></_>
        <_>
          <internalNodes>
            0 -1 828 6.8860040046274662e-03</internalNodes>
          <leafValues>
            -7.1141928434371948e-01 8.6107201874256134e-02</leafValues></_>
        <_>
          <internalNodes>
            0 -1 249 2.0195785909891129e-02</internalNodes>
          <leafValues>
            1.5695649385452271e-01 -3.5375863313674927e-01</leafValues></_>
        <_>
          <internalNodes>
            0 -1 5 9.6982121467590332e-03</internalNodes>
          <leafValues>
            2.8134703636169434e-01 -1.8761417269706726e-01</leafValues></_>
        <_>
          <internalNodes>
            0 -1 956 1.9098736345767975e-02</internalNodes>
          <leafValues>
            -3.3561500906944275e-01 1.8881744146347046e-01</leafValues></_>
        <_>
          <internalNodes>
            0 -1 925 4.4901825487613678e-02</internalNodes>
          <leafValues>
            -7.3410928249359131e-02 7.2318309545516968e-01</leafValues></_>
        <_>
          <internalNodes>
            0 -1 496 6.9929108023643494e-02</internalNodes>
          <leafValues>
            -1.0220891237258911e-01 4.9347427487373352e-01</leafValues></_>
        <_>
          <internalNodes>
            0 -1 935 1.4189492911100388e-02</internalNodes>
          <leafValues>
            -5.9329831600189209e-01 9.0921126306056976e-02</leafValues></_>
        <_>
          <internalNodes>
            0 -1 841 9.8629798740148544e-03</internalNodes>
          <leafValues>
            -5.1301848888397217e-01 9.4333529472351074e-02</leafValues></_>
        <_>
          <internalNodes>
            0 -1 448 8.8722277432680130e-03</internalNodes>
          <leafValues>
            3.2353729009628296e-01 -1.4768803119659424e-01</leafValues></_>
        <_>
          <internalNodes>
            0 -1 818 4.2065322399139404e-02</internalNodes>
          <leafValues>
            6.4990580081939697e-02 -7.2347110509872437e-01</leafValues></_>
        <_>
          <internalNodes>
            0 -1 521 4.5433990657329559e-02</internalNodes>
          <leafValues>
            -9.7686260938644409e-02 4.9002233147621155e-01</leafValues></_>
        <_>
          <internalNodes>
            0 -1 138 2.9178145341575146e-03</internalNodes>
          <leafValues>
            6.3020545244216919e-01 -6.2206108123064041e-02</leafValues></_>
        <_>
          <internalNodes>
            0 -1 931 2.7650915086269379e-02</internalNodes>
          <leafValues>
            -2.4110089242458344e-01 1.9424951076507568e-01</leafValues></_>
        <_>
          <internalNodes>
            0 -1 471 5.1092468202114105e-02</internalNodes>
          <leafValues>
            -1.9039122760295868e-01 2.4653565883636475e-01</leafValues></_>
        <_>
          <internalNodes>
            0 -1 789 3.1023250892758369e-02</internalNodes>
          <leafValues>
            9.9562808871269226e-02 -4.4535824656486511e-01</leafValues></_>
        <_>
          <internalNodes>
            0 -1 488 2.3321039974689484e-02</internalNodes>
          <leafValues>
            -3.1516051292419434e-01 1.3166199624538422e-01</leafValues></_>
        <_>
          <internalNodes>
            0 -1 353 3.6844819784164429e-02</internalNodes>
          <leafValues>
            -1.4890524744987488e-01 3.5884383320808411e-01</leafValues></_></weakClassifiers></_>
    <!-- stage 1 -->
    <_>
      <maxWeakCount>100</maxWeakCount>
      <stageThreshold>-1.1445966958999634e+00</stageThreshold>
      <weakClassifiers>
        <_>
          <internalNodes>
            0 -1 643 2.2415606305003166e-02</internalNodes>
          <leafValues>
            -6.4195120334625244e-01 -1.2689654529094696e-01</leafValues></_>
        <_>
          <internalNodes>
            0 -1 256 5.7786870747804642e-03</internalNodes>
          <leafValues>
            3.4725716710090637e-01 -2.6980361342430115e-01</leafValues></_>
        <_>
          <internalNodes>
            0 -1 626 2.1658919751644135e-02</internalNodes>
          <leafValues>
            -4.2706111073493958e-01 2.0721453428268433e-01</leafValues></_>
        <_>
          <internalNodes>
            0 -1 266 2.7715967968106270e-02</internalNodes>
          <leafValues>
            -4.0175735950469971e-01 1.6062764823436737e-01</leafValues></_>
        <_>
          <internalNodes>
            0 -1 350 2.2286606952548027e-02</internalNodes>
          <leafValues>
            -4.0328222513198853e-01 1.6180580854415894e-01</leafValues></_>
        <_>
          <internalNodes>
            0 -1 662 2.1641317754983902e-02</internalNodes>
          <leafValues>
            -3.5527074337005615e-01 2.0406037569046021e-01</leafValues></_>
        <_>
          <internalNodes>
            0 -1 770 1.6473691910505295e-02</internalNodes>
          <leafValues>
            -3.4254798293113708e-01 1.3995350897312164e-01</leafValues></_>
        <_>
          <internalNodes>
            0 -1 124 3.7875026464462280e-02</internalNodes>
          <leafValues>
            -2.4483075737953186e-01 1.7785651981830597e-01</leafValues></_>
        <_>
          <internalNodes>
            0 -1 651 4.5005299150943756e-02</internalNodes>
          <leafValues>
            -2.0189733803272247e-01 2.1453972160816193e-01</leafValues></_>
        <_>
          <internalNodes>
            0 -1 648 2.0690368488430977e-02</internalNodes>
          <leafValues>
            -4.2396086454391479e-01 1.2698228657245636e-01</leafValues></_>
        <_>
          <internalNodes>
            0 -1 115 1.0010095685720444e-01</internalNodes>
          <leafValues>
            3.4111008048057556e-02 -7.5731170177459717e-01</leafValues></_>
        <_>
          <internalNodes>
            0 -1 450 2.1102210506796837e-02</internalNodes>
          <leafValues>
            -2.9763340950012207e-01 1.0989107191562653e-01</leafValues></_>
        <_>
          <internalNodes>
            0 -1 953 3.8029778748750687e-02</internalNodes>
          <leafValues>
            3.5779900848865509e-02 -9.0229886770248413e-01</leafValues></_>
        <_>
          <internalNodes>
            0 -1 812 2.4668160825967789e-02</internalNodes>
          <leafValues>
            -2.4264520406723022e-01 1.3336886465549469e-01</leafValues></_>
        <_>
          <internalNodes>
            0 -1 760 7.6929420232772827e-02</internalNodes>
          <leafValues>
            -9.1497600078582764e-02 3.9490291476249695e-01</leafValues></_>
        <_>
          <internalNodes>
            0 -1 895 1.2448599562048912e-02</internalNodes>
          <leafValues>
            -3.6063405871391296e-01 9.0440571308135986e-02</leafValues></_>
        <_>
          <internalNodes>
            0 -1 793 3.7210516631603241e-02</internalNodes>
          <leafValues>
            6.1892382800579071e-02 -5.4708892107009888e-01</leafValues></_>
        <_>
          <internalNodes>
            0 -1 249 6.0678916051983833e-03</internalNodes>
          <leafValues>
            2.1668224036693573e-01 -1.5173107385635376e-01</leafValues></_>
        <_>
          <internalNodes>
            0 -1 131 2.9276506975293159e-02</internalNodes>
          <leafValues>
            -1.3514342904090881e-01 2.3733282089233398e-01</leafValues></_>
        <_>
          <internalNodes>
            0 -1 833 5.5763213895261288e-03</internalNodes>
          <leafValues>
            -7.1376377344131470e-01 4.8717133700847626e-02</leafValues></_>
        <_>
          <internalNodes>
            0 -1 947 9.7956255078315735e-02</internalNodes>
          <leafValues>
            2.0029135048389435e-02 -1.</leafValues></_>
        <_>
          <internalNodes>
            0 -1 114 8.1577688455581665e-02</internalNodes>
          <leafValues>
            3.9522700011730194e-02 -6.3595014810562134e-01</leafValues></_>
        <_>
          <internalNodes>
            0 -1 499 1.6509409993886948e-02</internalNodes>
          <leafValues>
            1.1140331625938416e-01 -2.8367719054222107e-01</leafValues></_>
        <_>
          <internalNodes>
            0 -1 766 7.6910436153411865e-02</internalNodes>
          <leafValues>
            4.3029859662055969e-02 -5.7352811098098755e-01</leafValues></_>
        <_>
          <internalNodes>
            0 -1 638 2.6267796754837036e-02</internalNodes>
          <leafValues>
            8.1646658480167389e-02 -3.3312702178955078e-01</leafValues></_>
        <_>
          <internalNodes>
            0 -1 168 1.6489580273628235e-02</internalNodes>
          <leafValues>
            1.2146528065204620e-01 -2.2637437283992767e-01</leafValues></_>
        <_>
          <internalNodes>
            0 -1 797 2.5929147377610207e-03</internalNodes>
          <leafValues>
            -8.7596613168716431e-01 2.5928869843482971e-02</leafValues></_>
        <_>
          <internalNodes>
            0 -1 715 3.7452146410942078e-02</internalNodes>
          <leafValues>
            5.1621075719594955e-02 -4.7765630483627319e-01</leafValues></_>
        <_>
          <internalNodes>
            0 -1 644 7.0624962449073792e-02</internalNodes>
          <leafValues>
            5.0012186169624329e-02 -4.8792859911918640e-01</leafValues></_>
        <_>
          <internalNodes>
            0 -1 5 1.4763387851417065e-02</internalNodes>
          <leafValues>
            1.4158661663532257e-01 -1.8374656140804291e-01</leafValues></_>
        <_>
          <internalNodes>
            0 -1 799 8.3735451102256775e-02</internalNodes>
          <leafValues>
            4.2989410459995270e-02 -5.7972186803817749e-01</leafValues></_>
        <_>
          <internalNodes>
            0 -1 419 6.5849885344505310e-02</internalNodes>
          <leafValues>
            -1.0049345344305038e-01 3.6839479207992554e-01</leafValues></_>
        <_>
          <internalNodes>
            0 -1 908 6.8244528956711292e-03</internalNodes>
          <leafValues>
            -7.1212118864059448e-01 3.9109729230403900e-02</leafValues></_>
        <_>
          <internalNodes>
            0 -1 149 9.9227009341120720e-03</internalNodes>
          <leafValues>
            -3.8269424438476562e-01 5.4770488291978836e-02</leafValues></_>
        <_>
          <internalNodes>
            0 -1 779 1.3243169523775578e-02</internalNodes>
          <leafValues>
            3.7189048528671265e-01 -6.0659296810626984e-02</leafValues></_>
        <_>
          <internalNodes>
            0 -1 923 1.0213300585746765e-01</internalNodes>
          <leafValues>
            2.5908242911100388e-02 -9.3559938669204712e-01</leafValues></_>
        <_>
          <internalNodes>
            0 -1 873 1.9827667623758316e-02</internalNodes>
          <leafValues>
            -2.8607156872749329e-01 7.3944553732872009e-02</leafValues></_>
        <_>
          <internalNodes>
            0 -1 705 2.5787562131881714e-02</internalNodes>
          <leafValues>
            9.2044249176979065e-02 -2.6509714126586914e-01</leafValues></_>
        <_>
          <internalNodes>
            0 -1 639 1.6890324652194977e-02</internalNodes>
          <leafValues>
            1.0812180489301682e-01 -2.2735735774040222e-01</leafValues></_>
        <_>
          <internalNodes>
            0 -1 519 3.8375392556190491e-02</internalNodes>
          <leafValues>
            1.3268393278121948e-01 -1.8884012103080750e-01</leafValues></_>
        <_>
          <internalNodes>
            0 -1 548 2.9360897839069366e-02</internalNodes>
          <leafValues>
            -1.0255158692598343e-01 2.3012042045593262e-01</leafValues></_>
        <_>
          <internalNodes>
            0 -1 344 5.2503068000078201e-03</internalNodes>
          <leafValues>
            3.7303987145423889e-01 -6.2423363327980042e-02</leafValues></_>
        <_>
          <internalNodes>
            0 -1 7 1.3837091624736786e-01</internalNodes>
          <leafValues>
            3.3459678292274475e-02 -7.2799593210220337e-01</leafValues></_>
        <_>
          <internalNodes>
            0 -1 27 3.0064739286899567e-02</internalNodes>
          <leafValues>
            -1.2128376215696335e-01 1.8516644835472107e-01</leafValues></_>
        <_>
          <internalNodes>
            0 -1 746 4.1704468429088593e-02</internalNodes>
          <leafValues>
            -1.6990819573402405e-01 1.2758834660053253e-01</leafValues></_>
        <_>
          <internalNodes>
            0 -1 891 1.0761702060699463e-01</internalNodes>
          <leafValues>
            3.2389346510171890e-02 -7.7690488100051880e-01</leafValues></_>
        <_>
          <internalNodes>
            0 -1 953 2.6883333921432495e-02</internalNodes>
          <leafValues>
            5.8195505291223526e-02 -3.2960459589958191e-01</leafValues></_>
        <_>
          <internalNodes>
            0 -1 918 3.0989648774266243e-02</internalNodes>
          <leafValues>
            -1.7689235508441925e-01 1.2045092135667801e-01</leafValues></_>
        <_>
          <internalNodes>
            0 -1 114 3.1600892543792725e-02</internalNodes>
          <leafValues>
            1.2978820502758026e-01 -1.7864590883255005e-01</leafValues></_>
        <_>
          <internalNodes>
            0 -1 336 1.5379374846816063e-02</internalNodes>
          <leafValues>
            1.3811254501342773e-01 -1.4894947409629822e-01</leafValues></_>
        <_>
          <internalNodes>
            0 -1 563 2.9866173863410950e-03</internalNodes>
          <leafValues>
            -9.5256453752517700e-01 2.1431885659694672e-02</leafValues></_>
        <_>
          <internalNodes>
            0 -1 482 9.3136124312877655e-02</internalNodes>
          <leafValues>
            -7.0852153003215790e-02 3.1704688072204590e-01</leafValues></_>
        <_>
          <internalNodes>
            0 -1 248 1.6939112916588783e-02</internalNodes>
          <leafValues>
            -1.6423967480659485e-01 1.8533936142921448e-01</leafValues></_>
        <_>
          <internalNodes>
            0 -1 634 5.9266954660415649e-02</internalNodes>
          <leafValues>
            -3.2464127987623215e-02 6.2969797849655151e-01</leafValues></_>
        <_>
          <internalNodes>
            0 -1 488 1.2547229416668415e-02</internalNodes>
          <leafValues>
            -3.6697065830230713e-01 6.0230985283851624e-02</leafValues></_>
        <_>
          <internalNodes>
            0 -1 597 4.3459430336952209e-02</internalNodes>
          <leafValues>
            1.0552931576967239e-01 -2.2752740979194641e-01</leafValues></_>
        <_>
          <internalNodes>
            0 -1 851 2.9526604339480400e-02</internalNodes>
          <leafValues>
            -1.5990512073040009e-01 1.3119357824325562e-01</leafValues></_>
        <_>
          <internalNodes>
            0 -1 34 6.5057411789894104e-02</internalNodes>
          <leafValues>
            -8.8710799813270569e-02 2.6930204033851624e-01</leafValues></_>
        <_>
          <internalNodes>
            0 -1 848 6.0488553717732430e-03</internalNodes>
          <leafValues>
            -8.6783933639526367e-01 2.7586970478296280e-02</leafValues></_>
        <_>
          <internalNodes>
            0 -1 18 2.3161832243204117e-02</internalNodes>
          <leafValues>
            -1.9999448955059052e-01 1.1154377460479736e-01</leafValues></_>
        <_>
          <internalNodes>
            0 -1 527 2.7159324963577092e-04</internalNodes>
          <leafValues>
            7.3053568601608276e-01 -3.3319201320409775e-02</leafValues></_>
        <_>
          <internalNodes>
            0 -1 383 3.1721717678010464e-03</internalNodes>
          <leafValues>
            -7.8597450256347656e-01 3.1480886042118073e-02</leafValues></_>
        <_>
          <internalNodes>
            0 -1 895 2.2545926272869110e-02</internalNodes>
          <leafValues>
            -1.6991800069808960e-01 1.1723480373620987e-01</leafValues></_>
        <_>
          <internalNodes>
            0 -1 253 4.3363748118281364e-03</internalNodes>
          <leafValues>
            3.3302217721939087e-01 -6.3245132565498352e-02</leafValues></_>
        <_>
          <internalNodes>
            0 -1 31 6.1230733990669250e-02</internalNodes>
          <leafValues>
            5.9297908097505569e-02 -3.5280892252922058e-01</leafValues></_>
        <_>
          <internalNodes>
            0 -1 761 9.4849258661270142e-02</internalNodes>
          <leafValues>
            -5.3999960422515869e-02 4.1192221641540527e-01</leafValues></_>
        <_>
          <internalNodes>
            0 -1 91 1.5039104036986828e-02</internalNodes>
          <leafValues>
            -2.0633925497531891e-01 9.3771763145923615e-02</leafValues></_>
        <_>
          <internalNodes>
            0 -1 368 1.4689766801893711e-02</internalNodes>
          <leafValues>
            1.6012364625930786e-01 -1.1990445852279663e-01</leafValues></_>
        <_>
          <internalNodes>
            0 -1 914 7.2387069463729858e-02</internalNodes>
          <leafValues>
            3.0482580885291100e-02 -6.0368549823760986e-01</leafValues></_>
        <_>
          <internalNodes>
            0 -1 181 5.2021136507391930e-03</internalNodes>
          <leafValues>
            -3.2482585310935974e-01 5.6923307478427887e-02</leafValues></_>
        <_>
          <internalNodes>
            0 -1 721 5.9692151844501495e-02</internalNodes>
          <leafValues>
            1.9506001845002174e-02 -9.5612907409667969e-01</leafValues></_>
        <_>
          <internalNodes>
            0 -1 563 1.2453885376453400e-01</internalNodes>
          <leafValues>
            2.2040603682398796e-02 -6.2125498056411743e-01</leafValues></_>
        <_>
          <internalNodes>
            0 -1 646 5.0093457102775574e-03</internalNodes>
          <leafValues>
            4.6038988232612610e-01 -4.7237958759069443e-02</leafValues></_>
        <_>
          <internalNodes>
            0 -1 598 9.6659064292907715e-02</internalNodes>
          <leafValues>
            3.1576894223690033e-02 -5.6147038936614990e-01</leafValues></_>
        <_>
          <internalNodes>
            0 -1 702 9.1646477580070496e-02</internalNodes>
          <leafValues>
            -5.2333679050207138e-02 3.5662022233009338e-01</leafValues></_>
        <_>
          <internalNodes>
            0 -1 539 1.3905779924243689e-03</internalNodes>
          <leafValues>
            6.4485043287277222e-01 -2.8016040101647377e-02</leafValues></_>
        <_>
          <internalNodes>
            0 -1 392 1.6593622043728828e-02</internalNodes>
          <leafValues>
            -1.5164840221405029e-01 1.1434752494096756e-01</leafValues></_>
        <_>
          <internalNodes>
            0 -1 401 3.4197643399238586e-02</internalNodes>
          <leafValues>
            -7.6638258993625641e-02 2.6129439473152161e-01</leafValues></_>
        <_>
          <internalNodes>
            0 -1 683 1.3376608490943909e-02</internalNodes>
          <leafValues>
            1.4900468289852142e-01 -1.1739535629749298e-01</leafValues></_>
        <_>
          <internalNodes>
            0 -1 323 1.5170693397521973e-02</internalNodes>
          <leafValues>
            2.9997962713241577e-01 -5.4646033793687820e-02</leafValues></_>
        <_>
          <internalNodes>
            0 -1 831 1.7740858718752861e-02</internalNodes>
          <leafValues>
            -3.6177593469619751e-01 5.5111121386289597e-02</leafValues></_>
        <_>
          <internalNodes>
            0 -1 785 1.5363097190856934e-02</internalNodes>
          <leafValues>
            -1.9171556830406189e-01 9.0006589889526367e-02</leafValues></_>
        <_>
          <internalNodes>
            0 -1 479 5.0621636211872101e-02</internalNodes>
          <leafValues>
            -4.4234130531549454e-02 4.3003067374229431e-01</leafValues></_>
        <_>
          <internalNodes>
            0 -1 255 2.8300866484642029e-02</internalNodes>
          <leafValues>
            5.8565352112054825e-02 -3.3531585335731506e-01</leafValues></_>
        <_>
          <internalNodes>
            0 -1 890 1.1268384754657745e-01</internalNodes>
          <leafValues>
            2.4130258709192276e-02 -7.2258716821670532e-01</leafValues></_>
        <_>
          <internalNodes>
            0 -1 629 3.5362057387828827e-02</internalNodes>
          <leafValues>
            -1.5310573577880859e-01 1.2144293636083603e-01</leafValues></_>
        <_>
          <internalNodes>
            0 -1 269 8.3218943327665329e-03</internalNodes>
          <leafValues>
            1.9769811630249023e-01 -9.3612007796764374e-02</leafValues></_>
        <_>
          <internalNodes>
            0 -1 506 7.1445472538471222e-02</internalNodes>
          <leafValues>
            6.3872218132019043e-02 -3.2908368110656738e-01</leafValues></_>
        <_>
          <internalNodes>
            0 -1 842 3.7635646760463715e-02</internalNodes>
          <leafValues>
            -1.1982646584510803e-01 1.6789621114730835e-01</leafValues></_>
        <_>
          <internalNodes>
            0 -1 684 3.7841398268938065e-02</internalNodes>
          <leafValues>
            4.5571293681859970e-02 -4.2246913909912109e-01</leafValues></_>
        <_>
          <internalNodes>
            0 -1 0 3.8922488689422607e-02</internalNodes>
          <leafValues>
            -6.8278081715106964e-02 2.7105712890625000e-01</leafValues></_>
        <_>
          <internalNodes>
            0 -1 757 6.5084649249911308e-03</internalNodes>
          <leafValues>
            3.3240771293640137e-01 -5.4508086293935776e-02</leafValues></_>
        <_>
          <internalNodes>
            0 -1 909 1.9607469439506531e-03</internalNodes>
          <leafValues>
            -5.6144195795059204e-01 3.3415101468563080e-02</leafValues></_>
        <_>
          <internalNodes>
            0 -1 484 1.9020330160856247e-02</internalNodes>
          <leafValues>
            1.0992852598428726e-01 -1.6646982729434967e-01</leafValues></_>
        <_>
          <internalNodes>
            0 -1 72 1.3248327374458313e-01</internalNodes>
          <leafValues>
            2.5387810543179512e-02 -7.4565863609313965e-01</leafValues></_>
        <_>
          <internalNodes>
            0 -1 122 5.2472627721726894e-03</internalNodes>
          <leafValues>
            2.7710983157157898e-01 -6.7562192678451538e-02</leafValues></_>
        <_>
          <internalNodes>
            0 -1 847 4.0067072957754135e-02</internalNodes>
          <leafValues>
            3.4933961927890778e-02 -4.8894864320755005e-01</leafValues></_>
        <_>
          <internalNodes>
            0 -1 115 1.0946513712406158e-01</internalNodes>
          <leafValues>
            2.1918466314673424e-02 -6.9330650568008423e-01</leafValues></_>
        <_>
          <internalNodes>
            0 -1 517 1.8251087516546249e-02</internalNodes>
          <leafValues>
            1.0013885796070099e-01 -1.5770478546619415e-01</leafValues></_>
        <_>
          <internalNodes>
            0 -1 813 2.6318458840250969e-03</internalNodes>
          <leafValues>
            -9.3926990032196045e-01 1.6876392066478729e-02</leafValues></_></weakClassifiers></_>
    <!-- stage 2 -->
    <_>
      <maxWeakCount>100</maxWeakCount>
      <stageThreshold>-1.1937795877456665e+00</stageThreshold>
      <weakClassifiers>
        <_>
          <internalNodes>
            0 -1 698 1.6859823837876320e-02</internalNodes>
          <leafValues>
            -1.4177215099334717e-01 -6.6458332538604736e-01</leafValues></_>
        <_>
          <internalNodes>
            0 -1 512 5.2247013896703720e-02</internalNodes>
          <leafValues>
            -2.8767582774162292e-01 2.5342079997062683e-01</leafValues></_>
        <_>
          <internalNodes>
            0 -1 923 5.9976562857627869e-02</internalNodes>
          <leafValues>
            8.7273396551609039e-02 -5.9178006649017334e-01</leafValues></_>
        <_>
          <internalNodes>
            0 -1 722 4.8859279602766037e-02</internalNodes>
          <leafValues>
            -1.5160009264945984e-01 2.4564601480960846e-01</leafValues></_>
        <_>
          <internalNodes>
            0 -1 548 1.8055602908134460e-02</internalNodes>
          <leafValues>
            -2.3056785762310028e-01 1.6463609039783478e-01</leafValues></_>
        <_>
          <internalNodes>
            0 -1 786 1.0033069178462029e-02</internalNodes>
          <leafValues>
            -7.3071587085723877e-01 3.3528860658407211e-02</leafValues></_>
        <_>
          <internalNodes>
            0 -1 661 1.7378535121679306e-02</internalNodes>
          <leafValues>
            -2.2714228928089142e-01 1.2497072666883469e-01</leafValues></_>
        <_>
          <internalNodes>
            0 -1 678 6.2810637056827545e-02</internalNodes>
          <leafValues>
            -1.1385974287986755e-01 2.5610509514808655e-01</leafValues></_>
        <_>
          <internalNodes>
            0 -1 124 4.7574255615472794e-02</internalNodes>
          <leafValues>
            -1.8393139541149139e-01 1.7104391753673553e-01</leafValues></_>
        <_>
          <internalNodes>
            0 -1 182 2.7854140847921371e-02</internalNodes>
          <leafValues>
            -1.3456159830093384e-01 1.9963331520557404e-01</leafValues></_>
        <_>
          <internalNodes>
            0 -1 643 1.8044266849756241e-02</internalNodes>
          <leafValues>
            -2.3310989141464233e-01 1.3791388273239136e-01</leafValues></_>
        <_>
          <internalNodes>
            0 -1 121 3.5040833055973053e-02</internalNodes>
          <leafValues>
            3.4878496080636978e-02 -6.1225444078445435e-01</leafValues></_>
        <_>
          <internalNodes>
            0 -1 895 4.0108636021614075e-03</internalNodes>
          <leafValues>
            -5.7338953018188477e-01 3.5507455468177795e-02</leafValues></_>
        <_>
          <internalNodes>
            0 -1 914 9.2098593711853027e-02</internalNodes>
          <leafValues>
            1.5490910038352013e-02 -8.3359783887863159e-01</leafValues></_>
        <_>
          <internalNodes>
            0 -1 138 2.5448707863688469e-02</internalNodes>
          <leafValues>
            7.0937156677246094e-02 -2.6225098967552185e-01</leafValues></_>
        <_>
          <internalNodes>
            0 -1 739 1.3817586004734039e-02</internalNodes>
          <leafValues>
            -2.3725040256977081e-01 8.4398545324802399e-02</leafValues></_>
        <_>
          <internalNodes>
            0 -1 168 2.1540123969316483e-02</internalNodes>
          <leafValues>
            5.9569127857685089e-02 -2.7709212899208069e-01</leafValues></_>
        <_>
          <internalNodes>
            0 -1 2 1.1318705230951309e-01</internalNodes>
          <leafValues>
            2.0119588822126389e-02 -8.4206897020339966e-01</leafValues></_>
        <_>
          <internalNodes>
            0 -1 842 1.1387847363948822e-02</internalNodes>
          <leafValues>
            -4.6452045440673828e-01 3.1160369515419006e-02</leafValues></_>
        <_>
          <internalNodes>
            0 -1 647 5.2909865975379944e-02</internalNodes>
          <leafValues>
            2.5539150461554527e-02 -5.9969544410705566e-01</leafValues></_>
        <_>
          <internalNodes>
            0 -1 691 2.1795783191919327e-02</internalNodes>
          <leafValues>
            6.5041325986385345e-02 -2.6181617379188538e-01</leafValues></_>
        <_>
          <internalNodes>
            0 -1 896 5.0361352041363716e-03</internalNodes>
          <leafValues>
            -6.3195854425430298e-01 2.9986251145601273e-02</leafValues></_>
        <_>
          <internalNodes>
            0 -1 85 1.2265804409980774e-01</internalNodes>
          <leafValues>
            1.8565364181995392e-02 -7.2146332263946533e-01</leafValues></_>
        <_>
          <internalNodes>
            0 -1 585 8.3314944058656693e-03</internalNodes>
          <leafValues>
            2.0381106436252594e-01 -8.6201332509517670e-02</leafValues></_>
        <_>
          <internalNodes>
            0 -1 549 3.2636225223541260e-02</internalNodes>
          <leafValues>
            -9.9737636744976044e-02 1.7541012167930603e-01</leafValues></_>
        <_>
          <internalNodes>
            0 -1 450 3.0012119095772505e-03</internalNodes>
          <leafValues>
            -7.1247708797454834e-01 2.5210401043295860e-02</leafValues></_>
        <_>
          <internalNodes>
            0 -1 733 1.7973219975829124e-02</internalNodes>
          <leafValues>
            1.0302367061376572e-01 -1.5257951617240906e-01</leafValues></_>
        <_>
          <internalNodes>
            0 -1 733 2.0991880446672440e-03</internalNodes>
          <leafValues>
            -6.2394559383392334e-01 2.7483994141221046e-02</leafValues></_>
        <_>
          <internalNodes>
            0 -1 533 1.2515509128570557e-01</internalNodes>
          <leafValues>
            2.9425743967294693e-02 -4.8206907510757446e-01</leafValues></_>
        <_>
          <internalNodes>
            0 -1 699 5.0064712762832642e-02</internalNodes>
          <leafValues>
            2.8066130355000496e-02 -5.2827095985412598e-01</leafValues></_>
        <_>
          <internalNodes>
            0 -1 40 1.0747885331511497e-02</internalNodes>
          <leafValues>
            1.5382182598114014e-01 -1.0431067645549774e-01</leafValues></_>
        <_>
          <internalNodes>
            0 -1 779 1.5581243671476841e-02</internalNodes>
          <leafValues>
            2.6538056135177612e-01 -5.6853406131267548e-02</leafValues></_>
        <_>
          <internalNodes>
            0 -1 945 9.8503306508064270e-03</internalNodes>
          <leafValues>
            -2.6463320851325989e-01 6.2988661229610443e-02</leafValues></_>
        <_>
          <internalNodes>
            0 -1 697 5.7257651351392269e-03</internalNodes>
          <leafValues>
            2.3507638275623322e-01 -7.5566895306110382e-02</leafValues></_>
        <_>
          <internalNodes>
            0 -1 892 2.0092912018299103e-03</internalNodes>
          <leafValues>
            -7.5235450267791748e-01 1.6061658039689064e-02</leafValues></_>
        <_>
          <internalNodes>
            0 -1 516 2.8731289785355330e-03</internalNodes>
          <leafValues>
            2.8707599639892578e-01 -5.2837979048490524e-02</leafValues></_>
        <_>
          <internalNodes>
            0 -1 794 1.0910500586032867e-01</internalNodes>
          <leafValues>
            1.8715195357799530e-02 -7.8259301185607910e-01</leafValues></_>
        <_>
          <internalNodes>
            0 -1 310 1.3082784414291382e-01</internalNodes>
          <leafValues>
            1.1033474467694759e-02 -8.0233377218246460e-01</leafValues></_>
        <_>
          <internalNodes>
            0 -1 440 1.1157393455505371e-02</internalNodes>
          <leafValues>
            1.7069528996944427e-01 -8.8491663336753845e-02</leafValues></_>
        <_>
          <internalNodes>
            0 -1 489 1.5982137992978096e-02</internalNodes>
          <leafValues>
            -3.0309569835662842e-01 4.8904832452535629e-02</leafValues></_>
        <_>
          <internalNodes>
            0 -1 562 2.6714649051427841e-02</internalNodes>
          <leafValues>
            -1.0637642443180084e-01 1.3261282444000244e-01</leafValues></_>
        <_>
          <internalNodes>
            0 -1 651 2.9193539172410965e-02</internalNodes>
          <leafValues>
            -1.9115258753299713e-01 7.6476275920867920e-02</leafValues></_>
        <_>
          <internalNodes>
            0 -1 38 4.2743392288684845e-02</internalNodes>
          <leafValues>
            1.0740040242671967e-01 -1.5677575767040253e-01</leafValues></_>
        <_>
          <internalNodes>
            0 -1 701 9.2860460281372070e-02</internalNodes>
          <leafValues>
            -4.8546012490987778e-02 3.2886230945587158e-01</leafValues></_>
        <_>
          <internalNodes>
            0 -1 943 3.9898648858070374e-02</internalNodes>
          <leafValues>
            -1.4477519690990448e-01 1.0858654975891113e-01</leafValues></_>
        <_>
          <internalNodes>
            0 -1 56 8.7576545774936676e-03</internalNodes>
          <leafValues>
            -4.7438243031501770e-01 3.7760853767395020e-02</leafValues></_>
        <_>
          <internalNodes>
            0 -1 850 2.0712323486804962e-02</internalNodes>
          <leafValues>
            -1.1813677847385406e-01 1.2517239153385162e-01</leafValues></_>
        <_>
          <internalNodes>
            0 -1 459 6.8579558283090591e-03</internalNodes>
          <leafValues>
            4.6077141165733337e-01 -3.2757747918367386e-02</leafValues></_>
        <_>
          <internalNodes>
            0 -1 513 1.3377458089962602e-03</internalNodes>
          <leafValues>
            -6.5592974424362183e-01 2.4144785478711128e-02</leafValues></_>
        <_>
          <internalNodes>
            0 -1 777 2.2891413420438766e-02</internalNodes>
          <leafValues>
            -9.1165028512477875e-02 1.5205100178718567e-01</leafValues></_>
        <_>
          <internalNodes>
            0 -1 114 2.1461509168148041e-02</internalNodes>
          <leafValues>
            1.3075037300586700e-01 -1.0338677465915680e-01</leafValues></_>
        <_>
          <internalNodes>
            0 -1 883 2.2526597604155540e-02</internalNodes>
          <leafValues>
            -2.2978042066097260e-01 6.4428895711898804e-02</leafValues></_>
        <_>
          <internalNodes>
            0 -1 438 5.8458112180233002e-02</internalNodes>
          <leafValues>
            -6.6334664821624756e-02 2.2699822485446930e-01</leafValues></_>
        <_>
          <internalNodes>
            0 -1 296 4.9716062843799591e-02</internalNodes>
          <leafValues>
            -7.0364877581596375e-02 2.3565597832202911e-01</leafValues></_>
        <_>
          <internalNodes>
            0 -1 356 1.4987954497337341e-01</internalNodes>
          <leafValues>
            1.8033308908343315e-02 -7.6640826463699341e-01</leafValues></_>
        <_>
          <internalNodes>
            0 -1 140 2.1335709840059280e-02</internalNodes>
          <leafValues>
            -1.9837175309658051e-01 5.8245532214641571e-02</leafValues></_>
        <_>
          <internalNodes>
            0 -1 186 1.0316826403141022e-02</internalNodes>
          <leafValues>
            -1.9880299270153046e-01 6.6676281392574310e-02</leafValues></_>
        <_>
          <internalNodes>
            0 -1 834 2.4571988731622696e-02</internalNodes>
          <leafValues>
            -1.8363445997238159e-01 7.0252880454063416e-02</leafValues></_>
        <_>
          <internalNodes>
            0 -1 214 2.4853862822055817e-02</internalNodes>
          <leafValues>
            9.5165945589542389e-02 -1.3870730996131897e-01</leafValues></_>
        <_>
          <internalNodes>
            0 -1 257 5.7262428104877472e-02</internalNodes>
          <leafValues>
            2.0349537953734398e-02 -6.1227524280548096e-01</leafValues></_>
        <_>
          <internalNodes>
            0 -1 784 1.4553958550095558e-02</internalNodes>
          <leafValues>
            -1.7002128064632416e-01 7.9204387962818146e-02</leafValues></_>
        <_>
          <internalNodes>
            0 -1 388 1.0149476118385792e-02</internalNodes>
          <leafValues>
            1.8309287726879120e-01 -8.3479017019271851e-02</leafValues></_>
        <_>
          <internalNodes>
            0 -1 222 1.1945396661758423e-01</internalNodes>
          <leafValues>
            1.5399347059428692e-02 -7.3865544795989990e-01</leafValues></_>
        <_>
          <internalNodes>
            0 -1 189 1.6303139925003052e-01</internalNodes>
          <leafValues>
            -2.6239408180117607e-02 5.1301717758178711e-01</leafValues></_>
        <_>
          <internalNodes>
            0 -1 720 2.8537731617689133e-02</internalNodes>
          <leafValues>
            4.1916217654943466e-02 -3.1593602895736694e-01</leafValues></_>
        <_>
          <internalNodes>
            0 -1 527 1.6713961958885193e-02</internalNodes>
          <leafValues>
            -1.2490610033273697e-01 1.0951633751392365e-01</leafValues></_>
        <_>
          <internalNodes>
            0 -1 257 1.5099380165338516e-02</internalNodes>
          <leafValues>
            1.1653580516576767e-01 -1.0971559584140778e-01</leafValues></_>
        <_>
          <internalNodes>
            0 -1 881 3.5247064661234617e-03</internalNodes>
          <leafValues>
            -4.7562110424041748e-01 2.7919121086597443e-02</leafValues></_>
        <_>
          <internalNodes>
            0 -1 491 6.2863146886229515e-03</internalNodes>
          <leafValues>
            2.2384455800056458e-01 -6.0338005423545837e-02</leafValues></_>
        <_>
          <internalNodes>
            0 -1 907 7.8799501061439514e-03</internalNodes>
          <leafValues>
            -3.9841565489768982e-01 4.3400011956691742e-02</leafValues></_>
        <_>
          <internalNodes>
            0 -1 773 5.5391721427440643e-02</internalNodes>
          <leafValues>
            -8.1570006906986237e-02 1.5107990801334381e-01</leafValues></_>
        <_>
          <internalNodes>
            0 -1 27 2.9799940064549446e-02</internalNodes>
          <leafValues>
            -9.7451142966747284e-02 1.4278283715248108e-01</leafValues></_>
        <_>
          <internalNodes>
            0 -1 604 2.9367297887802124e-02</internalNodes>
          <leafValues>
            -6.8040840327739716e-02 1.7099568247795105e-01</leafValues></_>
        <_>
          <internalNodes>
            0 -1 695 1.9835714250802994e-02</internalNodes>
          <leafValues>
            8.3469010889530182e-02 -1.5955446660518646e-01</leafValues></_>
        <_>
          <internalNodes>
            0 -1 357 3.6620154976844788e-02</internalNodes>
          <leafValues>
            -4.3035704642534256e-02 3.3043202757835388e-01</leafValues></_>
        <_>
          <internalNodes>
            0 -1 938 9.5925815403461456e-03</internalNodes>
          <leafValues>
            -3.0315238237380981e-01 4.8406597226858139e-02</leafValues></_>
        <_>
          <internalNodes>
            0 -1 838 3.6511566489934921e-02</internalNodes>
          <leafValues>
            -1.0790492594242096e-01 1.3324800133705139e-01</leafValues></_>
        <_>
          <internalNodes>
            0 -1 205 9.2613711953163147e-02</internalNodes>
          <leafValues>
            4.2131416499614716e-02 -2.9416754841804504e-01</leafValues></_>
        <_>
          <internalNodes>
            0 -1 664 5.0122968852519989e-02</internalNodes>
          <leafValues>
            -9.2943295836448669e-02 1.5316167473793030e-01</leafValues></_>
        <_>
          <internalNodes>
            0 -1 671 3.7298861891031265e-02</internalNodes>
          <leafValues>
            -6.7757308483123779e-02 1.9660460948944092e-01</leafValues></_>
        <_>
          <internalNodes>
            0 -1 92 3.1304396688938141e-02</internalNodes>
          <leafValues>
            -1.2106038630008698e-01 1.1066095530986786e-01</leafValues></_>
        <_>
          <internalNodes>
            0 -1 652 1.0528302192687988e-01</internalNodes>
          <leafValues>
            -3.1223053112626076e-02 4.0458083152770996e-01</leafValues></_>
        <_>
          <internalNodes>
            0 -1 817 9.0866215527057648e-02</internalNodes>
          <leafValues>
            2.6977580040693283e-02 -6.4469665288925171e-01</leafValues></_>
        <_>
          <internalNodes>
            0 -1 899 6.6362805664539337e-03</internalNodes>
          <leafValues>
            -4.1337510943412781e-01 2.6823705062270164e-02</leafValues></_>
        <_>
          <internalNodes>
            0 -1 279 9.9088381975889206e-03</internalNodes>
          <leafValues>
            1.7266263067722321e-01 -7.6367609202861786e-02</leafValues></_>
        <_>
          <internalNodes>
            0 -1 136 3.3973149955272675e-02</internalNodes>
          <leafValues>
            9.2165678739547729e-02 -1.4287614822387695e-01</leafValues></_>
        <_>
          <internalNodes>
            0 -1 162 3.2297540456056595e-02</internalNodes>
          <leafValues>
            -1.1430010199546814e-01 1.1543570458889008e-01</leafValues></_>
        <_>
          <internalNodes>
            0 -1 115 1.0089660435914993e-01</internalNodes>
          <leafValues>
            1.9466076046228409e-02 -6.7415207624435425e-01</leafValues></_>
        <_>
          <internalNodes>
            0 -1 120 5.9958621859550476e-03</internalNodes>
          <leafValues>
            1.6855137050151825e-01 -9.9444441497325897e-02</leafValues></_>
        <_>
          <internalNodes>
            0 -1 912 4.5992806553840637e-03</internalNodes>
          <leafValues>
            -3.8656991720199585e-01 3.0044076964259148e-02</leafValues></_>
        <_>
          <internalNodes>
            0 -1 139 6.3766859471797943e-02</internalNodes>
          <leafValues>
            1.5097201801836491e-02 -7.5137919187545776e-01</leafValues></_>
        <_>
          <internalNodes>
            0 -1 767 1.0208970308303833e-01</internalNodes>
          <leafValues>
            1.4812947250902653e-02 -6.7640650272369385e-01</leafValues></_>
        <_>
          <internalNodes>
            0 -1 132 7.3611393570899963e-02</internalNodes>
          <leafValues>
            -4.7279182821512222e-02 2.5726747512817383e-01</leafValues></_>
        <_>
          <internalNodes>
            0 -1 106 1.8580064177513123e-01</internalNodes>
          <leafValues>
            -1.4613919891417027e-02 7.2753381729125977e-01</leafValues></_>
        <_>
          <internalNodes>
            0 -1 952 1.1610133573412895e-02</internalNodes>
          <leafValues>
            5.0743889808654785e-01 -2.1158142015337944e-02</leafValues></_>
        <_>
          <internalNodes>
            0 -1 505 4.8798095434904099e-02</internalNodes>
          <leafValues>
            -1.0546918213367462e-01 1.4866846799850464e-01</leafValues></_>
        <_>
          <internalNodes>
            0 -1 954 3.5264804027974606e-03</internalNodes>
          <leafValues>
            -5.2031433582305908e-01 2.4706767871975899e-02</leafValues></_>
        <_>
          <internalNodes>
            0 -1 647 5.8174308389425278e-02</internalNodes>
          <leafValues>
            1.4343032613396645e-02 -6.4885807037353516e-01</leafValues></_>
        <_>
          <internalNodes>
            0 -1 831 9.2775046825408936e-02</internalNodes>
          <leafValues>
            1.6925385221838951e-02 -6.0129415988922119e-01</leafValues></_>
        <_>
          <internalNodes>
            0 -1 905 2.1554708480834961e-02</internalNodes>
          <leafValues>
            -2.2798876464366913e-01 4.8541683703660965e-02</leafValues></_></weakClassifiers></_>
    <!-- stage 3 -->
    <_>
      <maxWeakCount>100</maxWeakCount>
      <stageThreshold>-1.2840187549591064e+00</stageThreshold>
      <weakClassifiers>
        <_>
          <internalNodes>
            0 -1 731 7.9746320843696594e-02</internalNodes>
          <leafValues>
            -5.2158010005950928e-01 -9.6605740487575531e-02</leafValues></_>
        <_>
          <internalNodes>
            0 -1 734 1.2744511477649212e-02</internalNodes>
          <leafValues>
            2.2072465717792511e-01 -1.5079911053180695e-01</leafValues></_>
        <_>
          <internalNodes>
            0 -1 130 2.8615029528737068e-02</internalNodes>
          <leafValues>
            -1.0682599246501923e-01 1.8929062783718109e-01</leafValues></_>
        <_>
          <internalNodes>
            0 -1 251 3.1241923570632935e-02</internalNodes>
          <leafValues>
            -2.0573039352893829e-01 9.4466418027877808e-02</leafValues></_>
        <_>
          <internalNodes>
            0 -1 641 1.9864739850163460e-02</internalNodes>
          <leafValues>
            -1.0654136538505554e-01 1.8649619817733765e-01</leafValues></_>
        <_>
          <internalNodes>
            0 -1 114 4.4340521097183228e-02</internalNodes>
          <leafValues>
            8.0147035419940948e-02 -2.4747867882251740e-01</leafValues></_>
        <_>
          <internalNodes>
            0 -1 798 1.9456320442259312e-03</internalNodes>
          <leafValues>
            -8.5256654024124146e-01 1.6777340322732925e-02</leafValues></_>
        <_>
          <internalNodes>
            0 -1 380 5.0692693330347538e-03</internalNodes>
          <leafValues>
            1.7351999878883362e-01 -1.1214841157197952e-01</leafValues></_>
        <_>
          <internalNodes>
            0 -1 99 6.3331052660942078e-02</internalNodes>
          <leafValues>
            4.5957587659358978e-02 -2.9219239950180054e-01</leafValues></_>
        <_>
          <internalNodes>
            0 -1 172 3.0454805120825768e-02</internalNodes>
          <leafValues>
            -1.3122534751892090e-01 1.1517545580863953e-01</leafValues></_>
        <_>
          <internalNodes>
            0 -1 15 2.8526810929179192e-02</internalNodes>
          <leafValues>
            -1.1005516350269318e-01 1.3101089000701904e-01</leafValues></_>
        <_>
          <internalNodes>
            0 -1 799 6.7660100758075714e-02</internalNodes>
          <leafValues>
            3.7682443857192993e-02 -3.6631780862808228e-01</leafValues></_>
        <_>
          <internalNodes>
            0 -1 563 1.9768327474594116e-02</internalNodes>
          <leafValues>
            -2.2912202775478363e-01 6.3909210264682770e-02</leafValues></_>
        <_>
          <internalNodes>
            0 -1 548 3.3360175788402557e-02</internalNodes>
          <leafValues>
            -7.6670490205287933e-02 1.7194236814975739e-01</leafValues></_>
        <_>
          <internalNodes>
            0 -1 385 2.3041523993015289e-02</internalNodes>
          <leafValues>
            5.4150629788637161e-02 -2.4915497004985809e-01</leafValues></_>
        <_>
          <internalNodes>
            0 -1 100 6.9495718926191330e-03</internalNodes>
          <leafValues>
            -4.6527689695358276e-01 2.6837620884180069e-02</leafValues></_>
        <_>
          <internalNodes>
            0 -1 519 5.7287398725748062e-02</internalNodes>
          <leafValues>
            4.6534560620784760e-02 -2.3634245991706848e-01</leafValues></_>
        <_>
          <internalNodes>
            0 -1 162 1.3659569621086121e-01</internalNodes>
          <leafValues>
            -2.8719093650579453e-02 4.2848545312881470e-01</leafValues></_>
        <_>
          <internalNodes>
            0 -1 7 1.0779102146625519e-01</internalNodes>
          <leafValues>
            3.0102657154202461e-02 -4.1019767522811890e-01</leafValues></_>
        <_>
          <internalNodes>
            0 -1 601 1.1524935066699982e-01</internalNodes>
          <leafValues>
            2.3645071312785149e-02 -4.2586177587509155e-01</leafValues></_>
        <_>
          <internalNodes>
            0 -1 333 1.1376487091183662e-02</internalNodes>
          <leafValues>
            1.1892312020063400e-01 -9.4468764960765839e-02</leafValues></_>
        <_>
          <internalNodes>
            0 -1 305 4.0692672133445740e-02</internalNodes>
          <leafValues>
            -7.5664937496185303e-02 1.5713316202163696e-01</leafValues></_>
        <_>
          <internalNodes>
            0 -1 10 3.7354618310928345e-02</internalNodes>
          <leafValues>
            -1.1749275773763657e-01 8.8557049632072449e-02</leafValues></_>
        <_>
          <internalNodes>
            0 -1 86 1.3311356306076050e-02</internalNodes>
          <leafValues>
            -1.6192705929279327e-01 6.9560699164867401e-02</leafValues></_>
        <_>
          <internalNodes>
            0 -1 891 7.6365411281585693e-02</internalNodes>
          <leafValues>
            3.1697943806648254e-02 -3.0821684002876282e-01</leafValues></_>
        <_>
          <internalNodes>
            0 -1 231 4.3462254106998444e-02</internalNodes>
          <leafValues>
            -1.3938231766223907e-01 9.2441283166408539e-02</leafValues></_>
        <_>
          <internalNodes>
            0 -1 346 2.0760004222393036e-01</internalNodes>
          <leafValues>
            -1.3588320463895798e-02 8.1942182779312134e-01</leafValues></_>
        <_>
          <internalNodes>
            0 -1 119 1.0376970469951630e-01</internalNodes>
          <leafValues>
            2.6743644848465919e-02 -4.9055653810501099e-01</leafValues></_>
        <_>
          <internalNodes>
            0 -1 118 4.7639507800340652e-02</internalNodes>
          <leafValues>
            -4.2340427637100220e-02 2.6153087615966797e-01</leafValues></_>
        <_>
          <internalNodes>
            0 -1 955 4.1870504617691040e-02</internalNodes>
          <leafValues>
            1.6437720507383347e-02 -6.3486754894256592e-01</leafValues></_>
        <_>
          <internalNodes>
            0 -1 93 5.4294660687446594e-02</internalNodes>
          <leafValues>
            -1.9895492121577263e-02 5.9230333566665649e-01</leafValues></_>
        <_>
          <internalNodes>
            0 -1 142 5.3674384951591492e-02</internalNodes>
          <leafValues>
            2.1427663043141365e-02 -5.6343579292297363e-01</leafValues></_>
        <_>
          <internalNodes>
            0 -1 719 1.9899467006325722e-02</internalNodes>
          <leafValues>
            9.7173035144805908e-02 -1.0841717571020126e-01</leafValues></_>
        <_>
          <internalNodes>
            0 -1 817 6.6042304039001465e-02</internalNodes>
          <leafValues>
            3.9585191756486893e-02 -2.7861589193344116e-01</leafValues></_>
        <_>
          <internalNodes>
            0 -1 360 5.7968728244304657e-02</internalNodes>
          <leafValues>
            -3.6924280226230621e-02 2.9543095827102661e-01</leafValues></_>
        <_>
          <internalNodes>
            0 -1 61 4.7074530273675919e-02</internalNodes>
          <leafValues>
            -8.5157938301563263e-02 1.3504607975482941e-01</leafValues></_>
        <_>
          <internalNodes>
            0 -1 84 3.0626482330262661e-03</internalNodes>
          <leafValues>
            -3.6280465126037598e-01 3.3168643712997437e-02</leafValues></_>
        <_>
          <internalNodes>
            0 -1 932 3.7161633372306824e-02</internalNodes>
          <leafValues>
            2.5215901434421539e-02 -3.8405856490135193e-01</leafValues></_>
        <_>
          <internalNodes>
            0 -1 809 1.3140460848808289e-01</internalNodes>
          <leafValues>
            1.0141219012439251e-02 -8.8690495491027832e-01</leafValues></_>
        <_>
          <internalNodes>
            0 -1 369 3.7832081317901611e-02</internalNodes>
          <leafValues>
            1.6245152801275253e-02 -4.9335166811943054e-01</leafValues></_>
        <_>
          <internalNodes>
            0 -1 90 1.9279133528470993e-02</internalNodes>
          <leafValues>
            -9.0725660324096680e-02 1.1163468658924103e-01</leafValues></_>
        <_>
          <internalNodes>
            0 -1 496 6.3460335135459900e-02</internalNodes>
          <leafValues>
            -7.7953547239303589e-02 1.2162675708532333e-01</leafValues></_>
        <_>
          <internalNodes>
            0 -1 779 1.6390834003686905e-02</internalNodes>
          <leafValues>
            2.0932263135910034e-01 -5.0552804023027420e-02</leafValues></_>
        <_>
          <internalNodes>
            0 -1 489 2.6658061891794205e-02</internalNodes>
          <leafValues>
            -1.7545099556446075e-01 6.8062119185924530e-02</leafValues></_>
        <_>
          <internalNodes>
            0 -1 365 4.7038584947586060e-02</internalNodes>
          <leafValues>
            9.7159847617149353e-02 -1.0371199995279312e-01</leafValues></_>
        <_>
          <internalNodes>
            0 -1 263 6.9622825831174850e-03</internalNodes>
          <leafValues>
            1.4962568879127502e-01 -5.9438068419694901e-02</leafValues></_>
        <_>
          <internalNodes>
            0 -1 88 8.7427836842834949e-04</internalNodes>
          <leafValues>
            -6.9693142175674438e-01 1.3601352460682392e-02</leafValues></_>
        <_>
          <internalNodes>
            0 -1 115 8.9486390352249146e-03</internalNodes>
          <leafValues>
            3.1820428371429443e-01 -3.1875941902399063e-02</leafValues></_>
        <_>
          <internalNodes>
            0 -1 867 9.2776948586106300e-03</internalNodes>
          <leafValues>
            -3.2700791954994202e-01 2.8915381059050560e-02</leafValues></_>
        <_>
          <internalNodes>
            0 -1 455 1.5467340126633644e-02</internalNodes>
          <leafValues>
            1.6799496114253998e-01 -6.5626651048660278e-02</leafValues></_>
        <_>
          <internalNodes>
            0 -1 555 2.4820372462272644e-02</internalNodes>
          <leafValues>
            -1.1129003018140793e-01 1.0177889466285706e-01</leafValues></_>
        <_>
          <internalNodes>
            0 -1 323 4.2139466851949692e-02</internalNodes>
          <leafValues>
            -9.5041811466217041e-02 9.9085092544555664e-02</leafValues></_>
        <_>
          <internalNodes>
            0 -1 922 1.4107045717537403e-04</internalNodes>
          <leafValues>
            -8.3087354898452759e-01 9.6341678872704506e-03</leafValues></_>
        <_>
          <internalNodes>
            0 -1 252 2.1083297207951546e-02</internalNodes>
          <leafValues>
            -2.3742352426052094e-01 3.4328669309616089e-02</leafValues></_>
        <_>
          <internalNodes>
            0 -1 784 4.0088137611746788e-03</internalNodes>
          <leafValues>
            -4.4164708256721497e-01 2.0852427929639816e-02</leafValues></_>
        <_>
          <internalNodes>
            0 -1 74 5.5739693343639374e-02</internalNodes>
          <leafValues>
            -1.9334092736244202e-02 5.1220214366912842e-01</leafValues></_>
        <_>
          <internalNodes>
            0 -1 482 9.4183132052421570e-02</internalNodes>
          <leafValues>
            -5.3717203438282013e-02 1.8144774436950684e-01</leafValues></_>
        <_>
          <internalNodes>
            0 -1 479 4.6442098915576935e-02</internalNodes>
          <leafValues>
            -3.4213691949844360e-02 3.0073601007461548e-01</leafValues></_>
        <_>
          <internalNodes>
            0 -1 873 5.9728194028139114e-03</internalNodes>
          <leafValues>
            -8.0384194850921631e-01 1.1310067959129810e-02</leafValues></_>
        <_>
          <internalNodes>
            0 -1 921 1.7805388197302818e-02</internalNodes>
          <leafValues>
            5.0401683896780014e-02 -1.5766373276710510e-01</leafValues></_>
        <_>
          <internalNodes>
            0 -1 358 2.5707116350531578e-02</internalNodes>
          <leafValues>
            -4.6775870025157928e-02 2.1056924760341644e-01</leafValues></_>
        <_>
          <internalNodes>
            0 -1 69 9.8210759460926056e-04</internalNodes>
          <leafValues>
            3.3417096734046936e-01 -2.2526619955897331e-02</leafValues></_>
        <_>
          <internalNodes>
            0 -1 176 5.8649675920605659e-03</internalNodes>
          <leafValues>
            -2.0224425196647644e-01 4.3721128255128860e-02</leafValues></_>
        <_>
          <internalNodes>
            0 -1 510 9.8716569482348859e-05</internalNodes>
          <leafValues>
            -5.8082735538482666e-01 1.5200481750071049e-02</leafValues></_>
        <_>
          <internalNodes>
            0 -1 701 1.0299371182918549e-01</internalNodes>
          <leafValues>
            -3.6049231886863708e-02 2.6022389531135559e-01</leafValues></_>
        <_>
          <internalNodes>
            0 -1 30 6.7016489803791046e-02</internalNodes>
          <leafValues>
            3.1438305974006653e-02 -3.0699035525321960e-01</leafValues></_>
        <_>
          <internalNodes>
            0 -1 137 5.6521359831094742e-02</internalNodes>
          <leafValues>
            -1.6546694561839104e-02 5.7404005527496338e-01</leafValues></_>
        <_>
          <internalNodes>
            0 -1 616 6.6018127836287022e-03</internalNodes>
          <leafValues>
            -2.5800171494483948e-01 3.3813804388046265e-02</leafValues></_>
        <_>
          <internalNodes>
            0 -1 381 1.1234988458454609e-02</internalNodes>
          <leafValues>
            7.2995178401470184e-02 -1.1131020635366440e-01</leafValues></_>
        <_>
          <internalNodes>
            0 -1 305 9.8679430782794952e-02</internalNodes>
          <leafValues>
            -2.7442688122391701e-02 3.3441847562789917e-01</leafValues></_>
        <_>
          <internalNodes>
            0 -1 698 5.9431165456771851e-02</internalNodes>
          <leafValues>
            2.3098599165678024e-02 -5.2227002382278442e-01</leafValues></_>
        <_>
          <internalNodes>
            0 -1 149 7.9694425221532583e-04</internalNodes>
          <leafValues>
            -7.5330579280853271e-01 1.1657482944428921e-02</leafValues></_>
        <_>
          <internalNodes>
            0 -1 884 1.1122955940663815e-02</internalNodes>
          <leafValues>
            5.8390641212463379e-01 -1.8101613968610764e-02</leafValues></_>
        <_>
          <internalNodes>
            0 -1 143 2.3357728496193886e-03</internalNodes>
          <leafValues>
            -2.3503185808658600e-01 3.6472070962190628e-02</leafValues></_>
        <_>
          <internalNodes>
            0 -1 36 7.2503704577684402e-03</internalNodes>
          <leafValues>
            1.4757724106311798e-01 -5.6539759039878845e-02</leafValues></_>
        <_>
          <internalNodes>
            0 -1 588 4.4478677213191986e-02</internalNodes>
          <leafValues>
            -2.5346977636218071e-02 3.2686883211135864e-01</leafValues></_>
        <_>
          <internalNodes>
            0 -1 891 3.4879550337791443e-02</internalNodes>
          <leafValues>
            -1.2439962476491928e-01 7.7812336385250092e-02</leafValues></_>
        <_>
          <internalNodes>
            0 -1 790 1.2126992642879486e-01</internalNodes>
          <leafValues>
            1.0028659366071224e-02 -7.4592858552932739e-01</leafValues></_>
        <_>
          <internalNodes>
            0 -1 0 8.6671225726604462e-02</internalNodes>
          <leafValues>
            -1.7636001110076904e-02 5.8004575967788696e-01</leafValues></_>
        <_>
          <internalNodes>
            0 -1 712 4.2814429849386215e-02</internalNodes>
          <leafValues>
            2.6657735928893089e-02 -3.5282075405120850e-01</leafValues></_>
        <_>
          <internalNodes>
            0 -1 504 6.4313430339097977e-03</internalNodes>
          <leafValues>
            -2.0443500578403473e-01 4.4282771646976471e-02</leafValues></_>
        <_>
          <internalNodes>
            0 -1 438 1.2941576540470123e-01</internalNodes>
          <leafValues>
            -1.4473924413323402e-02 6.5078949928283691e-01</leafValues></_>
        <_>
          <internalNodes>
            0 -1 791 4.7223024070262909e-02</internalNodes>
          <leafValues>
            1.5074784867465496e-02 -6.7693477869033813e-01</leafValues></_>
        <_>
          <internalNodes>
            0 -1 290 6.3925713300704956e-02</internalNodes>
          <leafValues>
            -2.0680991932749748e-02 5.8811974525451660e-01</leafValues></_>
        <_>
          <internalNodes>
            0 -1 47 1.4568586833775043e-02</internalNodes>
          <leafValues>
            -1.5316072106361389e-01 5.8089673519134521e-02</leafValues></_>
        <_>
          <internalNodes>
            0 -1 524 1.2973729521036148e-02</internalNodes>
          <leafValues>
            1.1621028184890747e-01 -7.7752083539962769e-02</leafValues></_>
        <_>
          <internalNodes>
            0 -1 534 5.6823960039764643e-04</internalNodes>
          <leafValues>
            -4.8989915847778320e-01 2.0236670970916748e-02</leafValues></_>
        <_>
          <internalNodes>
            0 -1 858 5.9000216424465179e-02</internalNodes>
          <leafValues>
            6.2332055531442165e-03 -1.</leafValues></_>
        <_>
          <internalNodes>
            0 -1 766 8.5460200905799866e-02</internalNodes>
          <leafValues>
            1.2118077836930752e-02 -5.4245102405548096e-01</leafValues></_>
        <_>
          <internalNodes>
            0 -1 650 2.8240226209163666e-02</internalNodes>
          <leafValues>
            -7.2243615984916687e-02 1.1816383898258209e-01</leafValues></_>
        <_>
          <internalNodes>
            0 -1 337 3.5331934690475464e-02</internalNodes>
          <leafValues>
            5.1830466836690903e-02 -2.3407438397407532e-01</leafValues></_>
        <_>
          <internalNodes>
            0 -1 805 2.3240826558321714e-03</internalNodes>
          <leafValues>
            -7.3831433057785034e-01 1.0061510838568211e-02</leafValues></_>
        <_>
          <internalNodes>
            0 -1 820 1.0646906495094299e-01</internalNodes>
          <leafValues>
            -2.4299548938870430e-02 4.1197034716606140e-01</leafValues></_>
        <_>
          <internalNodes>
            0 -1 676 7.4527516961097717e-02</internalNodes>
          <leafValues>
            3.8322787731885910e-02 -2.6668840646743774e-01</leafValues></_>
        <_>
          <internalNodes>
            0 -1 244 1.2547772377729416e-02</internalNodes>
          <leafValues>
            1.0803972184658051e-01 -8.7165549397468567e-02</leafValues></_>
        <_>
          <internalNodes>
            0 -1 206 7.3090776801109314e-02</internalNodes>
          <leafValues>
            4.7261964529752731e-02 -1.9426691532135010e-01</leafValues></_>
        <_>
          <internalNodes>
            0 -1 236 8.1039248034358025e-03</internalNodes>
          <leafValues>
            2.1757638454437256e-01 -3.9258342236280441e-02</leafValues></_>
        <_>
          <internalNodes>
            0 -1 688 1.5462786890566349e-02</internalNodes>
          <leafValues>
            -1.0883655399084091e-01 8.1214241683483124e-02</leafValues></_>
        <_>
          <internalNodes>
            0 -1 352 5.1347099244594574e-02</internalNodes>
          <leafValues>
            1.6259830445051193e-02 -5.8697926998138428e-01</leafValues></_>
        <_>
          <internalNodes>
            0 -1 276 1.0687541216611862e-02</internalNodes>
          <leafValues>
            1.2703894078731537e-01 -7.2296798229217529e-02</leafValues></_></weakClassifiers></_>
    <!-- stage 4 -->
    <_>
      <maxWeakCount>100</maxWeakCount>
      <stageThreshold>-1.3985247611999512e+00</stageThreshold>
      <weakClassifiers>
        <_>
          <internalNodes>
            0 -1 678 6.6263929009437561e-02</internalNodes>
          <leafValues>
            -5.5622577667236328e-01 -1.7726887762546539e-01</leafValues></_>
        <_>
          <internalNodes>
            0 -1 725 8.7516531348228455e-03</internalNodes>
          <leafValues>
            1.5898764133453369e-01 -1.7309226095676422e-01</leafValues></_>
        <_>
          <internalNodes>
            0 -1 391 3.2085493206977844e-02</internalNodes>
          <leafValues>
            -1.0031092166900635e-01 2.2651323676109314e-01</leafValues></_>
        <_>
          <internalNodes>
            0 -1 3 1.8540564924478531e-02</internalNodes>
          <leafValues>
            1.8894809484481812e-01 -8.0619409680366516e-02</leafValues></_>
        <_>
          <internalNodes>
            0 -1 786 1.9313402473926544e-02</internalNodes>
          <leafValues>
            -3.2004547119140625e-01 5.0517056137323380e-02</leafValues></_>
        <_>
          <internalNodes>
            0 -1 644 4.7651685774326324e-02</internalNodes>
          <leafValues>
            1.1647079139947891e-01 -1.8826757371425629e-01</leafValues></_>
        <_>
          <internalNodes>
            0 -1 114 9.5257252454757690e-02</internalNodes>
          <leafValues>
            3.4345436841249466e-02 -5.9332329034805298e-01</leafValues></_>
        <_>
          <internalNodes>
            0 -1 499 1.6318708658218384e-03</internalNodes>
          <leafValues>
            2.4511913955211639e-01 -6.7133180797100067e-02</leafValues></_>
        <_>
          <internalNodes>
            0 -1 894 1.4687534421682358e-02</internalNodes>
          <leafValues>
            -1.5143354237079620e-01 1.1615734547376633e-01</leafValues></_>
        <_>
          <internalNodes>
            0 -1 820 1.0646906495094299e-01</internalNodes>
          <leafValues>
            -3.1272180378437042e-02 4.2835512757301331e-01</leafValues></_>
        <_>
          <internalNodes>
            0 -1 494 1.1766660958528519e-02</internalNodes>
          <leafValues>
            8.8278047740459442e-02 -1.2930259108543396e-01</leafValues></_>
        <_>
          <internalNodes>
            0 -1 914 3.4924678038805723e-03</internalNodes>
          <leafValues>
            -4.6893638372421265e-01 3.2103430479764938e-02</leafValues></_>
        <_>
          <internalNodes>
            0 -1 519 2.2795179393142462e-03</internalNodes>
          <leafValues>
            -7.2043752670288086e-01 1.3450952246785164e-02</leafValues></_>
        <_>
          <internalNodes>
            0 -1 518 4.0348965674638748e-02</internalNodes>
          <leafValues>
            5.6767020374536514e-02 -1.7700597643852234e-01</leafValues></_>
        <_>
          <internalNodes>
            0 -1 395 3.1428644433617592e-03</internalNodes>
          <leafValues>
            7.0583045482635498e-01 -1.6928784549236298e-02</leafValues></_>
        <_>
          <internalNodes>
            0 -1 526 4.7451931983232498e-02</internalNodes>
          <leafValues>
            -8.8169544935226440e-02 1.2564803659915924e-01</leafValues></_>
        <_>
          <internalNodes>
            0 -1 539 2.1587219089269638e-02</internalNodes>
          <leafValues>
            8.3208456635475159e-02 -1.3231201469898224e-01</leafValues></_>
        <_>
          <internalNodes>
            0 -1 390 1.1576553806662560e-02</internalNodes>
          <leafValues>
            -1.9393950700759888e-01 6.8526014685630798e-02</leafValues></_>
        <_>
          <internalNodes>
            0 -1 956 4.7998197376728058e-02</internalNodes>
          <leafValues>
            4.1628308594226837e-02 -2.4413464963436127e-01</leafValues></_>
        <_>
          <internalNodes>
            0 -1 842 4.2005259543657303e-02</internalNodes>
          <leafValues>
            -8.8728629052639008e-02 1.3925056159496307e-01</leafValues></_>
        <_>
          <internalNodes>
            0 -1 779 2.4076992645859718e-02</internalNodes>
          <leafValues>
            1.5630300343036652e-01 -7.6910518109798431e-02</leafValues></_>
        <_>
          <internalNodes>
            0 -1 791 1.0488339699804783e-02</internalNodes>
          <leafValues>
            1.5069122612476349e-01 -6.5934613347053528e-02</leafValues></_>
        <_>
          <internalNodes>
            0 -1 823 6.7206576466560364e-02</internalNodes>
          <leafValues>
            3.9782427251338959e-02 -2.5775861740112305e-01</leafValues></_>
        <_>
          <internalNodes>
            0 -1 891 3.4884933382272720e-02</internalNodes>
          <leafValues>
            -1.3913136720657349e-01 7.9070664942264557e-02</leafValues></_>
        <_>
          <internalNodes>
            0 -1 118 2.3275695741176605e-02</internalNodes>
          <leafValues>
            -9.3131840229034424e-02 1.1498462408781052e-01</leafValues></_>
        <_>
          <internalNodes>
            0 -1 195 2.2727278992533684e-03</internalNodes>
          <leafValues>
            3.8115486502647400e-01 -2.7647500857710838e-02</leafValues></_>
        <_>
          <internalNodes>
            0 -1 102 4.1189705953001976e-03</internalNodes>
          <leafValues>
            -7.0515936613082886e-01 1.3719023205339909e-02</leafValues></_>
        <_>
          <internalNodes>
            0 -1 835 4.4973205775022507e-02</internalNodes>
          <leafValues>
            1.8806029111146927e-02 -5.0432592630386353e-01</leafValues></_>
        <_>
          <internalNodes>
            0 -1 9 2.5972209870815277e-02</internalNodes>
          <leafValues>
            -7.9264260828495026e-02 1.2400627136230469e-01</leafValues></_>
        <_>
          <internalNodes>
            0 -1 153 2.8314179182052612e-01</internalNodes>
          <leafValues>
            -1.0176154784858227e-02 1.</leafValues></_>
        <_>
          <internalNodes>
            0 -1 367 2.9397819191217422e-02</internalNodes>
          <leafValues>
            4.6851877123117447e-02 -2.2293293476104736e-01</leafValues></_>
        <_>
          <internalNodes>
            0 -1 914 4.5148156583309174e-02</internalNodes>
          <leafValues>
            4.9448087811470032e-02 -2.0570273697376251e-01</leafValues></_>
        <_>
          <internalNodes>
            0 -1 702 8.2244373857975006e-02</internalNodes>
          <leafValues>
            -5.2977133542299271e-02 2.1452748775482178e-01</leafValues></_>
        <_>
          <internalNodes>
            0 -1 616 1.6758423298597336e-02</internalNodes>
          <leafValues>
            -1.6967426240444183e-01 6.0608331114053726e-02</leafValues></_>
        <_>
          <internalNodes>
            0 -1 285 3.6966178566217422e-02</internalNodes>
          <leafValues>
            1.0963730514049530e-01 -8.9269801974296570e-02</leafValues></_>
        <_>
          <internalNodes>
            0 -1 955 3.3589795231819153e-02</internalNodes>
          <leafValues>
            2.5211315602064133e-02 -3.7150117754936218e-01</leafValues></_>
        <_>
          <internalNodes>
            0 -1 324 3.0862661078572273e-02</internalNodes>
          <leafValues>
            4.0114540606737137e-02 -2.2312751412391663e-01</leafValues></_>
        <_>
          <internalNodes>
            0 -1 807 6.6006993874907494e-03</internalNodes>
          <leafValues>
            -3.4268429875373840e-01 2.6176117360591888e-02</leafValues></_>
        <_>
          <internalNodes>
            0 -1 63 2.6839496567845345e-02</internalNodes>
          <leafValues>
            4.9969427287578583e-02 -1.9533696770668030e-01</leafValues></_>
        <_>
          <internalNodes>
            0 -1 639 5.2693359553813934e-02</internalNodes>
          <leafValues>
            1.1705631390213966e-02 -6.9234955310821533e-01</leafValues></_>
        <_>
          <internalNodes>
            0 -1 555 1.3922336511313915e-03</internalNodes>
          <leafValues>
            -5.0552159547805786e-01 1.6353288665413857e-02</leafValues></_>
        <_>
          <internalNodes>
            0 -1 758 1.3023562729358673e-02</internalNodes>
          <leafValues>
            1.8180139362812042e-01 -5.6410074234008789e-02</leafValues></_>
        <_>
          <internalNodes>
            0 -1 880 4.2746536433696747e-02</internalNodes>
          <leafValues>
            -2.5235040113329887e-02 4.0784135460853577e-01</leafValues></_>
        <_>
          <internalNodes>
            0 -1 634 7.6615691184997559e-02</internalNodes>
          <leafValues>
            -1.4138712547719479e-02 6.2806868553161621e-01</leafValues></_>
        <_>
          <internalNodes>
            0 -1 708 1.1449256911873817e-02</internalNodes>
          <leafValues>
            -4.2815285921096802e-01 2.6653096079826355e-02</leafValues></_>
        <_>
          <internalNodes>
            0 -1 230 2.8495367616415024e-02</internalNodes>
          <leafValues>
            -1.8379624187946320e-01 5.8033376932144165e-02</leafValues></_>
        <_>
          <internalNodes>
            0 -1 328 9.8387762904167175e-02</internalNodes>
          <leafValues>
            3.5669930279254913e-02 -3.0811500549316406e-01</leafValues></_>
        <_>
          <internalNodes>
            0 -1 398 4.6514175832271576e-02</internalNodes>
          <leafValues>
            -2.8746139258146286e-02 3.4474810957908630e-01</leafValues></_>
        <_>
          <internalNodes>
            0 -1 193 2.9738752171397209e-02</internalNodes>
          <leafValues>
            4.7861319035291672e-02 -2.0980818569660187e-01</leafValues></_>
        <_>
          <internalNodes>
            0 -1 522 1.1329548805952072e-01</internalNodes>
          <leafValues>
            -1.1310404166579247e-02 1.</leafValues></_>
        <_>
          <internalNodes>
            0 -1 578 4.0412088856101036e-03</internalNodes>
          <leafValues>
            2.9033923149108887e-01 -2.6896649971604347e-02</leafValues></_>
        <_>
          <internalNodes>
            0 -1 914 9.0633749961853027e-02</internalNodes>
          <leafValues>
            1.4441267587244511e-02 -6.7313772439956665e-01</leafValues></_>
        <_>
          <internalNodes>
            0 -1 130 2.7503378689289093e-02</internalNodes>
          <leafValues>
            -7.6180368661880493e-02 1.1801740527153015e-01</leafValues></_>
        <_>
          <internalNodes>
            0 -1 548 1.0820335149765015e-01</internalNodes>
          <leafValues>
            7.9320613294839859e-03 -8.2981699705123901e-01</leafValues></_>
        <_>
          <internalNodes>
            0 -1 919 1.1395337432622910e-01</internalNodes>
          <leafValues>
            1.3014281168580055e-02 -5.8117836713790894e-01</leafValues></_>
        <_>
          <internalNodes>
            0 -1 628 4.8737157136201859e-02</internalNodes>
          <leafValues>
            2.2878197953104973e-02 -3.2933154702186584e-01</leafValues></_>
        <_>
          <internalNodes>
            0 -1 741 2.9193600639700890e-03</internalNodes>
          <leafValues>
            -9.4008219242095947e-01 7.9477243125438690e-03</leafValues></_>
        <_>
          <internalNodes>
            0 -1 646 5.0760894082486629e-03</internalNodes>
          <leafValues>
            2.8681245446205139e-01 -3.1240426003932953e-02</leafValues></_>
        <_>
          <internalNodes>
            0 -1 70 2.6946273283101618e-04</internalNodes>
          <leafValues>
            5.2057987451553345e-01 -1.6614105552434921e-02</leafValues></_>
        <_>
          <internalNodes>
            0 -1 34 1.0568732395768166e-02</internalNodes>
          <leafValues>
            -2.7672073245048523e-01 3.3007927238941193e-02</leafValues></_>
        <_>
          <internalNodes>
            0 -1 136 3.7214204668998718e-02</internalNodes>
          <leafValues>
            6.3551835715770721e-02 -1.3276015222072601e-01</leafValues></_>
        <_>
          <internalNodes>
            0 -1 162 3.1462267041206360e-02</internalNodes>
          <leafValues>
            -1.0871684551239014e-01 1.0206932574510574e-01</leafValues></_>
        <_>
          <internalNodes>
            0 -1 383 3.1659849919378757e-03</internalNodes>
          <leafValues>
            -6.8603944778442383e-01 1.2811954133212566e-02</leafValues></_>
        <_>
          <internalNodes>
            0 -1 802 3.3218441531062126e-03</internalNodes>
          <leafValues>
            -7.4882894754409790e-01 8.2864183932542801e-03</leafValues></_>
        <_>
          <internalNodes>
            0 -1 36 2.3895118385553360e-02</internalNodes>
          <leafValues>
            5.2443355321884155e-02 -1.5856148302555084e-01</leafValues></_>
        <_>
          <internalNodes>
            0 -1 586 1.8937960267066956e-02</internalNodes>
          <leafValues>
            6.7872531712055206e-02 -1.1961114406585693e-01</leafValues></_>
        <_>
          <internalNodes>
            0 -1 893 1.2152252718806267e-02</internalNodes>
          <leafValues>
            -1.0006351023912430e-01 8.6200095713138580e-02</leafValues></_>
        <_>
          <internalNodes>
            0 -1 507 8.3825178444385529e-03</internalNodes>
          <leafValues>
            1.3582716882228851e-01 -7.3960088193416595e-02</leafValues></_>
        <_>
          <internalNodes>
            0 -1 923 1.0552106797695160e-01</internalNodes>
          <leafValues>
            8.9301178231835365e-03 -8.9613699913024902e-01</leafValues></_>
        <_>
          <internalNodes>
            0 -1 612 1.2978104874491692e-02</internalNodes>
          <leafValues>
            1.7809452116489410e-01 -5.1472708582878113e-02</leafValues></_>
        <_>
          <internalNodes>
            0 -1 546 2.2771544754505157e-02</internalNodes>
          <leafValues>
            -1.0703833401203156e-01 7.4049837887287140e-02</leafValues></_>
        <_>
          <internalNodes>
            0 -1 218 7.1650538593530655e-03</internalNodes>
          <leafValues>
            2.9495200514793396e-01 -2.8045808896422386e-02</leafValues></_>
        <_>
          <internalNodes>
            0 -1 905 2.7842391282320023e-02</internalNodes>
          <leafValues>
            -1.6100703179836273e-01 5.7763651013374329e-02</leafValues></_>
        <_>
          <internalNodes>
            0 -1 894 2.7368914335966110e-02</internalNodes>
          <leafValues>
            -5.0110947340726852e-02 1.8322968482971191e-01</leafValues></_>
        <_>
          <internalNodes>
            0 -1 792 2.9298551380634308e-02</internalNodes>
          <leafValues>
            3.0210394412279129e-02 -3.1527891755104065e-01</leafValues></_>
        <_>
          <internalNodes>
            0 -1 955 1.7659390345215797e-02</internalNodes>
          <leafValues>
            7.9343490302562714e-02 -1.0038554668426514e-01</leafValues></_>
        <_>
          <internalNodes>
            0 -1 841 2.2654913365840912e-02</internalNodes>
          <leafValues>
            -1.0594841092824936e-01 1.2483179569244385e-01</leafValues></_>
        <_>
          <internalNodes>
            0 -1 601 1.0331159085035324e-01</internalNodes>
          <leafValues>
            2.2627281025052071e-02 -3.1883034110069275e-01</leafValues></_>
        <_>
          <internalNodes>
            0 -1 121 2.8289118781685829e-02</internalNodes>
          <leafValues>
            2.5056721642613411e-02 -2.8599274158477783e-01</leafValues></_>
        <_>
          <internalNodes>
            0 -1 348 9.2534264549612999e-03</internalNodes>
          <leafValues>
            -1.0911562293767929e-01 6.5865188837051392e-02</leafValues></_>
        <_>
          <internalNodes>
            0 -1 263 3.9157439023256302e-03</internalNodes>
          <leafValues>
            1.9115835428237915e-01 -4.3084222823381424e-02</leafValues></_>
        <_>
          <internalNodes>
            0 -1 798 4.8266029916703701e-03</internalNodes>
          <leafValues>
            -3.7357056140899658e-01 2.3464363068342209e-02</leafValues></_>
        <_>
          <internalNodes>
            0 -1 31 2.1353140473365784e-03</internalNodes>
          <leafValues>
            -6.2545448541641235e-01 1.0485071688890457e-02</leafValues></_>
        <_>
          <internalNodes>
            0 -1 133 1.0968912392854691e-02</internalNodes>
          <leafValues>
            1.1229845881462097e-01 -6.6412396728992462e-02</leafValues></_>
        <_>
          <internalNodes>
            0 -1 15 9.4923570752143860e-02</internalNodes>
          <leafValues>
            7.3374486528337002e-03 -8.1250399351119995e-01</leafValues></_>
        <_>
          <internalNodes>
            0 -1 51 5.3899895399808884e-02</internalNodes>
          <leafValues>
            -3.5619363188743591e-02 2.4928872287273407e-01</leafValues></_>
        <_>
          <internalNodes>
            0 -1 305 7.3784314095973969e-02</internalNodes>
          <leafValues>
            -3.2008606940507889e-02 2.4561966955661774e-01</leafValues></_>
        <_>
          <internalNodes>
            0 -1 485 3.7510491907596588e-02</internalNodes>
          <leafValues>
            5.5019944906234741e-02 -1.7430563271045685e-01</leafValues></_>
        <_>
          <internalNodes>
            0 -1 737 1.6884338110685349e-02</internalNodes>
          <leafValues>
            -2.2677849233150482e-01 3.4695945680141449e-02</leafValues></_>
        <_>
          <internalNodes>
            0 -1 464 2.3159174248576164e-02</internalNodes>
          <leafValues>
            1.3271525502204895e-01 -6.3869848847389221e-02</leafValues></_>
        <_>
          <internalNodes>
            0 -1 519 8.6711585521697998e-02</internalNodes>
          <leafValues>
            2.1847270429134369e-02 -4.0208309888839722e-01</leafValues></_>
        <_>
          <internalNodes>
            0 -1 838 2.0955409854650497e-02</internalNodes>
          <leafValues>
            -1.6484718024730682e-01 4.8972237855195999e-02</leafValues></_>
        <_>
          <internalNodes>
            0 -1 381 5.1291920244693756e-02</internalNodes>
          <leafValues>
            -1.5635216608643532e-02 5.3230541944503784e-01</leafValues></_>
        <_>
          <internalNodes>
            0 -1 872 7.1545643731951714e-03</internalNodes>
          <leafValues>
            -2.8046527504920959e-01 3.1309049576520920e-02</leafValues></_>
        <_>
          <internalNodes>
            0 -1 602 4.2914211750030518e-02</internalNodes>
          <leafValues>
            -2.3313349112868309e-02 3.7719097733497620e-01</leafValues></_>
        <_>
          <internalNodes>
            0 -1 636 4.4716447591781616e-02</internalNodes>
          <leafValues>
            -6.8270593881607056e-02 1.2690533697605133e-01</leafValues></_>
        <_>
          <internalNodes>
            0 -1 637 2.4685394018888474e-02</internalNodes>
          <leafValues>
            1.2754899263381958e-01 -8.4161981940269470e-02</leafValues></_>
        <_>
          <internalNodes>
            0 -1 441 2.3795224726200104e-02</internalNodes>
          <leafValues>
            8.9643463492393494e-02 -9.7727067768573761e-02</leafValues></_>
        <_>
          <internalNodes>
            0 -1 597 8.1741943955421448e-02</internalNodes>
          <leafValues>
            2.0954029634594917e-02 -3.8409575819969177e-01</leafValues></_>
        <_>
          <internalNodes>
            0 -1 73 9.3798851594328880e-03</internalNodes>
          <leafValues>
            1.1789280921220779e-01 -7.1413613855838776e-02</leafValues></_></weakClassifiers></_>
    <!-- stage 5 -->
    <_>
      <maxWeakCount>100</maxWeakCount>
      <stageThreshold>-1.3510038852691650e+00</stageThreshold>
      <weakClassifiers>
        <_>
          <internalNodes>
            0 -1 750 4.6610701829195023e-03</internalNodes>
          <leafValues>
            -5.4009821265935898e-02 -5.0778818130493164e-01</leafValues></_>
        <_>
          <internalNodes>
            0 -1 266 7.5884371995925903e-02</internalNodes>
          <leafValues>
            -1.3416665792465210e-01 2.2106735408306122e-01</leafValues></_>
        <_>
          <internalNodes>
            0 -1 629 1.0402239859104156e-01</internalNodes>
          <leafValues>
            -6.4361438155174255e-02 3.2174432277679443e-01</leafValues></_>
        <_>
          <internalNodes>
            0 -1 784 1.5205070376396179e-02</internalNodes>
          <leafValues>
            -1.9298221170902252e-01 1.0050523281097412e-01</leafValues></_>
        <_>
          <internalNodes>
            0 -1 788 2.1259985864162445e-02</internalNodes>
          <leafValues>
            6.8628929555416107e-02 -2.5385856628417969e-01</leafValues></_>
        <_>
          <internalNodes>
            0 -1 391 2.7321228757500648e-02</internalNodes>
          <leafValues>
            -8.3605095744132996e-02 1.7159084975719452e-01</leafValues></_>
        <_>
          <internalNodes>
            0 -1 659 5.8364193886518478e-02</internalNodes>
          <leafValues>
            8.3014808595180511e-02 -2.6217389106750488e-01</leafValues></_>
        <_>
          <internalNodes>
            0 -1 453 1.1519738472998142e-02</internalNodes>
          <leafValues>
            1.2541951239109039e-01 -1.2003212422132492e-01</leafValues></_>
        <_>
          <internalNodes>
            0 -1 887 4.4389562681317329e-03</internalNodes>
          <leafValues>
            -4.2579442262649536e-01 4.4494248926639557e-02</leafValues></_>
        <_>
          <internalNodes>
            0 -1 202 5.8141732588410378e-03</internalNodes>
          <leafValues>
            3.4397885203361511e-01 -5.1691446453332901e-02</leafValues></_>
        <_>
          <internalNodes>
            0 -1 812 6.3050584867596626e-03</internalNodes>
          <leafValues>
            -6.8854343891143799e-01 1.1125654913485050e-02</leafValues></_>
        <_>
          <internalNodes>
            0 -1 167 3.7607297301292419e-02</internalNodes>
          <leafValues>
            3.6333326250314713e-02 -3.4861546754837036e-01</leafValues></_>
        <_>
          <internalNodes>
            0 -1 529 1.9764412194490433e-02</internalNodes>
          <leafValues>
            -1.3689792156219482e-01 9.7027011215686798e-02</leafValues></_>
        <_>
          <internalNodes>
            0 -1 82 8.9332219213247299e-03</internalNodes>
          <leafValues>
            4.3139556050300598e-01 -3.6327175796031952e-02</leafValues></_>
        <_>
          <internalNodes>
            0 -1 11 2.2457726299762726e-02</internalNodes>
          <leafValues>
            -2.1729999780654907e-01 6.5927006304264069e-02</leafValues></_>
        <_>
          <internalNodes>
            0 -1 766 7.7076748013496399e-02</internalNodes>
          <leafValues>
            2.2149296477437019e-02 -5.3940480947494507e-01</leafValues></_>
        <_>
          <internalNodes>
            0 -1 921 1.1258311569690704e-02</internalNodes>
          <leafValues>
            1.0190106183290482e-01 -1.1723915487527847e-01</leafValues></_>
        <_>
          <internalNodes>
            0 -1 948 7.9752486199140549e-03</internalNodes>
          <leafValues>
            -3.1106501817703247e-01 3.8142532110214233e-02</leafValues></_>
        <_>
          <internalNodes>
            0 -1 523 1.2566071748733521e-01</internalNodes>
          <leafValues>
            1.9521145150065422e-02 -6.1276656389236450e-01</leafValues></_>
        <_>
          <internalNodes>
            0 -1 580 2.3808619007468224e-03</internalNodes>
          <leafValues>
            2.9013964533805847e-01 -4.2433734983205795e-02</leafValues></_>
        <_>
          <internalNodes>
            0 -1 727 1.9269790500402451e-03</internalNodes>
          <leafValues>
            -5.7254159450531006e-01 1.7353374511003494e-02</leafValues></_>
        <_>
          <internalNodes>
            0 -1 144 1.7913226038217545e-02</internalNodes>
          <leafValues>
            7.2561375796794891e-02 -1.6728365421295166e-01</leafValues></_>
        <_>
          <internalNodes>
            0 -1 610 6.8863027263432741e-04</internalNodes>
          <leafValues>
            5.8254736661911011e-01 -2.0661134272813797e-02</leafValues></_>
        <_>
          <internalNodes>
            0 -1 302 1.4850530773401260e-02</internalNodes>
          <leafValues>
            -1.2815126776695251e-01 8.4525160491466522e-02</leafValues></_>
        <_>
          <internalNodes>
            0 -1 902 2.6583710685372353e-02</internalNodes>
          <leafValues>
            -1.5066675841808319e-01 6.8906337022781372e-02</leafValues></_>
        <_>
          <internalNodes>
            0 -1 418 6.5738663077354431e-02</internalNodes>
          <leafValues>
            -2.7647187933325768e-02 3.7229025363922119e-01</leafValues></_>
        <_>
          <internalNodes>
            0 -1 890 1.9470218569040298e-02</internalNodes>
          <leafValues>
            -2.5429400801658630e-01 4.6210289001464844e-02</leafValues></_>
        <_>
          <internalNodes>
            0 -1 861 3.4443542361259460e-02</internalNodes>
          <leafValues>
            2.7732498943805695e-02 -3.5874617099761963e-01</leafValues></_>
        <_>
          <internalNodes>
            0 -1 890 1.2273074686527252e-01</internalNodes>
          <leafValues>
            1.6044571995735168e-02 -6.1326795816421509e-01</leafValues></_>
        <_>
          <internalNodes>
            0 -1 947 4.3881528079509735e-02</internalNodes>
          <leafValues>
            5.7126805186271667e-02 -1.8205630779266357e-01</leafValues></_>
        <_>
          <internalNodes>
            0 -1 2 1.0690037906169891e-01</internalNodes>
          <leafValues>
            1.5194387175142765e-02 -6.5667283535003662e-01</leafValues></_>
        <_>
          <internalNodes>
            0 -1 8 8.9812325313687325e-03</internalNodes>
          <leafValues>
            1.3203980028629303e-01 -8.3018817007541656e-02</leafValues></_>
        <_>
          <internalNodes>
            0 -1 783 1.5346270054578781e-02</internalNodes>
          <leafValues>
            -1.4190594851970673e-01 7.3063611984252930e-02</leafValues></_>
        <_>
          <internalNodes>
            0 -1 589 1.2939298758283257e-03</internalNodes>
          <leafValues>
            5.4918396472930908e-01 -1.9889503717422485e-02</leafValues></_>
        <_>
          <internalNodes>
            0 -1 375 1.5186385717242956e-03</internalNodes>
          <leafValues>
            2.7425512671470642e-01 -3.3066984266042709e-02</leafValues></_>
        <_>
          <internalNodes>
            0 -1 782 1.1237113177776337e-01</internalNodes>
          <leafValues>
            1.5881320461630821e-02 -5.7877516746520996e-01</leafValues></_>
        <_>
          <internalNodes>
            0 -1 612 1.7555810511112213e-02</internalNodes>
          <leafValues>
            1.7221814393997192e-01 -7.0808321237564087e-02</leafValues></_>
        <_>
          <internalNodes>
            0 -1 310 1.2402368336915970e-01</internalNodes>
          <leafValues>
            1.2098838575184345e-02 -6.7484992742538452e-01</leafValues></_>
        <_>
          <internalNodes>
            0 -1 252 5.8928862214088440e-02</internalNodes>
          <leafValues>
            -8.6885437369346619e-02 1.1975944787263870e-01</leafValues></_>
        <_>
          <internalNodes>
            0 -1 274 5.3762700408697128e-02</internalNodes>
          <leafValues>
            -2.2133084014058113e-02 5.2410262823104858e-01</leafValues></_>
        <_>
          <internalNodes>
            0 -1 34 1.2335874885320663e-01</internalNodes>
          <leafValues>
            -2.9001420363783836e-02 3.5132768750190735e-01</leafValues></_>
        <_>
          <internalNodes>
            0 -1 454 9.3968026340007782e-03</internalNodes>
          <leafValues>
            1.6378352046012878e-01 -5.8574322611093521e-02</leafValues></_>
        <_>
          <internalNodes>
            0 -1 908 2.1173786371946335e-02</internalNodes>
          <leafValues>
            -1.8584755063056946e-01 5.5293723940849304e-02</leafValues></_>
        <_>
          <internalNodes>
            0 -1 570 8.3220615983009338e-02</internalNodes>
          <leafValues>
            3.2693073153495789e-02 -2.9249039292335510e-01</leafValues></_>
        <_>
          <internalNodes>
            0 -1 882 1.9571218639612198e-02</internalNodes>
          <leafValues>
            -8.8969424366950989e-02 1.0502161830663681e-01</leafValues></_>
        <_>
          <internalNodes>
            0 -1 651 6.5766155719757080e-02</internalNodes>
          <leafValues>
            -6.6414281725883484e-02 1.3869643211364746e-01</leafValues></_>
        <_>
          <internalNodes>
            0 -1 38 8.0852366983890533e-02</internalNodes>
          <leafValues>
            4.7068614512681961e-02 -2.2660197317600250e-01</leafValues></_>
        <_>
          <internalNodes>
            0 -1 540 7.2719115996733308e-04</internalNodes>
          <leafValues>
            4.7097599506378174e-01 -1.8258336931467056e-02</leafValues></_>
        <_>
          <internalNodes>
            0 -1 390 1.1146438773721457e-03</internalNodes>
          <leafValues>
            -7.4144011735916138e-01 1.1927368119359016e-02</leafValues></_>
        <_>
          <internalNodes>
            0 -1 265 1.2722709216177464e-03</internalNodes>
          <leafValues>
            5.0983262062072754e-01 -2.2291447967290878e-02</leafValues></_>
        <_>
          <internalNodes>
            0 -1 216 2.0232456736266613e-03</internalNodes>
          <leafValues>
            -3.4772083163261414e-01 2.6604713872075081e-02</leafValues></_>
        <_>
          <internalNodes>
            0 -1 95 6.3239634037017822e-02</internalNodes>
          <leafValues>
            -6.8065188825130463e-02 1.4502222836017609e-01</leafValues></_>
        <_>
          <internalNodes>
            0 -1 248 1.5245381742715836e-02</internalNodes>
          <leafValues>
            -1.0434828698635101e-01 9.8758995532989502e-02</leafValues></_>
        <_>
          <internalNodes>
            0 -1 695 2.0503237843513489e-02</internalNodes>
          <leafValues>
            7.0862092077732086e-02 -1.5519621968269348e-01</leafValues></_>
        <_>
          <internalNodes>
            0 -1 17 1.3668155297636986e-02</internalNodes>
          <leafValues>
            -1.4333589375019073e-01 6.5387569367885590e-02</leafValues></_>
        <_>
          <internalNodes>
            0 -1 948 4.5846715569496155e-02</internalNodes>
          <leafValues>
            9.5266951248049736e-03 -8.5894078016281128e-01</leafValues></_>
        <_>
          <internalNodes>
            0 -1 636 1.6118142008781433e-01</internalNodes>
          <leafValues>
            7.5916973873972893e-03 -7.9891818761825562e-01</leafValues></_>
        <_>
          <internalNodes>
            0 -1 209 1.2994835153222084e-02</internalNodes>
          <leafValues>
            1.4490565657615662e-01 -6.1245243996381760e-02</leafValues></_>
        <_>
          <internalNodes>
            0 -1 198 7.6111361384391785e-02</internalNodes>
          <leafValues>
            3.3237289637327194e-02 -3.0470564961433411e-01</leafValues></_>
        <_>
          <internalNodes>
            0 -1 66 7.2493419051170349e-02</internalNodes>
          <leafValues>
            -3.1372733414173126e-02 2.7377969026565552e-01</leafValues></_>
        <_>
